2022 100
a 0.1962947 -0.961025 -0.19756506 0.4990333 -0.033707645 -0.22164805 -0.19993134 -0.5515718 -0.23415297 -0.18989375 -0.045997277 -0.019165572 -0.11606559 0.058669657 0.033188358 -0.14097452 0.24226286 0.14913101 -0.3003703 -0.30047125 0.05228729 -0.3661972 -0.6868201 -0.65290564 -0.12898369 -0.11365647 0.5347833 -0.25334117 0.06534657 0.122054026 -0.30952954 0.15477714 0.5492918 -0.096322455 0.44327164 -0.10601834 -0.10931055 0.12891686 -0.140348 0.24530795 -0.45403716 0.055931162 -0.23726018 0.024049886 -0.038886134 -0.7347308 0.020633215 0.6797354 -0.0018470624 0.20899266 0.10177487 -0.116145045 0.50031173 -0.06871941 -0.06930617 -0.10734174 -0.19871198 -0.16127242 0.2745034 0.22173713 0.40728727 -0.43780848 -0.08811791 0.1505133 -0.24157651 -0.7432844 -0.26449084 0.3714802 -0.27761385 -0.33719078 0.7114474 -0.033126988 -0.3043565 0.14868891 0.51486593 0.22823445 -0.024427606 -0.03222123 -0.17217506 -0.181855 -0.07911141 -0.23336355 -0.6199121 0.2883717 0.6528415 -0.4527037 0.046327457 -0.26350614 -0.29007947 -0.2162621 0.017160218 0.35960925 -0.24435805 -0.07841302 0.15238604 -0.5418086 0.021965439 -0.67783165 0.4003091 0.23890552
de 0.20847997 -1.0153164 -0.20622213 0.5222604 -0.031468954 -0.23997779 -0.19907011 -0.5852436 -0.2564815 -0.18885548 -0.05526412 -0.006063501 -0.124155186 0.072317615 0.04866497 -0.13724814 0.2507121 0.14299366 -0.3098179 -0.3035106 0.04965328 -0.39428383 -0.73057806 -0.69107366 -0.13576728 -0.11381135 0.5630731 -0.26744458 0.082680576 0.13034658 -0.3132495 0.1616401 0.5691225 -0.11294137 0.47361228 -0.10923585 -0.119222134 0.12849882 -0.14170563 0.2631025 -0.4781844 0.0659683 -0.24335505 0.02105726 -0.03043923 -0.7648197 0.033088785 0.70825636 0.0037816819 0.21033576 0.08978535 -0.124199145 0.50650924 -0.071858086 -0.06874151 -0.11152529 -0.19549823 -0.14924584 0.29979086 0.24126962 0.43911242 -0.4549895 -0.09994856 0.15964137 -0.25690788 -0.78375274 -0.2820955 0.3960335 -0.28925848 -0.36512607 0.7508716 -0.016703561 -0.31759873 0.15522572 0.5312028 0.23577385 -0.023456216 -0.027681276 -0.16597728 -0.19437882 -0.09111478 -0.25739765 -0.6353099 0.30982125 0.68876845 -0.47118047 0.059504777 -0.2792404 -0.30131066 -0.22739933 0.020246565 0.3843077 -0.2424877 -0.07793072 0.16232486 -0.5666989 0.019180756 -0.6961719 0.43676537 0.24841249
o 0.19427225 -0.9663517 -0.19634685 0.4745406 -0.03276003 -0.24154276 -0.18259841 -0.56530243 -0.22980212 -0.16294426 -0.05669604 -0.009324064 -0.0795011 0.067776404 0.05632216 -0.124138966 0.25870323 0.124335535 -0.283158 -0.2836355 0.056832194 -0.38730058 -0.68149585 -0.64013714 -0.12744264 -0.11791145 0.53977484 -0.2575952 0.06407935 0.11781549 -0.29184324 0.13940924 0.548723 -0.10579031 0.43086064 -0.11429251 -0.10673052 0.116942935 -0.13386476 0.22696123 -0.4322722 0.0447173 -0.24395128 0.015636118 -0.037400167 -0.7191134 0.045725573 0.6482695 0.019430336 0.21217975 0.119344935 -0.13885474 0.48011348 -0.090156145 -0.07742272 -0.12962553 -0.19443376 -0.15876813 0.27524543 0.22683375 0.4091952 -0.42573377 -0.08465629 0.15503721 -0.25013635 -0.74422467 -0.27694732 0.38736612 -0.28734177 -0.33446953 0.7093264 -0.034537904 -0.3036324 0.14056829 0.5021592 0.22963466 -0.019337643 -0.016911574 -0.19380729 -0.19148715 -0.06687338 -0.24257338 -0.6209006 0.28643218 0.6592761 -0.43339086 0.053708505 -0.27043316 -0.26854783 -0.22686848 -0.0018296258 0.3533567 -0.23305641 -0.07159865 0.15784074 -0.5307036 0.028104372 -0.6871301 0.3997864 0.26375818
que 0.18022858 -0.9186215 -0.16023476 0.45544478 -0.021629969 -0.23245122 -0.19954191 -0.5449678 -0.22688617 -0.18141946 -0.05283356 -0.011536485 -0.087751865 0.04100128 0.04642312 -0.12680368 0.25240391 0.13858373 -0.27925268 -0.30074522 0.04504596 -0.34522158 -0.65488726 -0.6304127 -0.1257692 -0.11720908 0.5196193 -0.2407904 0.07306068 0.11578888 -0.28835338 0.13898271 0.5319381 -0.113871686 0.41045764 -0.11190142 -0.10433956 0.099437855 -0.1334185 0.229877 -0.39305013 0.050335873 -0.24852099 0.02509953 -0.033846043 -0.69272393 0.029278133 0.6357432 0.0023999338 0.19487803 0.10344913 -0.13643475 0.46279702 -0.07634698 -0.08062052 -0.10617857 -0.15710816 -0.15723546 0.25981426 0.22825713 0.38478446 -0.41340706 -0.08816707 0.15147921 -0.22888792 -0.71337837 -0.26002753 0.3561521 -0.2744054 -0.31826574 0.69171065 -0.03602006 -0.27535662 0.13303375 0.48689613 0.21421997 -0.015148364 -0.011564867 -0.16596003 -0.17500266 -0.08009654 -0.2405469 -0.5802558 0.26812065 0.59898627 -0.40388578 0.04201601 -0.24292909 -0.26499566 -0.19858427 0.004856301 0.3198999 -0.23174246 -0.07134855 0.16384883 -0.5080972 0.041758705 -0.65103513 0.38541663 0.24198928
e 0.20700088 -0.9981252 -0.21339318 0.49744555 -0.03067925 -0.2304069 -0.18588255 -0.57161427 -0.2572014 -0.18186948 -0.059706226 -0.019088306 -0.117386244 0.07333128 0.045332327 -0.13420208 0.242072 0.12473035 -0.30468655 -0.3032271 0.048058555 -0.38823268 -0.70527625 -0.6543953 -0.13217889 -0.113459356 0.53641945 -0.26391152 0.06497306 0.12900987 -0.30954063 0.15289974 0.54374945 -0.101607785 0.4408675 -0.10070848 -0.11469333 0.13577972 -0.12623112 0.24741471 -0.45390305 0.0720924 -0.23280841 0.024094634 -0.016400026 -0.7345047 0.03530227 0.67200726 0.004932546 0.20593163 0.106088035 -0.12389032 0.5022422 -0.071191035 -0.066557854 -0.12821019 -0.20939586 -0.15116993 0.30477294 0.23765635 0.4256208 -0.44733047 -0.103507385 0.15296619 -0.24102406 -0.75533265 -0.28305224 0.3777232 -0.29038382 -0.34679627 0.7315168 -0.029744184 -0.3134513 0.15337935 0.50954175 0.22988014 -0.008261123 -0.015642302 -0.17419556 -0.19780909 -0.08368653 -0.25125214 -0.6222339 0.30174422 0.66180265 -0.45448524 0.04425288 -0.26786876 -0.2991919 -0.22562887 0.008254242 0.3722183 -0.237093 -0.082058445 0.1579885 -0.55310524 0.02202922 -0.6870391 0.4196816 0.24155553
harry 0.18039498 -0.9384814 -0.1756289 0.46528167 -0.021938313 -0.2331034 -0.1980872 -0.53913677 -0.23785451 -0.18573576 -0.056862563 -0.014598705 -0.09978653 0.05347439 0.035537936 -0.13522106 0.24111696 0.12691233 -0.28514218 -0.2870872 0.043169953 -0.37273115 -0.670963 -0.63085014 -0.13130254 -0.1129611 0.51625824 -0.24240366 0.06278712 0.119668074 -0.29707077 0.14071147 0.53005433 -0.094927706 0.41243196 -0.10305387 -0.10179736 0.10793432 -0.11846823 0.23652297 -0.42439732 0.05295617 -0.23112686 0.012471605 -0.021170188 -0.69200295 0.035028853 0.63372815 0.012755091 0.18924311 0.091642514 -0.12197565 0.45727378 -0.07607664 -0.07335537 -0.111400016 -0.19114965 -0.1515466 0.27548188 0.22983278 0.3908973 -0.41510352 -0.08121881 0.16181608 -0.22516024 -0.71170634 -0.26808798 0.36684155 -0.27729976 -0.32814634 0.69419587 -0.030703695 -0.2843227 0.143401 0.48443046 0.21021143 -0.028660055 -0.019209307 -0.16399807 -0.18703258 -0.076185234 -0.2253243 -0.5981223 0.27416202 0.6349461 -0.4257812 0.045452274 -0.25520414 -0.26943442 -0.20799185 -0.00414678 0.33838302 -0.22828178 -0.07917122 0.1645362 -0.5214915 0.017040148 -0.657869 0.3957415 0.2511558
se 0.19154468 -0.96211547 -0.18761371 0.47674274 -0.037630133 -0.2234311 -0.19416699 -0.55895364 -0.24529743 -0.18661132 -0.051406138 -0.014056835 -0.09812802 0.06809095 0.04878786 -0.13500948 0.24470991 0.13812514 -0.28815612 -0.2929759 0.047095623 -0.37821528 -0.6924734 -0.6499732 -0.13439077 -0.11530526 0.52595836 -0.2528741 0.06796294 0.12771179 -0.2971118 0.14448328 0.54352367 -0.096402675 0.42727754 -0.11361433 -0.11336553 0.123752475 -0.13497438 0.24646145 -0.43679002 0.061322846 -0.23705927 0.024630724 -0.03789361 -0.7178611 0.026333436 0.6631076 0.001592032 0.21002367 0.09992091 -0.11526592 0.47919917 -0.07336384 -0.079162985 -0.122059114 -0.18597385 -0.15004507 0.28099644 0.23219605 0.408503 -0.42462146 -0.091590814 0.15562335 -0.2382693 -0.7374337 -0.26985553 0.37701437 -0.2766514 -0.33593398 0.7091106 -0.029533846 -0.29685637 0.15294407 0.5099139 0.2197049 -0.026386576 -0.017393986 -0.1668516 -0.18684976 -0.07200012 -0.23771511 -0.61132437 0.28149745 0.63857013 -0.4352172 0.05199112 -0.2557534 -0.28354284 -0.21221617 0.0024639596 0.35273698 -0.23487493 -0.081904896 0.16271567 -0.53793037 0.01851158 -0.6652693 0.40303934 0.2509602
não 0.20286785 -0.97853243 -0.17385224 0.4712649 -0.029059885 -0.24090932 -0.20598143 -0.5838882 -0.235517 -0.17560789 -0.05298888 -0.013021842 -0.084592 0.058735523 0.060480554 -0.12555145 0.25849417 0.14858226 -0.2930514 -0.3113423 0.055648156 -0.38050297 -0.6983378 -0.6704551 -0.13759114 -0.12504093 0.5509303 -0.25567693 0.08473492 0.12197708 -0.30068123 0.13633983 0.57334024 -0.11692574 0.4322471 -0.114301465 -0.11182449 0.11104952 -0.14142434 0.23952492 -0.43308303 0.047810677 -0.27145848 0.025291713 -0.052005976 -0.72739595 0.03233176 0.6733295 0.009111282 0.2244497 0.10594185 -0.1468078 0.4875419 -0.084107935 -0.0712977 -0.11899027 -0.17622028 -0.16043523 0.27765295 0.24517338 0.41257766 -0.44165424 -0.083908066 0.16634318 -0.25432533 -0.7581448 -0.27300775 0.3838428 -0.28386542 -0.32588094 0.7309856 -0.032205276 -0.29786503 0.13972296 0.5302276 0.22478013 -0.026507547 -0.013438943 -0.18870941 -0.19586958 -0.07586588 -0.24725382 -0.6132673 0.28437778 0.6441488 -0.43730253 0.051952418 -0.26634115 -0.27759585 -0.21677716 -0.0038509083 0.35205504 -0.25951496 -0.06640556 0.17609556 -0.54676974 0.047467723 -0.69191253 0.4123394 0.26436952
um 0.2149955 -1.0576733 -0.21896791 0.538551 -0.029676178 -0.259963 -0.19813837 -0.6002604 -0.26870513 -0.18783155 -0.055837616 -0.002224853 -0.11181978 0.08108978 0.0455373 -0.14265676 0.2554438 0.15325496 -0.3199555 -0.32177544 0.055108063 -0.41379148 -0.7602455 -0.704413 -0.14061247 -0.1273742 0.5747691 -0.2862736 0.076799385 0.13794918 -0.33440736 0.15788789 0.59720004 -0.116262056 0.4826662 -0.111696064 -0.12936948 0.13275003 -0.13268267 0.27458024 -0.4807331 0.06042943 -0.25199127 0.014443616 -0.03331287 -0.78117055 0.027242832 0.72466207 0.0051383707 0.22899191 0.107144415 -0.1345706 0.5227236 -0.08076857 -0.08921697 -0.12592329 -0.209754 -0.15217395 0.30347076 0.25020364 0.45242622 -0.46845144 -0.11064871 0.16971181 -0.2673178 -0.796673 -0.28765345 0.41186273 -0.31344402 -0.37680408 0.7766975 -0.032828894 -0.33656946 0.15638468 0.5475114 0.24778718 -0.030270476 -0.01877145 -0.17586553 -0.21171279 -0.0941824 -0.2609561 -0.6775011 0.31485245 0.708041 -0.49075717 0.051803455 -0.28751695 -0.30788282 -0.23214705 0.009917258 0.3925532 -0.24859923 -0.08450427 0.16501315 -0.5788776 0.033140697 -0.733416 0.45288727 0.27166694
para 0.19355759 -1.008196 -0.19598283 0.5065351 -0.023900995 -0.23348986 -0.2122544 -0.589918 -0.2627044 -0.2037339 -0.061615802 -0.009304262 -0.10954776 0.05912727 0.033178713 -0.1384862 0.25790083 0.13500963 -0.31506002 -0.31424806 0.04736052 -0.39208755 -0.72373116 -0.67593545 -0.13221607 -0.12153054 0.54516095 -0.27379602 0.0663242 0.13282454 -0.30919302 0.14722456 0.5753681 -0.111125484 0.4443048 -0.11555922 -0.11338629 0.121608965 -0.13731492 0.26045862 -0.45653918 0.0643786 -0.25544488 0.02261614 -0.022667892 -0.74376106 0.03749239 0.6908245 -0.00054445345 0.19973588 0.10240023 -0.12792319 0.5122671 -0.067502715 -0.07336792 -0.13331051 -0.20745401 -0.14816526 0.30957988 0.25152463 0.43094778 -0.45640332 -0.088670224 0.16363454 -0.23902538 -0.7671159 -0.28406456 0.3947007 -0.29898462 -0.36063343 0.7477467 -0.027543558 -0.3150752 0.16369683 0.53205013 0.23986614 -0.0188369 -0.016535278 -0.18078017 -0.19932787 -0.07438887 -0.2574419 -0.6433131 0.29453772 0.6738047 -0.46458852 0.043452464 -0.2734846 -0.3031463 -0.23022005 0.0014223633 0.36773643 -0.24516834 -0.08137493 0.16331491 -0.55791736 0.013077505 -0.6979862 0.42855823 0.25025713
com 0.20722179 -1.0009882 -0.20375665 0.4980203 -0.036247667 -0.23093186 -0.18891743 -0.5768967 -0.25197297 -0.18330985 -0.0591689 -0.022133408 -0.11758664 0.059899684 0.041815408 -0.14377502 0.24253929 0.14244074 -0.29864037 -0.3062455 0.039253082 -0.37786 -0.7188321 -0.6683868 -0.12694938 -0.116761915 0.54139036 -0.2692236 0.066854775 0.13007899 -0.307071 0.1455392 0.5598099 -0.1070642 0.4510899 -0.10972273 -0.12194656 0.12937547 -0.12455466 0.2601151 -0.45409754 0.06983422 -0.24681814 0.02992052 -0.027077688 -0.73717684 0.036797144 0.6709793 -0.001732742 0.21429437 0.09906503 -0.1206441 0.49835318 -0.0641033 -0.067825206 -0.12434604 -0.19599456 -0.15665793 0.2937934 0.24112885 0.4282161 -0.4466199 -0.09204894 0.162689 -0.24355617 -0.7528075 -0.2829793 0.38713792 -0.2957935 -0.353987 0.72753924 -0.023281682 -0.31051695 0.14860602 0.5109283 0.22311501 -0.02536631 -0.030479932 -0.18247643 -0.19804929 -0.08570976 -0.23937993 -0.6212558 0.29298294 0.6528178 -0.4505195 0.04454683 -0.26257694 -0.294147 -0.21793428 0.014536599 0.36579233 -0.23883177 -0.08713437 0.16718833 -0.5540995 0.020299932 -0.68403697 0.40967634 0.25284278
do 0.21527867 -1.0505819 -0.21419123 0.5296026 -0.03537955 -0.24809098 -0.20068291 -0.6082082 -0.26232898 -0.19076656 -0.058881614 -0.013824614 -0.1108452 0.079650946 0.038353555 -0.14151014 0.25533196 0.1446216 -0.3226595 -0.31441003 0.06050473 -0.4101629 -0.7521238 -0.70079386 -0.1385757 -0.11405076 0.57250106 -0.28897098 0.081116006 0.13489106 -0.33529294 0.16703764 0.5875498 -0.11244122 0.4856682 -0.1152101 -0.11752274 0.12602355 -0.14610617 0.27324197 -0.4797752 0.06466253 -0.2531544 0.021868175 -0.03345511 -0.78790843 0.03648567 0.72784746 0.007131716 0.22309944 0.095678605 -0.124992214 0.52840567 -0.07071603 -0.08170669 -0.13425145 -0.21977046 -0.15385738 0.3197586 0.23827425 0.441689 -0.47735834 -0.107150316 0.17667691 -0.26305816 -0.803489 -0.2951721 0.41286963 -0.29922852 -0.36654466 0.7637663 -0.023413291 -0.32589257 0.16810532 0.5396117 0.24645531 -0.021723974 -0.02249498 -0.18117502 -0.20229077 -0.08589089 -0.25662598 -0.6586794 0.316679 0.7020597 -0.4896348 0.046973966 -0.28875858 -0.31123635 -0.23889782 0.017988104 0.38855636 -0.25076845 -0.08348996 0.16288157 -0.57490367 0.021194912 -0.7139589 0.4487935 0.26771384
os 0.20167843 -1.0343182 -0.21705659 0.51642925 -0.033974353 -0.24916665 -0.19437905 -0.5989184 -0.26356736 -0.17303126 -0.055328157 -0.0077828835 -0.12822254 0.080639824 0.050826594 -0.13807425 0.25081944 0.15231076 -0.31858942 -0.31246692 0.052593593 -0.39323345 -0.74675834 -0.6963789 -0.14883304 -0.12628643 0.56525666 -0.2835031 0.07333052 0.14164181 -0.3213804 0.15838234 0.5707653 -0.114778824 0.46841115 -0.10700645 -0.12450725 0.118261814 -0.126969 0.2608043 -0.4757278 0.07414968 -0.26555252 0.024597028 -0.037269417 -0.78271776 0.040565226 0.7129597 -0.00045827532 0.21371764 0.10915999 -0.12726398 0.5268946 -0.07262043 -0.079091206 -0.12600048 -0.2123729 -0.14232008 0.29940128 0.24091183 0.44526258 -0.48143372 -0.105101064 0.17362906 -0.2599659 -0.8030856 -0.27682602 0.4061239 -0.29816604 -0.36991906 0.7596112 -0.021077298 -0.3338796 0.1623915 0.5521884 0.23735064 -0.034996673 -0.035356455 -0.15901278 -0.21015494 -0.076247245 -0.24876454 -0.65560746 0.31432864 0.69210184 -0.47640282 0.06660214 -0.27322063 -0.2989421 -0.22793382 0.03117966 0.39530542 -0.26057518 -0.07384939 0.1638727 -0.57530206 0.02001141 -0.70864856 0.43759 0.26679224
uma 0.19823077 -1.0199347 -0.20446026 0.5135033 -0.03418801 -0.24557382 -0.20613727 -0.5925299 -0.2502283 -0.18505 -0.054271556 -0.007219948 -0.100736625 0.08051327 0.044179153 -0.14191157 0.24577904 0.14955068 -0.3093469 -0.30870742 0.062329065 -0.4019016 -0.7393018 -0.69125265 -0.12892565 -0.12410782 0.5599017 -0.2747322 0.08185236 0.13739248 -0.32247087 0.16512138 0.58574545 -0.10585846 0.4694903 -0.120859824 -0.12293815 0.13271478 -0.13291888 0.25521335 -0.47451177 0.057331104 -0.25264472 0.01812473 -0.04502742 -0.7669339 0.025841203 0.7036063 0.004864704 0.22533104 0.09958317 -0.12518159 0.51708317 -0.07886676 -0.08204991 -0.113083564 -0.1938055 -0.15690073 0.29212606 0.24599938 0.43064162 -0.4546875 -0.09755348 0.17363697 -0.2649874 -0.7819695 -0.2850434 0.40074158 -0.29269588 -0.35705367 0.75335515 -0.027669044 -0.32625428 0.14955316 0.54396397 0.23346083 -0.030053772 -0.026038432 -0.17839175 -0.1971625 -0.079437934 -0.2577447 -0.6571187 0.30440068 0.6909444 -0.47718853 0.059038397 -0.27198374 -0.30498636 -0.223546 0.01363661 0.38174388 -0.2486183 -0.07426363 0.16669232 -0.5784896 0.039755337 -0.7166065 0.44112405 0.2661846
disse 0.19754836 -0.9338587 -0.18719418 0.45261055 -0.032331455 -0.2366433 -0.18871064 -0.54643816 -0.2259101 -0.17411831 -0.052937157 -0.015547673 -0.09440156 0.050011545 0.062357858 -0.11011474 0.2457241 0.11600527 -0.26887122 -0.28726748 0.03855211 -0.35932598 -0.6507915 -0.6340406 -0.13622136 -0.1096743 0.5191638 -0.24724239 0.06440097 0.12825389 -0.28585055 0.131394 0.536174 -0.1056063 0.39867088 -0.10594976 -0.10946382 0.11945787 -0.124094225 0.22406891 -0.4122025 0.061625954 -0.24179116 0.0077697285 -0.031795822 -0.68545365 0.031571243 0.6236191 0.0032315236 0.1913298 0.11348893 -0.13861434 0.45533317 -0.082501695 -0.06639335 -0.11422777 -0.17886305 -0.16646984 0.26702562 0.2337792 0.39564317 -0.41455185 -0.087325715 0.1460569 -0.22660732 -0.70497483 -0.26765642 0.35457858 -0.27804878 -0.3162407 0.6835884 -0.04194037 -0.2855769 0.13212377 0.48668003 0.2062474 -0.008921883 -0.004833694 -0.18349719 -0.19266804 -0.06347215 -0.2325406 -0.5717756 0.2676197 0.60694224 -0.40090203 0.04648634 -0.24048807 -0.2552015 -0.21437678 -0.002264191 0.32751274 -0.22753577 -0.07470211 0.15709823 -0.5167349 0.039756928 -0.6589333 0.37656474 0.24144553
da 0.21261609 -1.1213498 -0.22114761 0.58332103 -0.027283479 -0.2584554 -0.21677098 -0.6454209 -0.28092492 -0.21997504 -0.060361672 -0.022113118 -0.13760094 0.076743275 0.04576534 -0.1514734 0.26890373 0.16176593 -0.3353388 -0.3397114 0.058702443 -0.42420563 -0.80276483 -0.7518803 -0.14233135 -0.12007758 0.61030287 -0.29744533 0.092831545 0.15023978 -0.3585069 0.18503433 0.62448853 -0.10678952 0.5232291 -0.136279 -0.13257037 0.1401383 -0.1545691 0.30045405 -0.514992 0.07241927 -0.26333767 0.027326869 -0.041285455 -0.8432549 0.03161746 0.7883516 0.004478959 0.24041374 0.09329859 -0.12306742 0.56811917 -0.066897154 -0.08312234 -0.1272924 -0.2237646 -0.17181796 0.33713096 0.25356963 0.46478668 -0.49886376 -0.09947357 0.1789282 -0.2808489 -0.84422815 -0.3121022 0.42852318 -0.31922626 -0.38063288 0.82457566 -0.017534196 -0.35135916 0.16337557 0.5876901 0.25258845 -0.017269056 -0.044730216 -0.185212 -0.21898033 -0.09041637 -0.27354652 -0.69970363 0.3390135 0.74938273 -0.522788 0.059987504 -0.30370992 -0.31951612 -0.2494003 0.01670304 0.4097204 -0.26635864 -0.0871699 0.17386031 -0.6218076 0.028811648 -0.76054084 0.4776109 0.2762463
ron 0.1546108 -0.8407544 -0.16931988 0.404448 -0.019268716 -0.20421126 -0.18467285 -0.4742585 -0.20552164 -0.16897117 -0.05964542 -0.023310432 -0.089878425 0.041549124 0.026792262 -0.1226569 0.21230595 0.1007182 -0.24558648 -0.26494682 0.03221126 -0.3206876 -0.5911166 -0.5550558 -0.11389898 -0.10185637 0.45520568 -0.21634583 0.056380667 0.12068946 -0.26945588 0.13139667 0.46824118 -0.08458717 0.36617076 -0.07812632 -0.10294373 0.112990595 -0.1024831 0.19922689 -0.3756606 0.067220844 -0.2097016 0.018024052 -0.018198239 -0.6164816 0.02615673 0.56229043 0.018294701 0.16352753 0.09966325 -0.11346481 0.41338986 -0.058441866 -0.059731767 -0.11549084 -0.16734198 -0.13788357 0.24511841 0.20832364 0.35166302 -0.36117417 -0.072008 0.13575332 -0.19196725 -0.6288398 -0.2382273 0.32607868 -0.2531686 -0.30208495 0.6153504 -0.024081603 -0.26589787 0.12480261 0.43282926 0.18330036 -0.022390693 -0.014988924 -0.15879099 -0.17431504 -0.063157625 -0.2073627 -0.5435713 0.23992239 0.55657476 -0.3819444 0.04319286 -0.23230141 -0.246877 -0.18939142 -0.0059021926 0.29682574 -0.20554875 -0.06287631 0.13727126 -0.4643556 0.018127143 -0.590788 0.3364443 0.22621974
em 0.20075771 -1.0809227 -0.22085008 0.54160225 -0.031284448 -0.24724318 -0.21957365 -0.626415 -0.27026293 -0.20757522 -0.06362626 -0.022603525 -0.12424787 0.075556345 0.04985006 -0.14269239 0.25608528 0.15112114 -0.32728365 -0.32377893 0.055580482 -0.4161955 -0.7782234 -0.72852427 -0.13082895 -0.118423335 0.57731825 -0.28760752 0.087770596 0.14496969 -0.33870035 0.16993086 0.61212313 -0.11846967 0.48801553 -0.11718364 -0.124445334 0.13106382 -0.14898363 0.27059352 -0.49237305 0.05875633 -0.25897968 0.026150517 -0.028829122 -0.80090564 0.03216774 0.74191856 -0.00032917497 0.23127124 0.095605485 -0.1272727 0.546554 -0.07599767 -0.087647185 -0.12945208 -0.2243724 -0.1662885 0.32324958 0.26151332 0.4538173 -0.4763287 -0.09370898 0.17566605 -0.269466 -0.81388927 -0.28599554 0.4200085 -0.3147755 -0.36415288 0.7968474 -0.014703026 -0.34123397 0.17543332 0.5560171 0.24414164 -0.020824334 -0.019303296 -0.17350894 -0.21591775 -0.08768299 -0.2773534 -0.6725968 0.32163838 0.72516507 -0.49086666 0.04607898 -0.2886809 -0.30920875 -0.2394181 0.0049665496 0.40380585 -0.26928416 -0.08828393 0.16839933 -0.5994763 0.03362286 -0.7343449 0.45657575 0.27523497
as 0.20924054 -1.0780624 -0.20919476 0.552319 -0.026661813 -0.26458082 -0.21115236 -0.6148459 -0.2712873 -0.20859449 -0.059714697 -0.007332536 -0.11301147 0.07380898 0.048861668 -0.14478122 0.26988792 0.16661157 -0.3166197 -0.34020224 0.057057712 -0.4185868 -0.7811679 -0.72206783 -0.13528343 -0.12713897 0.60371536 -0.2899646 0.070455484 0.1478856 -0.33878976 0.15877862 0.6012536 -0.10915653 0.49773526 -0.12514591 -0.1268539 0.12053566 -0.14799066 0.26833752 -0.49872887 0.07322628 -0.26963475 0.026577577 -0.035026893 -0.8105926 0.035451617 0.74334997 0.013293446 0.23731606 0.10349893 -0.12799816 0.54488814 -0.086120725 -0.091109686 -0.12703721 -0.22192308 -0.15748918 0.30949736 0.25150982 0.4484665 -0.49152878 -0.098401085 0.1749897 -0.26814944 -0.81324714 -0.29373676 0.4195059 -0.3215281 -0.38725343 0.8055587 -0.027197968 -0.34480718 0.1642774 0.56177473 0.25144267 -0.021507278 -0.024028702 -0.17690691 -0.22385065 -0.09351665 -0.26438427 -0.68667036 0.32972574 0.7239311 -0.4996481 0.046374872 -0.2961389 -0.3080153 -0.246939 0.0036581876 0.39291552 -0.2615787 -0.09210864 0.18142124 -0.5942512 0.03840722 -0.73754895 0.44628966 0.27248806
no 0.2207481 -1.1203214 -0.2317572 0.5663991 -0.03748979 -0.26209366 -0.20769797 -0.63714147 -0.28115207 -0.19554128 -0.066547066 -0.019675963 -0.11679078 0.08723254 0.056886885 -0.16084562 0.2768596 0.15763949 -0.337963 -0.33998182 0.0582343 -0.42749047 -0.8002718 -0.74858767 -0.1505368 -0.13564543 0.6158513 -0.3015739 0.08115848 0.15156937 -0.35174933 0.16785909 0.62659836 -0.11915844 0.50697047 -0.12757793 -0.12938786 0.13852315 -0.1497726 0.2883623 -0.51436377 0.067426205 -0.27248076 0.017379535 -0.039605606 -0.8269131 0.032069337 0.7586819 0.013558218 0.23908703 0.11204767 -0.13642931 0.5641043 -0.08180197 -0.08167661 -0.13219942 -0.23239173 -0.17155764 0.3286864 0.2592894 0.4703095 -0.4982161 -0.10051109 0.1829047 -0.27886668 -0.8439308 -0.30082348 0.441317 -0.32713515 -0.38518307 0.8151301 -0.034597516 -0.3510664 0.17447561 0.5780954 0.2603009 -0.015603639 -0.031280357 -0.19270079 -0.2193406 -0.09479558 -0.2790544 -0.7024457 0.33158982 0.7584831 -0.5138913 0.061000958 -0.2998405 -0.33127582 -0.25084126 0.0041784067 0.41817087 -0.26508278 -0.08897592 0.18233754 -0.6108809 0.03319396 -0.76833224 0.47093734 0.28321958
é 0.18490766 -0.9654226 -0.17706919 0.462674 -0.03673644 -0.24114452 -0.20237562 -0.57941866 -0.24143632 -0.18320887 -0.057631534 -0.021818973 -0.08587059 0.05957931 0.06291937 -0.11520619 0.262499 0.1322073 -0.28749025 -0.29924768 0.059277028 -0.3701126 -0.6832443 -0.65841144 -0.13917963 -0.12397588 0.54648674 -0.25861531 0.08225276 0.11711892 -0.30790555 0.13911356 0.57434595 -0.11008071 0.4228676 -0.11009635 -0.103861794 0.10985776 -0.13904636 0.23849486 -0.42193866 0.050006732 -0.2639574 0.030329395 -0.04227646 -0.7275926 0.030598748 0.653185 0.009105526 0.2194229 0.11238617 -0.13519691 0.48603582 -0.07824971 -0.0742631 -0.11990791 -0.17830257 -0.1622445 0.2652984 0.24598901 0.3987452 -0.4258419 -0.082728 0.16413835 -0.24018776 -0.7356235 -0.25628942 0.36974013 -0.279184 -0.32675803 0.7013101 -0.033778373 -0.2874344 0.13907331 0.51406693 0.21992832 -0.02238895 -0.017125893 -0.18109147 -0.18849291 -0.08072571 -0.25346172 -0.5982681 0.28769857 0.62749 -0.41858566 0.044205483 -0.26341248 -0.26600686 -0.20296304 -0.004464081 0.33753103 -0.2384616 -0.06704194 0.15948561 -0.5445274 0.038686816 -0.67894804 0.396854 0.25652596
mas 0.20190673 -0.9855923 -0.18175106 0.48803595 -0.029408606 -0.24304064 -0.20090893 -0.58109224 -0.24142502 -0.18863675 -0.05867915 -0.018419597 -0.104327805 0.058219343 0.052282427 -0.13069555 0.2584573 0.1447315 -0.29807773 -0.3122128 0.051817 -0.37784535 -0.71062165 -0.67350316 -0.12966484 -0.118737794 0.5495763 -0.26196823 0.07347998 0.12696707 -0.30433872 0.14541742 0.5672657 -0.10685386 0.43856516 -0.10964009 -0.10848918 0.11202348 -0.14380606 0.24883072 -0.4422123 0.057895828 -0.25548324 0.02556584 -0.046257008 -0.73401284 0.029373305 0.67385685 -0.0005189852 0.21502554 0.101943135 -0.12923083 0.4969564 -0.0805308 -0.07299458 -0.12068906 -0.18871054 -0.16274472 0.28516382 0.24416967 0.41343632 -0.44483334 -0.09341196 0.15716311 -0.2491264 -0.75674045 -0.27449563 0.3801996 -0.2943066 -0.33356097 0.73240155 -0.029331394 -0.3044983 0.14751638 0.52276045 0.23042734 -0.01715333 -0.01244445 -0.17760463 -0.18631683 -0.08435907 -0.24797949 -0.6211898 0.29240888 0.65419555 -0.44057617 0.052725546 -0.25963274 -0.28693402 -0.2214009 0.0059185987 0.35167128 -0.25260225 -0.07902343 0.17486282 -0.55624753 0.040358763 -0.69416755 0.41466483 0.24680229
na 0.21346492 -1.117639 -0.22133271 0.5744497 -0.035238955 -0.26051787 -0.22843395 -0.63807434 -0.27225378 -0.21769889 -0.0561295 -0.021382043 -0.12777732 0.07960774 0.05109692 -0.15643631 0.27018338 0.1707177 -0.33757296 -0.34781092 0.055912476 -0.43087682 -0.80425894 -0.7488973 -0.15100366 -0.12363642 0.61496556 -0.29487634 0.07664528 0.14457239 -0.34903622 0.18062031 0.6267266 -0.109521754 0.51783454 -0.12453604 -0.12797028 0.14066127 -0.15321413 0.2874469 -0.5134968 0.06618959 -0.27069488 0.019144561 -0.03716179 -0.84319013 0.035815343 0.773628 0.0019123164 0.24573791 0.108600914 -0.12915877 0.5721096 -0.07620537 -0.0813806 -0.1290022 -0.21836078 -0.18126613 0.32265642 0.2577193 0.47352797 -0.500321 -0.11251547 0.18332726 -0.28700754 -0.85134435 -0.3087178 0.4259545 -0.3191371 -0.38975653 0.81799304 -0.02742681 -0.34483317 0.1719077 0.58954144 0.2630118 -0.017758299 -0.0360502 -0.19517277 -0.21179706 -0.084215514 -0.2682965 -0.69363236 0.33658078 0.75015783 -0.51524085 0.055621874 -0.29159057 -0.33257028 -0.24538578 0.016008778 0.41178972 -0.26621482 -0.08858195 0.18085676 -0.6288933 0.029159155 -0.76614946 0.4651309 0.2772877
ele 0.18021934 -0.9189062 -0.17949007 0.45365524 -0.024217911 -0.22308187 -0.19416782 -0.5335011 -0.23130777 -0.17303433 -0.052703958 -0.015505424 -0.08615073 0.057108216 0.040391363 -0.12568939 0.24629109 0.13554078 -0.2707357 -0.285047 0.051826183 -0.3602363 -0.65653175 -0.62658376 -0.1251359 -0.11698321 0.51492584 -0.2420371 0.06984544 0.110636935 -0.28083175 0.13681594 0.5267092 -0.10679054 0.41458595 -0.108448476 -0.106196046 0.10527875 -0.12598349 0.23027618 -0.40932357 0.047984242 -0.2425716 0.021705095 -0.035317905 -0.6906632 0.036929093 0.62711865 0.0028484063 0.19828214 0.103962086 -0.12872574 0.4573294 -0.07871913 -0.07397462 -0.109928906 -0.17696787 -0.14768104 0.25738275 0.2248065 0.39303127 -0.40740773 -0.082991995 0.1526937 -0.22683203 -0.70279247 -0.2524048 0.3549064 -0.26768234 -0.31711718 0.67620623 -0.035147384 -0.28025767 0.13741983 0.49229187 0.21563269 -0.02665445 -0.021024503 -0.16211386 -0.17831908 -0.068233036 -0.2307634 -0.5883191 0.26592895 0.6134727 -0.4205054 0.04529382 -0.24827434 -0.2610436 -0.20671462 0.005041471 0.33968613 -0.23021892 -0.07471046 0.15521812 -0.5201077 0.028423961 -0.64557517 0.37889922 0.24314027
por 0.20055111 -1.0369884 -0.20753458 0.5170182 -0.02198166 -0.24926467 -0.20966205 -0.6114105 -0.25987437 -0.19420227 -0.057664193 -0.01846977 -0.10284022 0.06941545 0.05292261 -0.1401222 0.26581562 0.15043598 -0.30566633 -0.31550166 0.047546476 -0.40148264 -0.7451737 -0.7098369 -0.14190125 -0.12909727 0.57122797 -0.28391904 0.08528597 0.13707852 -0.33087048 0.15720613 0.5980916 -0.11826006 0.4655646 -0.11866415 -0.11611385 0.12409736 -0.14361782 0.26536778 -0.47916147 0.057384655 -0.25583482 0.030122574 -0.040909283 -0.7808224 0.038791988 0.70842963 0.008278873 0.21973255 0.10904908 -0.13973965 0.5137361 -0.082527384 -0.0848331 -0.12332709 -0.19523565 -0.16214718 0.3033296 0.24403381 0.4304579 -0.46408388 -0.0933154 0.16270725 -0.26789832 -0.7992032 -0.2884885 0.39460555 -0.30316496 -0.36266366 0.7677618 -0.032382853 -0.31799003 0.16332018 0.5403994 0.23454578 -0.019278297 -0.023254791 -0.17585213 -0.1969845 -0.08989082 -0.25767303 -0.65332854 0.30780873 0.69059795 -0.47143236 0.052654117 -0.27310076 -0.30232668 -0.2342133 0.007629936 0.38285786 -0.25678244 -0.085914925 0.16911869 -0.5731787 0.032590453 -0.7219271 0.441003 0.25914013
dos 0.20511793 -1.0990292 -0.22486743 0.5672985 -0.021897953 -0.25833315 -0.22198433 -0.6252226 -0.28389534 -0.19916965 -0.052334096 -0.00897096 -0.12906186 0.0872937 0.05729859 -0.1393206 0.265708 0.17086333 -0.3314258 -0.34218457 0.056254424 -0.40064135 -0.7925008 -0.74440515 -0.16145949 -0.13278428 0.5947494 -0.29876283 0.0964069 0.12943402 -0.33537212 0.18008663 0.5971226 -0.122493304 0.5095112 -0.13960946 -0.11984895 0.13468865 -0.14635351 0.29559812 -0.49763805 0.07340119 -0.25447795 0.02221945 -0.04580033 -0.83054006 0.03544092 0.7660607 -0.0020842454 0.23955555 0.0961447 -0.12919068 0.5649781 -0.08700754 -0.09048798 -0.12850346 -0.21449684 -0.15552045 0.33213693 0.24266548 0.45190445 -0.50420564 -0.100102976 0.18915182 -0.26814947 -0.84249467 -0.29167616 0.422874 -0.31671 -0.36891827 0.7932443 -0.01567003 -0.35246563 0.16321062 0.57774526 0.24946651 -0.014625184 -0.024565972 -0.1785271 -0.22206655 -0.08667021 -0.27379936 -0.67852914 0.3234659 0.72777075 -0.5052281 0.06983395 -0.28385165 -0.31453115 -0.22639321 0.034683235 0.38889185 -0.262177 -0.06846767 0.16546682 -0.601929 0.023606714 -0.7414769 0.4683276 0.2786905
ao 0.20035857 -1.0392852 -0.21240622 0.5179723 -0.023233695 -0.25427395 -0.1943298 -0.6016817 -0.25641122 -0.18991825 -0.0635648 -0.018461615 -0.10864278 0.071171895 0.05551794 -0.13608484 0.26363957 0.1314375 -0.3059358 -0.30914143 0.044589974 -0.39517376 -0.7261756 -0.689781 -0.14660685 -0.12296554 0.56746244 -0.27445868 0.07060184 0.13649178 -0.31899795 0.16053487 0.5827885 -0.11323886 0.46506867 -0.112615384 -0.11492667 0.13188133 -0.13380578 0.25580314 -0.47537664 0.060920853 -0.25571683 0.010707557 -0.030335972 -0.7734543 0.037946966 0.69917375 0.011175032 0.20890245 0.11037114 -0.130052 0.50720066 -0.08685165 -0.08247497 -0.1355512 -0.20199351 -0.16432136 0.30589283 0.23465201 0.442972 -0.46360716 -0.097495295 0.16920011 -0.26155326 -0.78912365 -0.28305218 0.39928254 -0.30445662 -0.36507282 0.76321876 -0.035831153 -0.3162855 0.15821208 0.52886456 0.23069906 -0.0099289855 -0.016434781 -0.18823409 -0.20809421 -0.07695638 -0.25422907 -0.65290713 0.2968973 0.700687 -0.45960745 0.049235906 -0.2790293 -0.29484296 -0.22778751 0.0006747825 0.38648424 -0.25497815 -0.081032865 0.16807427 -0.5730108 0.028679559 -0.71812326 0.4264706 0.26237482
como 0.18813631 -0.9185957 -0.18074095 0.4668587 -0.031790458 -0.21688166 -0.18184234 -0.54550546 -0.23439182 -0.17749687 -0.046022702 -0.008466263 -0.09593718 0.052326664 0.044376004 -0.12745942 0.23863451 0.12700287 -0.27852768 -0.28962892 0.046138838 -0.3576604 -0.6658915 -0.62561804 -0.12258916 -0.11713878 0.5073467 -0.24277732 0.06390195 0.11541293 -0.28771254 0.13426803 0.5321844 -0.10433683 0.41469488 -0.105455205 -0.09847251 0.10613554 -0.12801608 0.23573792 -0.4085087 0.05356404 -0.23579262 0.020208053 -0.039405648 -0.6914882 0.033732146 0.6270821 0.0050097057 0.19565526 0.09658147 -0.124696404 0.45823115 -0.06391247 -0.07526951 -0.107418135 -0.17318049 -0.14325333 0.26164246 0.23003192 0.3870328 -0.4160836 -0.08164212 0.15219606 -0.22757858 -0.70169663 -0.25348267 0.3560488 -0.27247995 -0.32625914 0.6834619 -0.031598836 -0.2788273 0.13472094 0.48573315 0.21533449 -0.021682223 -0.023808228 -0.1617834 -0.18013455 -0.07816547 -0.23582666 -0.58009005 0.26736626 0.61273867 -0.41490963 0.05022864 -0.247933 -0.26289558 -0.20465475 -7.201253e-05 0.332328 -0.22968814 -0.06895223 0.15114696 -0.50732356 0.027596533 -0.6374051 0.381821 0.23658471
à 0.21839616 -1.1005476 -0.21984507 0.5684014 -0.034413982 -0.25735375 -0.21457735 -0.6345701 -0.27967772 -0.21625029 -0.063487254 -0.015218291 -0.12642306 0.07306405 0.042417463 -0.15638855 0.266333 0.16758485 -0.33469042 -0.3342767 0.06117771 -0.41034356 -0.7863092 -0.73996115 -0.15040766 -0.1276994 0.6087713 -0.29866412 0.087701656 0.14609979 -0.34008035 0.17903051 0.6152508 -0.11436832 0.5133664 -0.13257937 -0.12804951 0.12665376 -0.14591984 0.2856148 -0.5097294 0.074036665 -0.2634956 0.026534038 -0.03228277 -0.8297375 0.039253652 0.7736671 0.011081206 0.22564138 0.097633086 -0.1259076 0.559153 -0.06862927 -0.084376656 -0.1282421 -0.22062103 -0.17008147 0.32150406 0.24455585 0.45583275 -0.5013914 -0.098633565 0.17699005 -0.2802978 -0.8329553 -0.30641192 0.42007348 -0.32305244 -0.38417017 0.8103153 -0.024446443 -0.33642882 0.16630854 0.5736885 0.2536878 -0.016563756 -0.04154648 -0.17610109 -0.2195623 -0.08231217 -0.26458833 -0.6928422 0.3289518 0.7388053 -0.50511634 0.050862867 -0.29804668 -0.32212344 -0.2440532 0.020424139 0.40995088 -0.2738193 -0.090750694 0.17500451 -0.60910374 0.04126876 -0.75181586 0.46176353 0.2731528
eu 0.19316493 -0.95041937 -0.17198321 0.46651414 -0.023824343 -0.24036507 -0.19372968 -0.5657787 -0.23058942 -0.17812313 -0.053037878 -0.017372783 -0.07706728 0.053838085 0.059348315 -0.12911661 0.25873768 0.14546968 -0.2869142 -0.29275414 0.04858767 -0.37203166 -0.680415 -0.65723443 -0.12381461 -0.124310255 0.53347653 -0.250061 0.0847501 0.1229191 -0.30588496 0.13953343 0.56526273 -0.11053376 0.42362463 -0.11032189 -0.09767816 0.10428743 -0.14643857 0.24060443 -0.43044573 0.043526642 -0.26694766 0.02705689 -0.04963461 -0.71503174 0.03641965 0.65303844 0.0120617775 0.21765104 0.106938496 -0.1355159 0.47954696 -0.083145425 -0.07132542 -0.119831346 -0.18092784 -0.15417647 0.26912326 0.24349053 0.39822707 -0.43072748 -0.080931775 0.16541591 -0.24774155 -0.7388514 -0.26576298 0.3758892 -0.2841815 -0.32624027 0.70780253 -0.03333193 -0.28902385 0.14244728 0.50794965 0.22826125 -0.020389086 -0.01003177 -0.18420431 -0.19108818 -0.07996651 -0.23563224 -0.59902 0.28133634 0.62993693 -0.4292705 0.046850976 -0.26564714 -0.26400384 -0.21196209 -0.0032521214 0.33597076 -0.24521981 -0.06860337 0.17425106 -0.54162395 0.04032424 -0.6707873 0.3982006 0.25860584
mais 0.18317409 -0.96023154 -0.18834014 0.47871107 -0.030723907 -0.23177443 -0.18759274 -0.55825895 -0.2477905 -0.16896284 -0.055815257 -0.009129583 -0.095792994 0.06344705 0.04022287 -0.130483 0.23782091 0.13636446 -0.28172895 -0.3048635 0.058041636 -0.3679561 -0.70123416 -0.65654385 -0.12104201 -0.12152865 0.5251195 -0.2606741 0.08359009 0.12129319 -0.30062634 0.14155991 0.5497576 -0.10339546 0.43348947 -0.102288075 -0.114212275 0.110939585 -0.13777654 0.23721339 -0.4379557 0.047623035 -0.2468539 0.028543564 -0.04477868 -0.7216762 0.022872785 0.6570897 0.0058941706 0.21731627 0.093972266 -0.12262687 0.4935494 -0.072564885 -0.08215295 -0.10981911 -0.18220921 -0.1449609 0.27272063 0.22632885 0.4004787 -0.42815116 -0.09647528 0.16126247 -0.24147764 -0.7425806 -0.27112326 0.36876878 -0.28158763 -0.33383685 0.70164526 -0.03235213 -0.30616283 0.13910282 0.51402843 0.22712567 -0.013022528 -0.017605545 -0.16198052 -0.19287157 -0.07622193 -0.24551089 -0.60949177 0.28745756 0.64872426 -0.44260496 0.04412804 -0.2636879 -0.28226554 -0.20879175 0.0040502944 0.35291654 -0.24274337 -0.07363926 0.1673774 -0.5441355 0.03669161 -0.6695491 0.40179726 0.24627887
estava 0.19714439 -0.95167565 -0.18596031 0.48109433 -0.033198383 -0.23266226 -0.18531184 -0.56698704 -0.2385419 -0.18091638 -0.04784013 -0.01718524 -0.09616258 0.059321437 0.043293327 -0.12891765 0.2364012 0.13597843 -0.28647375 -0.29737854 0.04623102 -0.37411305 -0.6904418 -0.6546722 -0.13229077 -0.11165608 0.5262741 -0.2623446 0.077700324 0.11888693 -0.30025357 0.14207539 0.53983235 -0.093777776 0.43506297 -0.117692515 -0.11291205 0.118295014 -0.13112865 0.25280344 -0.44136012 0.050324112 -0.2337819 0.020237494 -0.041675948 -0.711578 0.03199629 0.65603584 0.0021408743 0.2029013 0.0949715 -0.11776049 0.4827987 -0.0689003 -0.06558572 -0.12166317 -0.19414423 -0.15611444 0.28253442 0.22662385 0.41208568 -0.42961925 -0.08724528 0.15853773 -0.24092956 -0.7278827 -0.25851122 0.37510088 -0.28662133 -0.33722046 0.69796276 -0.026316997 -0.29256502 0.13739286 0.5032916 0.22536395 -0.025567468 -0.020866932 -0.16505738 -0.19155625 -0.07328357 -0.23167798 -0.60167855 0.2863132 0.6388172 -0.43372887 0.04825151 -0.25598547 -0.278852 -0.21810357 0.009509736 0.35346717 -0.24079289 -0.077185996 0.1649967 -0.5417924 0.02502108 -0.65675485 0.40263432 0.24229911
lhe 0.19818136 -0.98196936 -0.1904867 0.4912972 -0.031019755 -0.2342882 -0.20218636 -0.5778034 -0.24936141 -0.18736817 -0.0531958 -0.014459821 -0.100583985 0.068781205 0.043399952 -0.1300197 0.2538748 0.13892369 -0.2989158 -0.29827014 0.05370956 -0.3852329 -0.70797545 -0.65924585 -0.13569269 -0.11537427 0.5404847 -0.2598131 0.07243906 0.12783726 -0.30333954 0.15240504 0.56676245 -0.106741436 0.44689208 -0.10516741 -0.11557606 0.1183194 -0.13031714 0.24730511 -0.44234604 0.054992422 -0.2568256 0.025752192 -0.041576542 -0.731174 0.03186411 0.67064136 0.008268542 0.21512696 0.097344324 -0.123266876 0.49425328 -0.07562613 -0.06708379 -0.116280034 -0.19205792 -0.15194595 0.29195318 0.24067089 0.41313145 -0.43541896 -0.09545401 0.15678936 -0.2434584 -0.7571392 -0.27553928 0.3848466 -0.28775248 -0.34738705 0.723394 -0.02831058 -0.31009692 0.1482966 0.515902 0.2236885 -0.026371898 -0.027173785 -0.17481206 -0.19428638 -0.086030066 -0.24739651 -0.6236888 0.29178035 0.6569747 -0.45211852 0.04952076 -0.26144084 -0.29020572 -0.21272218 0.008654285 0.36437133 -0.24131708 -0.08300978 0.16992775 -0.5454513 0.03048253 -0.68429583 0.4150302 0.258658
hermione 0.17829828 -0.8754569 -0.1787067 0.43474287 -0.026058929 -0.21821427 -0.17790627 -0.49849 -0.21020034 -0.16033633 -0.053249437 -0.013405509 -0.086758636 0.06076232 0.03915274 -0.120317735 0.21852832 0.12020205 -0.25882885 -0.2649769 0.04430753 -0.34443867 -0.6220879 -0.59052294 -0.12169894 -0.10963646 0.48021868 -0.23134695 0.062678 0.118085586 -0.27430373 0.13023084 0.48705563 -0.09351601 0.39604223 -0.09757531 -0.10275481 0.1074468 -0.11249986 0.2179799 -0.39264682 0.057867967 -0.21462442 0.011726222 -0.023475293 -0.648408 0.03853502 0.58755195 0.007974824 0.17721064 0.09824465 -0.11257337 0.43679163 -0.06767665 -0.073368035 -0.11058401 -0.17629386 -0.14660493 0.2542489 0.20571272 0.3658569 -0.3879661 -0.08390112 0.14662655 -0.22173545 -0.6589709 -0.24548143 0.33296213 -0.2606071 -0.3054837 0.6466335 -0.02306761 -0.2754852 0.12549914 0.45764118 0.20229445 -0.019263709 -0.0241401 -0.1527967 -0.17037569 -0.05911504 -0.20560391 -0.5546845 0.25901207 0.59131765 -0.39821514 0.039178204 -0.23304643 -0.24305546 -0.18925868 0.008132169 0.3237232 -0.21777987 -0.06335341 0.1487555 -0.48842523 0.029449029 -0.6124104 0.36044377 0.23480198
era 0.18244483 -0.9026256 -0.16800737 0.43974808 -0.030317733 -0.21186131 -0.17941329 -0.53538674 -0.2316805 -0.16331144 -0.04489123 -0.005959385 -0.09651403 0.05506171 0.05134604 -0.11703784 0.2299177 0.1357067 -0.2742914 -0.27681747 0.05342452 -0.35316637 -0.65382254 -0.61394674 -0.11476186 -0.10686055 0.49400204 -0.24241892 0.0754893 0.10774041 -0.27850884 0.13899073 0.5221906 -0.0904655 0.40234625 -0.10169872 -0.10304751 0.11203302 -0.13052452 0.22746119 -0.4073556 0.045979287 -0.2283567 0.02167298 -0.037798695 -0.6756259 0.025402235 0.6124366 -0.0011128138 0.20321745 0.08533664 -0.11623043 0.4488352 -0.067691505 -0.06660546 -0.10677427 -0.17082717 -0.1409925 0.26442316 0.21625917 0.38098562 -0.39939734 -0.08179525 0.14684613 -0.22244675 -0.6960731 -0.24277495 0.34264502 -0.2605965 -0.31504124 0.6596106 -0.024509035 -0.2776193 0.13865821 0.47997314 0.21592066 -0.017661953 -0.018463507 -0.15766223 -0.18005535 -0.0815105 -0.23094633 -0.5717986 0.27038887 0.60165894 -0.4045339 0.04273371 -0.24700537 -0.26184788 -0.20129392 0.009452452 0.3268392 -0.22187883 -0.06280706 0.15578136 -0.5087707 0.02573969 -0.6182712 0.37454784 0.23298547
quando 0.19319113 -0.9799651 -0.19571652 0.48794824 -0.025037032 -0.23032703 -0.19349062 -0.5709485 -0.24981853 -0.18683146 -0.050838675 -0.010973633 -0.10153665 0.06938304 0.04303094 -0.13708955 0.24555287 0.13695803 -0.29585245 -0.2987708 0.04579102 -0.37861618 -0.698876 -0.6535143 -0.13554913 -0.11845883 0.5310314 -0.2532046 0.07481733 0.13057584 -0.30440992 0.14928983 0.55123115 -0.1082023 0.43604076 -0.105183 -0.10938149 0.12033817 -0.12546311 0.24736871 -0.44411793 0.057793576 -0.23866844 0.024006465 -0.029852368 -0.7317429 0.03164835 0.66765594 0.006811378 0.20077616 0.099757195 -0.12257019 0.48813647 -0.07450923 -0.078520395 -0.11755005 -0.19412124 -0.15024073 0.28488675 0.22796638 0.41692573 -0.43327862 -0.097622424 0.15450275 -0.24079716 -0.7364888 -0.27250838 0.37633434 -0.28431275 -0.33795616 0.7166829 -0.021398395 -0.3055007 0.14420795 0.50438404 0.22502182 -0.017090956 -0.023874963 -0.16731712 -0.19632691 -0.08357171 -0.24870172 -0.6151347 0.2922087 0.65378386 -0.44217646 0.046929907 -0.26071253 -0.28290385 -0.21337904 -0.001374313 0.35086167 -0.23604293 -0.075993046 0.16959412 -0.54508716 0.027704297 -0.6695517 0.40504524 0.24190427
me 0.20840748 -1.0382473 -0.19059229 0.5119377 -0.028094633 -0.25335476 -0.21700253 -0.61266285 -0.2546327 -0.19918153 -0.052508775 -0.015799899 -0.09575811 0.062118795 0.059465148 -0.13740331 0.276762 0.15934443 -0.31218943 -0.32360625 0.053566948 -0.39955902 -0.7479361 -0.71592027 -0.13724153 -0.12757027 0.5931945 -0.2849776 0.08116882 0.13210943 -0.32444134 0.16256173 0.60023445 -0.110260114 0.47247183 -0.11795934 -0.11249223 0.115050025 -0.1431863 0.2652267 -0.47358695 0.056713313 -0.27601227 0.020364799 -0.053843293 -0.7893436 0.028965281 0.72617143 0.008506432 0.22966765 0.1114943 -0.13080543 0.52153146 -0.078987546 -0.08145303 -0.123324625 -0.20154859 -0.16965608 0.29682553 0.25748903 0.44475934 -0.47004527 -0.099070124 0.17306668 -0.27279612 -0.8037511 -0.2839681 0.3993942 -0.3059531 -0.35681772 0.7714069 -0.030017246 -0.32301548 0.14800903 0.55044615 0.23774566 -0.022645188 -0.023853952 -0.19397795 -0.20452067 -0.086620726 -0.255807 -0.6564731 0.30839735 0.6951477 -0.4737038 0.052964214 -0.27736878 -0.29819283 -0.22667359 0.00092467334 0.37546182 -0.26807278 -0.08271495 0.1792275 -0.5893267 0.04493613 -0.728133 0.43806878 0.27439323
tinha 0.20559354 -0.9943013 -0.19744742 0.49053246 -0.03877836 -0.23625956 -0.19397847 -0.5915179 -0.24561773 -0.1897295 -0.05757478 -0.011344026 -0.109437644 0.06391105 0.05208768 -0.13893239 0.2499763 0.14605054 -0.29742503 -0.30091164 0.048885193 -0.3807288 -0.7206674 -0.67008764 -0.13516165 -0.117916964 0.55335027 -0.27053767 0.07617306 0.12807424 -0.31156105 0.15311737 0.57487637 -0.108745076 0.44730678 -0.118897654 -0.10770437 0.12609158 -0.13404648 0.25089064 -0.45485473 0.055078868 -0.25391874 0.03083677 -0.036867905 -0.7444166 0.034131695 0.68574136 -0.00045877384 0.21344543 0.095240474 -0.122661844 0.5045362 -0.07636078 -0.0738604 -0.1290524 -0.19561768 -0.15277706 0.2910916 0.2455599 0.42415282 -0.45090333 -0.09636721 0.15937537 -0.24703746 -0.758162 -0.2739929 0.38633612 -0.291461 -0.3489969 0.7244929 -0.024363691 -0.30784845 0.15241337 0.5244779 0.23140913 -0.026629904 -0.018646745 -0.17091452 -0.19834363 -0.08407764 -0.24940175 -0.6268643 0.29311764 0.66733146 -0.44773927 0.054574978 -0.267401 -0.2893613 -0.21516475 0.00075275736 0.3613558 -0.24725491 -0.084458604 0.16561286 -0.5585017 0.036504537 -0.68615437 0.4077107 0.25094393
foi 0.18237686 -0.93399715 -0.1710858 0.45709735 -0.034578674 -0.22421105 -0.19017078 -0.55236447 -0.23076957 -0.16867113 -0.045437902 -0.013709464 -0.094001964 0.053051114 0.04643857 -0.11664039 0.23504059 0.12792772 -0.27167118 -0.2827261 0.04818098 -0.36224052 -0.6634684 -0.6322343 -0.12923945 -0.11657949 0.52090067 -0.24275814 0.07385707 0.118385874 -0.29288983 0.13607973 0.5308862 -0.10242203 0.4172948 -0.113484725 -0.10108651 0.108660884 -0.1356407 0.2368239 -0.41842708 0.052347466 -0.24291036 0.023666244 -0.03873641 -0.7035005 0.025840502 0.641687 0.010039437 0.20062216 0.10330145 -0.1153112 0.46226117 -0.07458145 -0.07146281 -0.11207533 -0.18077001 -0.15356521 0.27307463 0.2300603 0.38758796 -0.4109914 -0.08467262 0.16048026 -0.23027533 -0.7175678 -0.25535002 0.36095652 -0.2703106 -0.31620312 0.6883803 -0.03245228 -0.28530586 0.13201614 0.49160215 0.21810006 -0.015398494 -0.015352799 -0.16765247 -0.19016267 -0.07430189 -0.23176295 -0.5916418 0.27852422 0.6144454 -0.4218569 0.04992088 -0.25412026 -0.26607728 -0.19972183 -0.0010090254 0.33256778 -0.2375724 -0.07428501 0.15193486 -0.5168405 0.035199907 -0.65310913 0.38311866 0.23779397
lockhart 0.17787273 -0.9345803 -0.17796709 0.46387315 -0.02572253 -0.23658665 -0.18673079 -0.5483046 -0.24344641 -0.18115994 -0.05751784 -0.02275345 -0.10222014 0.06805654 0.046818618 -0.13138404 0.23888321 0.140505 -0.28112596 -0.29736498 0.052034546 -0.37224522 -0.6661013 -0.64205986 -0.13467708 -0.112288505 0.52391946 -0.24596076 0.06949838 0.12340646 -0.30340973 0.14753944 0.5360235 -0.09398764 0.41639346 -0.10017306 -0.10197613 0.11132533 -0.12589864 0.23582026 -0.43683377 0.06239312 -0.2418778 0.024296144 -0.036052115 -0.7003001 0.032690313 0.6419492 0.014744379 0.20445183 0.09939524 -0.12075715 0.4743 -0.06367735 -0.0678516 -0.11365428 -0.18894707 -0.14839739 0.2780955 0.23079248 0.3925016 -0.41931155 -0.081561156 0.14566267 -0.24518894 -0.7174765 -0.2693635 0.3602308 -0.27222133 -0.3301752 0.69662327 -0.03411624 -0.29316857 0.13179374 0.49552667 0.21849707 -0.01782825 -0.023448657 -0.16454062 -0.1841451 -0.07749565 -0.22910373 -0.60084385 0.27375084 0.6319316 -0.42798868 0.04525368 -0.25976738 -0.27728507 -0.20247237 0.0060291784 0.3400432 -0.2396879 -0.073729135 0.1602645 -0.52345794 0.028927699 -0.6529297 0.38485184 0.24820942
malfoy 0.17919917 -0.95862854 -0.18211159 0.46110326 -0.037083346 -0.24195057 -0.20009974 -0.55433846 -0.24158661 -0.16827896 -0.05710001 -0.019311778 -0.11517649 0.057014167 0.05684085 -0.1324615 0.24448216 0.130449 -0.27253592 -0.30518362 0.05129932 -0.37321112 -0.6845367 -0.64487135 -0.12193874 -0.11397831 0.5162567 -0.2623068 0.063848585 0.114314266 -0.290765 0.14616585 0.535606 -0.08903243 0.43067324 -0.10339808 -0.11425426 0.12313472 -0.124659605 0.24295464 -0.43902338 0.06881255 -0.23419987 0.012390858 -0.028273555 -0.70973486 0.025466366 0.6514511 0.010767668 0.20856716 0.09979448 -0.115680024 0.47087917 -0.072569214 -0.076867126 -0.12390483 -0.19275239 -0.14891976 0.2760255 0.23038687 0.40111837 -0.41775626 -0.1002967 0.15871191 -0.22583382 -0.7308541 -0.26291972 0.36259502 -0.2762278 -0.3302975 0.70389426 -0.020459305 -0.29418978 0.14274128 0.49958706 0.22176026 -0.01646971 -0.024525542 -0.166479 -0.18731718 -0.07605771 -0.22432545 -0.6007662 0.28488433 0.6307269 -0.43469623 0.062241085 -0.2511105 -0.27604505 -0.20912556 0.009739733 0.3559591 -0.23802821 -0.06814116 0.16281018 -0.5228026 0.03592311 -0.658187 0.39819938 0.2425034
bem 0.17909849 -0.91261035 -0.17436357 0.45507306 -0.023774797 -0.22758618 -0.18815401 -0.53773314 -0.23004873 -0.1743249 -0.05056944 -0.01345472 -0.08947998 0.057238072 0.054845218 -0.12091858 0.24814086 0.13547702 -0.2741957 -0.28838193 0.04505603 -0.34744614 -0.64181703 -0.62351483 -0.13354203 -0.11457752 0.5033452 -0.24658798 0.065574914 0.1162233 -0.28153017 0.13627756 0.53244555 -0.10260438 0.39895073 -0.10522288 -0.09883779 0.10717393 -0.12794028 0.2202997 -0.402316 0.054857887 -0.23402959 0.017746167 -0.046140984 -0.68664175 0.02669351 0.6284981 0.0036623683 0.19739541 0.102131344 -0.12951857 0.45569578 -0.07349956 -0.077296704 -0.1126515 -0.16908355 -0.1578838 0.25397915 0.22945692 0.3806781 -0.39700454 -0.0895857 0.15239325 -0.22836554 -0.702462 -0.2501488 0.3418458 -0.26999545 -0.31589574 0.6698721 -0.0334122 -0.26883408 0.13856535 0.4718761 0.20597671 -0.0154675385 -0.023381513 -0.16337658 -0.16699645 -0.07113516 -0.22839502 -0.57463163 0.26576522 0.5958082 -0.39454985 0.04639516 -0.23941928 -0.2531489 -0.19292468 -0.0009192829 0.31555542 -0.23689356 -0.064232 0.15751877 -0.50862515 0.04373024 -0.6396079 0.36763772 0.23680764
ter 0.20974685 -1.0324345 -0.18726228 0.5116098 -0.03505256 -0.25115877 -0.20980929 -0.61313456 -0.26276013 -0.18459782 -0.058558658 -0.01709888 -0.107880235 0.07070873 0.056140427 -0.13787031 0.26668 0.1604035 -0.31099907 -0.32458854 0.0571879 -0.39462066 -0.7403832 -0.7084748 -0.13323884 -0.119600825 0.5802339 -0.2850932 0.08158675 0.1221132 -0.33046257 0.1574813 0.59547573 -0.116604164 0.47393328 -0.12382182 -0.11525254 0.120313324 -0.14727302 0.25974107 -0.46205047 0.05114732 -0.26474422 0.029752305 -0.04595037 -0.7727704 0.036215827 0.71532166 -0.0009109578 0.23096378 0.10834731 -0.13719606 0.52353907 -0.07216246 -0.07618436 -0.12947191 -0.19798365 -0.16827343 0.29997694 0.24937953 0.4314739 -0.46346384 -0.104673356 0.17937814 -0.272336 -0.7936519 -0.2765057 0.40338948 -0.30673045 -0.35060573 0.76417476 -0.033435315 -0.31270692 0.1521641 0.5489007 0.24019359 -0.024750616 -0.014930126 -0.18661098 -0.19668037 -0.09313804 -0.25630325 -0.6477782 0.30889454 0.6887931 -0.46653223 0.049414728 -0.28078046 -0.2922103 -0.23279618 0.0019164016 0.36795986 -0.26689777 -0.08072175 0.17263228 -0.57350975 0.032486625 -0.71879596 0.43524364 0.25828782
te 0.19208829 -0.96011627 -0.1730951 0.47073215 -0.021945894 -0.23718426 -0.20097727 -0.5643786 -0.23395503 -0.17348835 -0.057523545 -0.016228655 -0.08943529 0.06649052 0.060059424 -0.12374953 0.25583535 0.1407674 -0.294216 -0.30303192 0.055473145 -0.3744567 -0.69055736 -0.650466 -0.13115342 -0.12744996 0.5378958 -0.25550342 0.08525058 0.120516665 -0.30712587 0.15131298 0.55732423 -0.10863387 0.42875758 -0.11201279 -0.10214686 0.11502221 -0.1347933 0.23965977 -0.42768514 0.054411918 -0.26034698 0.018004408 -0.0508429 -0.72003627 0.03127856 0.65894693 0.013973064 0.21376286 0.10395086 -0.12307106 0.4878027 -0.08377214 -0.07426158 -0.12009251 -0.17543213 -0.15736453 0.2764982 0.23502576 0.4034113 -0.42680058 -0.0874068 0.15577412 -0.25052342 -0.74645305 -0.2643757 0.36620507 -0.28358132 -0.32788512 0.7113767 -0.03128855 -0.29672995 0.14031552 0.5122133 0.22071905 -0.022717183 -0.014855466 -0.17906624 -0.18476407 -0.07190565 -0.23806912 -0.6093721 0.28144807 0.63560253 -0.4322636 0.056169517 -0.25382408 -0.27980223 -0.20808166 -3.7581012e-05 0.3390659 -0.24927531 -0.07353013 0.16809048 -0.5409148 0.04454381 -0.6765728 0.39830557 0.2541018
muito 0.20570467 -1.0023638 -0.18844946 0.50673485 -0.03426273 -0.24568936 -0.19904187 -0.59376925 -0.2575172 -0.18346572 -0.060897246 -0.022575328 -0.10293661 0.060008064 0.054366365 -0.12748463 0.26730046 0.14504004 -0.2927106 -0.3113196 0.06126793 -0.3905391 -0.7312762 -0.6855323 -0.13616423 -0.12758441 0.56918514 -0.2634372 0.080719456 0.12716518 -0.31046167 0.15063564 0.58891886 -0.10638469 0.45183742 -0.11652483 -0.10683882 0.1171381 -0.14722683 0.25969186 -0.46071216 0.064290605 -0.2585076 0.016017275 -0.052199952 -0.7624028 0.03218911 0.6924596 0.008350935 0.22134537 0.1105768 -0.14255679 0.508029 -0.08078405 -0.083097145 -0.116662145 -0.19859608 -0.15913476 0.28477636 0.23914795 0.43026417 -0.44847202 -0.09562444 0.16367435 -0.2518317 -0.772284 -0.28577653 0.3826633 -0.30243763 -0.35327208 0.74302787 -0.031376973 -0.30551785 0.14772607 0.5354501 0.23449229 -0.017806452 -0.024769856 -0.17450532 -0.20025237 -0.08333189 -0.25366145 -0.63910985 0.2927115 0.6805605 -0.45583862 0.048334092 -0.27325353 -0.28074104 -0.22833669 0.001404513 0.3627072 -0.25776386 -0.080728985 0.1790138 -0.5635892 0.047383636 -0.7146086 0.41846445 0.26418138
das 0.21561891 -1.1191771 -0.21765953 0.56935596 -0.029435199 -0.26668218 -0.21806179 -0.64066684 -0.27577594 -0.20947172 -0.06546717 -0.011378072 -0.13311279 0.08039833 0.051081985 -0.14350797 0.28185633 0.16670601 -0.32689294 -0.34809 0.06313412 -0.43499878 -0.80238354 -0.75010306 -0.14408906 -0.12317939 0.6194444 -0.3023839 0.0837648 0.15240426 -0.3537585 0.1709645 0.63081324 -0.1140027 0.5162598 -0.12339304 -0.12634663 0.1324611 -0.14893049 0.28788188 -0.5171872 0.07422747 -0.27277565 0.030347249 -0.039470177 -0.8421687 0.037911937 0.77606136 0.0011393415 0.23842452 0.10435271 -0.13231698 0.5626676 -0.08091368 -0.07910614 -0.12610286 -0.21865602 -0.17090534 0.3308593 0.25552574 0.47209564 -0.5071955 -0.111134194 0.18777226 -0.2862183 -0.8421453 -0.30905423 0.430396 -0.31985533 -0.38766265 0.82493055 -0.021407554 -0.354112 0.16539456 0.58121866 0.2618347 -0.01801375 -0.037507094 -0.18895803 -0.2238875 -0.09213077 -0.27333298 -0.7002168 0.33294526 0.743242 -0.50533867 0.059129935 -0.30066139 -0.31601322 -0.2490223 0.007496636 0.41593364 -0.26914555 -0.0874354 0.19010773 -0.61539626 0.035727616 -0.7612632 0.46854898 0.2816125
weasley 0.18614785 -0.9445645 -0.17461334 0.4455835 -0.04469205 -0.25160158 -0.2033714 -0.55271834 -0.2305552 -0.15616478 -0.06250924 -0.015654063 -0.13207091 0.067429475 0.057773326 -0.13457976 0.24182291 0.12238837 -0.26524168 -0.2982843 0.053052936 -0.35413864 -0.6812747 -0.6490031 -0.12688929 -0.11959253 0.5063545 -0.26495945 0.07190685 0.11661711 -0.30226132 0.1405241 0.5408188 -0.08898023 0.41011974 -0.10363801 -0.12265133 0.13843156 -0.13387538 0.24207915 -0.4389563 0.08716235 -0.22162522 0.00538401 -0.0136256 -0.7099711 0.01632523 0.6478579 0.019301886 0.21661489 0.09918949 -0.12265226 0.46100906 -0.055662643 -0.0637016 -0.1321192 -0.2010747 -0.15700562 0.2911383 0.23995365 0.3951892 -0.42459127 -0.11430204 0.1358815 -0.22301814 -0.71569186 -0.27645513 0.34376833 -0.27727833 -0.33117417 0.69117135 -0.02212866 -0.3009117 0.14052291 0.4780566 0.21562271 -0.010354017 -0.00481059 -0.1725943 -0.20465049 -0.07247023 -0.21258222 -0.5863256 0.26838762 0.6012267 -0.4159658 0.04791301 -0.23224255 -0.27014026 -0.22426438 -0.00029712555 0.34352663 -0.2321912 -0.06346092 0.16511835 -0.52754354 0.051990382 -0.65539354 0.38796747 0.23662253
olhos 0.18897237 -0.86623776 -0.18219855 0.44552508 -0.022075469 -0.21894151 -0.16294777 -0.51070863 -0.23423463 -0.16047223 -0.044419944 -0.008077296 -0.1049555 0.06780986 0.040771816 -0.11624159 0.20609015 0.11832263 -0.26908392 -0.27207634 0.030451616 -0.34249103 -0.6381626 -0.5890349 -0.11061419 -0.12242599 0.47333744 -0.23080614 0.055080846 0.11974646 -0.28364304 0.13846277 0.48886368 -0.101728015 0.38441208 -0.09330205 -0.098910406 0.11217714 -0.11102914 0.22948483 -0.41103607 0.06313264 -0.2241905 0.021871058 -0.016769825 -0.6422411 0.039445087 0.59335405 0.0010656273 0.19141807 0.08575908 -0.110258184 0.4323082 -0.057460513 -0.071833506 -0.09788301 -0.17547768 -0.13717654 0.26405302 0.21489029 0.37328395 -0.41021377 -0.09796291 0.12942298 -0.21936452 -0.6655005 -0.24717526 0.33814096 -0.26872492 -0.31183803 0.6417674 -0.016915487 -0.27385777 0.12949276 0.4569529 0.20956592 -0.012259008 -0.027569795 -0.14834529 -0.18083575 -0.08116354 -0.2150654 -0.5444293 0.2756001 0.5776657 -0.39862674 0.053132076 -0.2295691 -0.2698814 -0.19537061 0.01596277 0.32798553 -0.2085766 -0.061020143 0.14838311 -0.49344438 0.021886336 -0.6030038 0.36040378 0.22025886
nos 0.21620479 -1.0598718 -0.20343193 0.52088755 -0.03728606 -0.26080984 -0.20455809 -0.62051165 -0.26227266 -0.19436456 -0.063126296 -0.0151610775 -0.10947832 0.06684921 0.05227998 -0.13760398 0.2648936 0.15450014 -0.31902638 -0.32189655 0.052295342 -0.40899277 -0.756758 -0.71935636 -0.14567427 -0.13714735 0.585031 -0.282756 0.087512866 0.14036447 -0.3275487 0.15833746 0.5966478 -0.12095861 0.48152956 -0.120323405 -0.11455806 0.12809452 -0.14051548 0.2678991 -0.473904 0.06401643 -0.27606162 0.02633093 -0.046188906 -0.79113084 0.036449198 0.72741115 0.0063186903 0.22264181 0.115133345 -0.14184462 0.53711444 -0.08516619 -0.07630693 -0.13321275 -0.20223136 -0.16073582 0.31010547 0.25071287 0.44705597 -0.47336012 -0.09685171 0.17619093 -0.26592317 -0.8040503 -0.28740805 0.4138115 -0.30878186 -0.36350483 0.77219653 -0.031709615 -0.3339298 0.15301771 0.5570567 0.24897666 -0.027944839 -0.027935158 -0.18129843 -0.2158492 -0.07966247 -0.25526917 -0.65905285 0.31182 0.7041446 -0.48039252 0.057163917 -0.2868114 -0.30719888 -0.22557384 0.008266867 0.3866209 -0.2657147 -0.08008574 0.17899446 -0.58714724 0.04436349 -0.72948617 0.44370592 0.26838425
perguntou 0.18364638 -0.88851357 -0.17584385 0.4283346 -0.0289718 -0.2221465 -0.18263261 -0.511358 -0.2243901 -0.15776171 -0.045774538 -0.018417154 -0.08442957 0.059171375 0.050566107 -0.10790885 0.23575631 0.11967133 -0.2636545 -0.26792377 0.044609103 -0.34768254 -0.6271621 -0.60216016 -0.121215545 -0.11441885 0.4916903 -0.23410138 0.06834434 0.1147781 -0.26787853 0.13514288 0.5110465 -0.1053779 0.39526808 -0.10575877 -0.09204619 0.104118496 -0.11718297 0.21624696 -0.39029354 0.058074664 -0.23304546 0.019740237 -0.027121784 -0.65613985 0.03547763 0.60258234 0.00018162446 0.19179271 0.10475823 -0.119459845 0.433596 -0.077088855 -0.06930095 -0.10582536 -0.16053598 -0.1470612 0.25682655 0.2186024 0.37697107 -0.39082527 -0.08965628 0.14421354 -0.22288536 -0.6699169 -0.24132158 0.3429177 -0.25865793 -0.29821324 0.65078264 -0.026990402 -0.26403186 0.13194993 0.4672663 0.20363364 -0.007709054 -0.013821805 -0.17121568 -0.1813546 -0.06933584 -0.21684994 -0.5475185 0.2622563 0.57902044 -0.39405823 0.04822842 -0.2402475 -0.25471672 -0.19799016 -0.004211956 0.31353733 -0.21375851 -0.06780384 0.14751144 -0.49685693 0.037523087 -0.6235624 0.36598352 0.22776128
enquanto 0.19181402 -0.9401044 -0.18757585 0.46648616 -0.026004216 -0.23112327 -0.18610863 -0.54728115 -0.24162419 -0.1715434 -0.0558195 -0.0156041505 -0.110547066 0.059432965 0.039503187 -0.13035788 0.23692966 0.12894934 -0.28031504 -0.29365167 0.048257437 -0.36583364 -0.66923636 -0.6406187 -0.13632219 -0.10945889 0.5174975 -0.25136137 0.06072558 0.12850514 -0.28926837 0.14789571 0.538001 -0.09745275 0.42006394 -0.10648902 -0.11257099 0.11193937 -0.12593772 0.23696746 -0.43072185 0.062182967 -0.23121078 0.021176 -0.026387267 -0.7092288 0.029289467 0.6497843 0.002666039 0.19320157 0.098772205 -0.11885882 0.46843162 -0.07161033 -0.075396635 -0.1221956 -0.18920241 -0.15567668 0.28387827 0.22410946 0.40285426 -0.42646885 -0.09474592 0.15546891 -0.23669466 -0.7215818 -0.26874167 0.35998383 -0.28212538 -0.33028224 0.69384146 -0.030883087 -0.2893513 0.13995077 0.49237597 0.21341911 -0.020801831 -0.02273585 -0.16595383 -0.1911649 -0.080485396 -0.23666571 -0.583574 0.28264815 0.6225617 -0.42308027 0.051898554 -0.25331175 -0.26994333 -0.21376693 0.0018294549 0.33868468 -0.22811255 -0.07678281 0.15598136 -0.52464384 0.026369885 -0.6536065 0.3861055 0.23822692
sem 0.2120718 -1.0886312 -0.22120938 0.5416301 -0.031167742 -0.26385373 -0.22995296 -0.641443 -0.2722273 -0.21076594 -0.05770554 -0.02221087 -0.113459006 0.07726309 0.05682687 -0.14222278 0.26829162 0.14720514 -0.31816253 -0.32993892 0.06464672 -0.41244298 -0.7921536 -0.7462862 -0.14230534 -0.13354428 0.60294956 -0.29882112 0.07120832 0.1461666 -0.3403748 0.16589049 0.6338294 -0.10712751 0.5018297 -0.12058331 -0.11792795 0.13701193 -0.13225791 0.29104063 -0.498469 0.06835509 -0.28211197 0.017174212 -0.04100954 -0.83137894 0.041588955 0.7385385 0.008076819 0.2401023 0.12210205 -0.137346 0.55935454 -0.07746776 -0.08820683 -0.1305203 -0.21596481 -0.18528818 0.3163972 0.25504833 0.4687057 -0.4871691 -0.09725546 0.16566342 -0.2659968 -0.8214723 -0.29449728 0.4145161 -0.32632774 -0.38901514 0.8067282 -0.034397427 -0.33057848 0.16855367 0.56570375 0.24299337 -0.03145718 -0.039886117 -0.19451962 -0.21058701 -0.09629215 -0.27078617 -0.68730795 0.31347188 0.735411 -0.4804799 0.04794832 -0.27288052 -0.31503314 -0.23578873 0.01249371 0.38922855 -0.26313648 -0.07624449 0.19648576 -0.6234768 0.036585342 -0.7462576 0.44851518 0.2842805
até 0.19577189 -0.99081373 -0.19554244 0.48873988 -0.023537856 -0.23588878 -0.20052801 -0.5782523 -0.23969246 -0.1878006 -0.05334894 -0.017263025 -0.10661733 0.06966622 0.052564166 -0.1276443 0.2488459 0.14331219 -0.28868547 -0.30302456 0.049170155 -0.38090768 -0.699385 -0.67441314 -0.13297096 -0.122216485 0.5442641 -0.26593575 0.0805913 0.13092719 -0.31280106 0.15818244 0.55589664 -0.10466313 0.4532706 -0.11708471 -0.106433675 0.12661213 -0.1381532 0.25254303 -0.46099102 0.06361275 -0.24215597 0.02490903 -0.029899022 -0.74289566 0.038883243 0.68984187 0.006587032 0.20471333 0.10106085 -0.12790766 0.50277925 -0.06659326 -0.07323412 -0.1212036 -0.19750443 -0.1597469 0.2948211 0.2256416 0.41033024 -0.44069603 -0.08774599 0.1559336 -0.25999507 -0.75569874 -0.271276 0.3731296 -0.28982827 -0.33451942 0.71988004 -0.029561134 -0.2980995 0.15312149 0.51377255 0.22627407 -0.02272436 -0.019953469 -0.16461061 -0.19007257 -0.082001306 -0.2486082 -0.619502 0.290746 0.6607738 -0.45330855 0.049965702 -0.26434603 -0.28528407 -0.21833666 0.012303493 0.359892 -0.25372037 -0.07408129 0.17048302 -0.5526963 0.03516211 -0.68190545 0.4150298 0.2522383
ela 0.17640772 -0.8699731 -0.165439 0.43707463 -0.028953724 -0.21305993 -0.17869794 -0.5140928 -0.22293748 -0.16431162 -0.048875637 -0.017941544 -0.09041346 0.06003662 0.044678602 -0.11907148 0.228675 0.12629505 -0.2657701 -0.27005735 0.05042192 -0.3432547 -0.62757164 -0.59349775 -0.11971847 -0.11148857 0.4893455 -0.23830473 0.06932364 0.10892011 -0.27558893 0.12730926 0.5034779 -0.09939334 0.3994891 -0.10032355 -0.09633484 0.104791105 -0.12378974 0.22279741 -0.39216262 0.048900813 -0.22736216 0.019799283 -0.038321227 -0.6584696 0.026674723 0.59976625 0.0049056285 0.19377546 0.09156509 -0.11512455 0.43786317 -0.07318439 -0.069249205 -0.10787504 -0.1706474 -0.14443028 0.24679105 0.21804135 0.3747641 -0.38769364 -0.08039361 0.1477343 -0.22175293 -0.6682793 -0.24357311 0.34145442 -0.26360372 -0.30449125 0.6500809 -0.032973386 -0.26726755 0.1258587 0.46727198 0.20820995 -0.02604255 -0.01563889 -0.15603839 -0.1657467 -0.06693478 -0.21355441 -0.559412 0.25898454 0.5839624 -0.39021143 0.049813196 -0.24135728 -0.24539939 -0.1937755 0.00087003934 0.31268737 -0.22308443 -0.060308576 0.15205343 -0.49275428 0.031054871 -0.6064783 0.36417636 0.23082963
ser 0.19279097 -0.96085906 -0.17577858 0.48104483 -0.031156613 -0.23253712 -0.19731916 -0.5672529 -0.24031004 -0.17503695 -0.05552023 -0.018421901 -0.0969997 0.059356146 0.046304904 -0.12151554 0.25760096 0.14540759 -0.28727326 -0.29821172 0.05074928 -0.37425393 -0.69102347 -0.6600725 -0.12938872 -0.119154185 0.54546016 -0.26161098 0.07554291 0.1151127 -0.30072302 0.139582 0.5608608 -0.10813332 0.43770403 -0.11510604 -0.10170252 0.10743762 -0.13985288 0.24493918 -0.4384814 0.05132539 -0.24775046 0.02566522 -0.037273116 -0.7270871 0.031876735 0.668562 0.0064750263 0.21473625 0.0966496 -0.12069467 0.48641694 -0.06963197 -0.07503579 -0.12026596 -0.18223174 -0.15259117 0.28325215 0.23593916 0.41305512 -0.4320115 -0.09247129 0.16688338 -0.24992497 -0.73918194 -0.25935274 0.3705786 -0.2862374 -0.33463332 0.7165032 -0.022460017 -0.29630145 0.14306656 0.5120791 0.2290081 -0.02601963 -0.016009336 -0.16870664 -0.18645996 -0.079421155 -0.24369119 -0.6146224 0.28160492 0.6443336 -0.43651062 0.052834995 -0.25315812 -0.27465087 -0.21173276 0.0058284597 0.3520522 -0.2476681 -0.07529723 0.17168102 -0.5423056 0.038278002 -0.6650018 0.39918703 0.24405763
seu 0.180547 -0.91910434 -0.18730415 0.45333257 -0.023760935 -0.22635461 -0.17540658 -0.52583706 -0.22276017 -0.16940327 -0.055550467 -0.011810309 -0.10242429 0.06022447 0.03831742 -0.12186061 0.23412022 0.12812038 -0.27366096 -0.28498676 0.0498444 -0.3529136 -0.65544283 -0.6132091 -0.12275593 -0.10544361 0.4937647 -0.23429637 0.072298296 0.12572005 -0.29120433 0.13700972 0.5163896 -0.10123181 0.41528687 -0.09899949 -0.10309577 0.11353783 -0.11618636 0.23666142 -0.42256078 0.059404295 -0.22437266 0.019300744 -0.02460871 -0.67766154 0.033128176 0.61995095 0.010856996 0.18709007 0.09714551 -0.11084348 0.45977777 -0.06978957 -0.0693935 -0.11327347 -0.17819297 -0.14463286 0.27967006 0.21948998 0.38041356 -0.4017508 -0.079365395 0.14804094 -0.22125137 -0.69593036 -0.25937146 0.3471024 -0.2619966 -0.32497966 0.67273426 -0.027122425 -0.28560627 0.13925596 0.4756783 0.20636524 -0.009828668 -0.024742441 -0.15585448 -0.18435454 -0.074262045 -0.230972 -0.58387834 0.26363558 0.60299104 -0.41751146 0.037951477 -0.24773462 -0.26696214 -0.20292608 0.006124562 0.33476746 -0.21131672 -0.07635229 0.1520845 -0.49874398 0.030607684 -0.62158483 0.3852504 0.23319757
cabeça 0.14714922 -0.78732705 -0.16745655 0.39908808 -0.023968488 -0.19889602 -0.15922108 -0.4605189 -0.19559768 -0.15100715 -0.037852265 -0.016474333 -0.089118645 0.052162413 0.031769987 -0.1121347 0.19696318 0.102633774 -0.23916057 -0.24066038 0.037295654 -0.30290583 -0.572293 -0.5400748 -0.09927783 -0.101307206 0.4378227 -0.2121606 0.046548363 0.104823574 -0.24869175 0.11539764 0.44776678 -0.07114176 0.35971376 -0.08551352 -0.08856844 0.10217052 -0.09339416 0.2193757 -0.37025833 0.05632231 -0.19691017 0.022526978 -0.02767556 -0.59951323 0.019727698 0.5400051 0.0029138182 0.16540574 0.08644312 -0.10605351 0.40787944 -0.05543868 -0.06471411 -0.089841165 -0.15274298 -0.13662067 0.22951181 0.19014814 0.346716 -0.35097778 -0.07810669 0.12398385 -0.19021608 -0.6052009 -0.22355135 0.30266607 -0.24262263 -0.28813854 0.5823813 -0.028312402 -0.2431322 0.12008004 0.41060618 0.1726429 -0.028427925 -0.025706373 -0.13588086 -0.15514123 -0.06365657 -0.18753119 -0.5026138 0.23262441 0.53718287 -0.35227177 0.031188488 -0.19960111 -0.22978692 -0.17396203 0.00955656 0.28858328 -0.20067957 -0.057692856 0.13694258 -0.45247376 0.024390846 -0.54418343 0.32568714 0.2128012
fazer 0.15610167 -0.7582397 -0.1377484 0.37792817 -0.02061732 -0.19168906 -0.16350584 -0.452106 -0.19505927 -0.1443641 -0.04079365 -0.01536579 -0.06961227 0.05185946 0.046581868 -0.10174319 0.20563743 0.10990344 -0.22904977 -0.23617485 0.039404172 -0.29004842 -0.5509869 -0.5249126 -0.105618544 -0.097647615 0.42581925 -0.20533824 0.05902965 0.0897721 -0.24098656 0.11475811 0.43972114 -0.08431658 0.34027416 -0.09058251 -0.08719447 0.086543165 -0.10271112 0.19309136 -0.33843204 0.039029557 -0.19635631 0.017044421 -0.027518364 -0.57489634 0.025697706 0.5197203 -0.001174499 0.1632374 0.080654204 -0.09790888 0.38071954 -0.054208383 -0.06255941 -0.09233699 -0.13700058 -0.126241 0.22261867 0.1842966 0.31708562 -0.33602807 -0.076877475 0.13470024 -0.19670823 -0.58864415 -0.21452247 0.292659 -0.22007862 -0.2556902 0.565401 -0.021057915 -0.23340087 0.10663629 0.4010136 0.17684968 -0.009674944 -0.013683967 -0.14518864 -0.14638045 -0.058744453 -0.19193327 -0.47308907 0.2264552 0.5035441 -0.34128383 0.033549223 -0.20187192 -0.22151303 -0.17131285 0.007061945 0.26576233 -0.19019088 -0.052185617 0.13582899 -0.42497066 0.02866048 -0.5347227 0.31867272 0.1985739
sobre 0.19192861 -0.9740388 -0.19608071 0.49998742 -0.033058595 -0.23944516 -0.19326681 -0.5657021 -0.24740049 -0.18891153 -0.05850989 -0.017355116 -0.11300451 0.06048548 0.045827024 -0.12882043 0.24743716 0.14436969 -0.29107085 -0.3006155 0.050311875 -0.37191293 -0.7112193 -0.6638685 -0.12953244 -0.11213988 0.54536283 -0.2643483 0.075197615 0.13076125 -0.31044704 0.14619473 0.5542397 -0.10740665 0.440562 -0.11295001 -0.110645525 0.122304 -0.1283539 0.25712663 -0.4504798 0.06359528 -0.24410684 0.019832663 -0.035494015 -0.7359471 0.02924066 0.6729833 0.0033068256 0.21413898 0.09682465 -0.12797473 0.49371678 -0.06733527 -0.06853313 -0.117216654 -0.19243737 -0.15941358 0.2914967 0.24080501 0.41065472 -0.44785273 -0.093693815 0.16527964 -0.23921633 -0.7557538 -0.27374542 0.38081396 -0.2850497 -0.34751186 0.7191017 -0.026656829 -0.30783385 0.15083814 0.51264304 0.23302136 -0.022381619 -0.02608471 -0.17358875 -0.19465645 -0.084322244 -0.24097285 -0.6087959 0.28910664 0.65510195 -0.44532302 0.04615376 -0.25784403 -0.29323745 -0.2187346 0.01486132 0.36238578 -0.23455116 -0.079475865 0.15917301 -0.5486942 0.029646806 -0.6796183 0.40681666 0.24905555
coisa 0.17044666 -0.8758038 -0.17631868 0.44504216 -0.035383224 -0.21954454 -0.17558414 -0.5180932 -0.21668716 -0.15398319 -0.05222286 -0.023169683 -0.09317459 0.06373414 0.053261917 -0.11614846 0.21893871 0.13050655 -0.2549598 -0.2811449 0.04587936 -0.34135675 -0.6484063 -0.5972377 -0.12314094 -0.11623024 0.49515796 -0.23899162 0.07377303 0.10891255 -0.2783617 0.13731243 0.50294036 -0.10580995 0.40803912 -0.111880764 -0.09984535 0.10705628 -0.117470294 0.22645909 -0.39125448 0.052383497 -0.22866254 0.015854005 -0.03088081 -0.65914214 0.033677764 0.61033475 -0.0028332383 0.20324053 0.09991354 -0.108297795 0.45239413 -0.05979899 -0.057634536 -0.11383554 -0.15950435 -0.13486646 0.24430075 0.20716235 0.3713838 -0.39190346 -0.09185862 0.14965567 -0.22803274 -0.6889791 -0.25402927 0.3375417 -0.26638255 -0.31309748 0.645027 -0.026937574 -0.2827532 0.12440859 0.46044835 0.21394639 -0.01275111 -0.01661432 -0.14892484 -0.16908786 -0.07663091 -0.23109466 -0.56559956 0.25772417 0.5840257 -0.4098356 0.052204605 -0.24677895 -0.25966498 -0.19005902 0.007900506 0.31465223 -0.21817663 -0.064413406 0.15430969 -0.5005415 0.03179999 -0.61901546 0.3806364 0.2249642
hagrid 0.17086044 -0.86387235 -0.16944073 0.42980093 -0.024500145 -0.2122406 -0.17081966 -0.5044064 -0.21648008 -0.16729547 -0.046358287 -0.019258015 -0.087709635 0.05894065 0.03871114 -0.116717115 0.2267776 0.122815914 -0.25702184 -0.2656416 0.04635225 -0.3282157 -0.6118281 -0.5839806 -0.114397265 -0.103917986 0.47227824 -0.23057632 0.06699209 0.112672426 -0.27161175 0.13048828 0.48776838 -0.088520676 0.38571736 -0.10298906 -0.09874235 0.10363048 -0.11997463 0.22205189 -0.39090186 0.049464036 -0.220844 0.02128729 -0.032789554 -0.6474308 0.031856135 0.5958935 0.0049535856 0.18493126 0.082926124 -0.11532885 0.4274311 -0.059127007 -0.070442826 -0.10503518 -0.16846739 -0.13800302 0.24900134 0.20155025 0.3608758 -0.384261 -0.07655389 0.1400596 -0.21937233 -0.6614263 -0.23990113 0.32701248 -0.25095767 -0.29597133 0.63536066 -0.022793453 -0.26869237 0.12673035 0.44721064 0.20214282 -0.02102773 -0.013892739 -0.1492015 -0.16481665 -0.06476739 -0.21204387 -0.53779525 0.25525388 0.5775763 -0.3826176 0.03995884 -0.23643588 -0.24540947 -0.19461858 0.0007927421 0.3066315 -0.20915036 -0.06255321 0.14059402 -0.4757769 0.030754955 -0.5937012 0.3622289 0.22014104
todos 0.18576494 -0.88155305 -0.1797029 0.4566727 -0.017622324 -0.21463124 -0.17330925 -0.5197083 -0.2305933 -0.16498831 -0.04710531 -0.019376911 -0.09563852 0.06158433 0.035718907 -0.12326678 0.22132346 0.13420786 -0.27584004 -0.2725264 0.043251354 -0.3354568 -0.64180005 -0.60494787 -0.115498185 -0.119642965 0.4876036 -0.2409877 0.068590626 0.11279584 -0.28063685 0.13087302 0.50007784 -0.09695133 0.40119272 -0.102306955 -0.09713421 0.10334514 -0.11745362 0.22516711 -0.40435225 0.054253004 -0.2272143 0.013925769 -0.023304574 -0.66034704 0.033669412 0.61080956 0.0032126186 0.18570413 0.08278947 -0.1083355 0.45145658 -0.06281012 -0.0655223 -0.10288315 -0.17583637 -0.14090468 0.26348805 0.2135557 0.37944853 -0.4018084 -0.09090229 0.14721917 -0.22923139 -0.6842627 -0.24080507 0.3455358 -0.26902446 -0.31565806 0.648166 -0.020477233 -0.27133036 0.13807997 0.46971086 0.20779587 -0.021236885 -0.02830796 -0.14353071 -0.17222211 -0.077386305 -0.21277735 -0.54869944 0.27701938 0.59202045 -0.41240934 0.05194829 -0.23189533 -0.26550922 -0.19136548 0.007682259 0.3347219 -0.21368669 -0.06390051 0.14640996 -0.4978006 0.019153243 -0.61497074 0.37890357 0.23057312
voz 0.17289941 -0.8969932 -0.16605513 0.44985774 -0.027176399 -0.22498025 -0.17690329 -0.52285236 -0.22860363 -0.16386089 -0.054795485 -0.021596162 -0.099332675 0.05574128 0.046787456 -0.11879821 0.23269357 0.12792343 -0.26327133 -0.27012104 0.04474981 -0.35365552 -0.64910424 -0.6122152 -0.11440172 -0.103051074 0.48862204 -0.23843247 0.062196083 0.110039234 -0.28336996 0.14283074 0.5105046 -0.091656685 0.40875438 -0.10258675 -0.108605504 0.1147531 -0.11827384 0.22252898 -0.40722084 0.05695033 -0.22697608 0.011389359 -0.040978998 -0.6726867 0.03126582 0.6127806 -0.0017713371 0.19075136 0.10126798 -0.10990061 0.4421182 -0.06510542 -0.061884303 -0.10268761 -0.17262398 -0.14717945 0.26092747 0.20835918 0.37820032 -0.39569467 -0.095867485 0.14352968 -0.22845566 -0.691209 -0.25867414 0.35290593 -0.26150244 -0.31181148 0.6560677 -0.02038429 -0.27319294 0.12675196 0.46887785 0.20577526 -0.0123441275 -0.027346462 -0.1550851 -0.17561866 -0.06432907 -0.21053615 -0.56433696 0.2656345 0.59748673 -0.398719 0.049926706 -0.24456252 -0.24780992 -0.19058506 0.007605995 0.33318263 -0.23084827 -0.05968878 0.15580767 -0.49679363 0.029426975 -0.61986357 0.36992493 0.23742442
dumbledore 0.18169107 -0.9401528 -0.1775909 0.46548823 -0.02314947 -0.2299165 -0.18799932 -0.5430855 -0.23706046 -0.17316815 -0.059312183 -0.012826444 -0.10450154 0.05968102 0.045107238 -0.12620085 0.24142604 0.13963397 -0.2784778 -0.28663197 0.045436997 -0.36424708 -0.66958004 -0.64604926 -0.13051133 -0.1151818 0.52163494 -0.24595618 0.07603173 0.1246105 -0.2997569 0.13958527 0.5319539 -0.09769777 0.42879343 -0.107038885 -0.10468593 0.11884257 -0.13204305 0.23139979 -0.42385024 0.058101945 -0.23606291 0.018095635 -0.033106033 -0.69932735 0.027775845 0.6534501 0.0040508416 0.1974753 0.10193046 -0.12428459 0.46635643 -0.07669321 -0.071003355 -0.11212018 -0.18271305 -0.14826386 0.27620542 0.22308262 0.40332672 -0.41388184 -0.08787993 0.15737581 -0.23667772 -0.7218201 -0.26027092 0.36820745 -0.27239072 -0.32555887 0.6957899 -0.032201596 -0.2901744 0.13573559 0.48712575 0.21300995 -0.020080874 -0.02531022 -0.1730558 -0.18988991 -0.06975244 -0.23004417 -0.592126 0.2793654 0.6228102 -0.42433476 0.05163872 -0.2580233 -0.26458302 -0.20943218 0.0045327027 0.33892822 -0.23932536 -0.07068513 0.1672462 -0.52714545 0.033937436 -0.65124553 0.3884985 0.24368632
dobby 0.18806061 -0.9236244 -0.175723 0.46592763 -0.033761926 -0.22842744 -0.19154978 -0.5396853 -0.23583536 -0.17684428 -0.04475049 -0.019411469 -0.0975645 0.06480819 0.049117163 -0.12924074 0.24043038 0.13726318 -0.27145594 -0.28720114 0.047412843 -0.35201278 -0.66480637 -0.6274274 -0.1270675 -0.109153554 0.50675255 -0.2472282 0.0658688 0.116524436 -0.28297094 0.1388935 0.53239024 -0.105942614 0.4184899 -0.11216865 -0.098021 0.102230385 -0.120068915 0.23503768 -0.42456067 0.048676834 -0.24106336 0.022787433 -0.035772726 -0.69460964 0.031559076 0.63673 0.009551467 0.20068367 0.09507943 -0.118965164 0.46640053 -0.07352478 -0.07304465 -0.1098238 -0.18322119 -0.15546729 0.26430938 0.22604537 0.3969032 -0.41723022 -0.08960358 0.1581491 -0.22620194 -0.70602655 -0.2501298 0.3542707 -0.26757607 -0.32034555 0.68595725 -0.0252294 -0.27560252 0.14437465 0.49019995 0.20757891 -0.020569272 -0.025240619 -0.16950254 -0.17511742 -0.07429489 -0.23368314 -0.5830906 0.2705212 0.61629295 -0.4132855 0.05078731 -0.2451277 -0.26268688 -0.2055499 -0.0038734558 0.32904938 -0.23811132 -0.07195417 0.15332316 -0.520269 0.031448603 -0.6438159 0.38053247 0.23831727
lá 0.18620865 -0.9406002 -0.17888102 0.47600588 -0.03059886 -0.22475885 -0.18136242 -0.5503853 -0.2413362 -0.17878436 -0.05416633 -0.013504938 -0.09805515 0.05693628 0.046818852 -0.12879957 0.24765766 0.14198449 -0.2859706 -0.2888125 0.054068763 -0.36718932 -0.671558 -0.64364547 -0.11842472 -0.103915885 0.51501197 -0.24796788 0.07324619 0.119662054 -0.29498702 0.14260843 0.53415865 -0.10460543 0.42908272 -0.11813057 -0.10201019 0.111359745 -0.124628566 0.24345686 -0.43434304 0.06452278 -0.24197726 0.014413521 -0.04085755 -0.7101472 0.024669278 0.6612574 -0.0029824784 0.2084839 0.09004052 -0.12095177 0.47958827 -0.07167569 -0.07931057 -0.11761951 -0.18563452 -0.1525378 0.28232896 0.22871238 0.39938825 -0.42176276 -0.08525987 0.1484299 -0.23869336 -0.7199106 -0.26750106 0.3701578 -0.2744971 -0.32461545 0.69212234 -0.02213964 -0.29409584 0.13857065 0.49583817 0.21149299 -0.0125613455 -0.027940715 -0.1695902 -0.18304111 -0.06874534 -0.23382828 -0.5935067 0.28050414 0.6292683 -0.43241408 0.05199039 -0.25676444 -0.2640679 -0.21020453 0.0030954075 0.35010704 -0.23659597 -0.07485591 0.16158754 -0.52834165 0.031030599 -0.6537762 0.4022704 0.24551326
tu 0.17963415 -0.928591 -0.17756401 0.45371133 -0.021138037 -0.22165209 -0.19138625 -0.5487778 -0.22779731 -0.16596287 -0.047009647 -0.017432768 -0.08694519 0.06395887 0.045865044 -0.12075516 0.24507946 0.13092147 -0.27973232 -0.28488705 0.049077522 -0.35510477 -0.6706082 -0.6271232 -0.121367075 -0.12209484 0.51886195 -0.2411064 0.078140385 0.11636832 -0.28923392 0.14499943 0.53470093 -0.10320724 0.41321343 -0.11414493 -0.10291939 0.112567544 -0.12772714 0.23825285 -0.4195549 0.053509586 -0.24037527 0.018443104 -0.035357267 -0.6910229 0.03594781 0.6402883 0.008889833 0.20698567 0.09602001 -0.12104045 0.46433663 -0.07187495 -0.07186422 -0.11234207 -0.1778111 -0.148811 0.26542547 0.23113309 0.39524814 -0.41198477 -0.08358505 0.15568632 -0.22968212 -0.7092858 -0.25429836 0.36290842 -0.27112973 -0.31383345 0.6819016 -0.03155472 -0.28169426 0.13514392 0.49471843 0.21420896 -0.021029266 -0.024321185 -0.17291361 -0.18783306 -0.06835333 -0.23243695 -0.5790338 0.2810135 0.6213802 -0.41976592 0.050843492 -0.24935542 -0.25978705 -0.20310436 -0.00490294 0.3338864 -0.24060747 -0.06748064 0.1599348 -0.5249346 0.03183446 -0.64759344 0.38038772 0.24742934
sua 0.18459268 -0.9171654 -0.18363649 0.47031218 -0.029958434 -0.21474662 -0.18501388 -0.53914165 -0.22823502 -0.17114621 -0.04599549 -0.011068938 -0.09634126 0.057152882 0.0419009 -0.119068876 0.22756608 0.13957182 -0.2683837 -0.28018236 0.04124518 -0.3461622 -0.66234523 -0.62858284 -0.11978322 -0.1095251 0.50474566 -0.24158803 0.06959588 0.11817499 -0.29135528 0.14822075 0.52003205 -0.08872821 0.4200579 -0.112601645 -0.11167445 0.11201019 -0.118752554 0.24285917 -0.424516 0.051639277 -0.22479786 0.025058307 -0.039156802 -0.6878765 0.0324943 0.63873345 -0.0041352417 0.19801724 0.09156816 -0.115884535 0.46438804 -0.066888645 -0.061969463 -0.10377481 -0.18622975 -0.14949697 0.2730846 0.21441455 0.39577892 -0.41176146 -0.0855589 0.15781501 -0.23185876 -0.704116 -0.2531295 0.35411367 -0.26576388 -0.3192431 0.6756223 -0.021164685 -0.2832442 0.13446768 0.4744423 0.217826 -0.02712684 -0.032465864 -0.15139587 -0.17197448 -0.07197101 -0.22420555 -0.5665586 0.27282053 0.61842525 -0.4150137 0.045365613 -0.242636 -0.2592485 -0.1991912 0.010996432 0.33123043 -0.23377758 -0.071569405 0.14976618 -0.5122564 0.020753078 -0.6271064 0.3827387 0.23800278
porta 0.15823758 -0.83180493 -0.15936865 0.42068055 -0.021899182 -0.1946711 -0.16938818 -0.48524845 -0.2042213 -0.16539766 -0.04584994 -0.019855527 -0.09112393 0.048928242 0.02776066 -0.12233512 0.20010017 0.12519704 -0.24019594 -0.24593553 0.034054726 -0.32357684 -0.58738846 -0.5643708 -0.1021786 -0.09657098 0.4569112 -0.21791798 0.051365107 0.107179195 -0.2592066 0.13343564 0.45305076 -0.080367304 0.38668007 -0.09051657 -0.09651383 0.103922695 -0.114370845 0.21502179 -0.388453 0.049594857 -0.1907058 0.013375219 -0.021084681 -0.6159252 0.024838097 0.5783503 0.0013038155 0.1718499 0.074931234 -0.095012054 0.42366597 -0.062253404 -0.06296072 -0.10374732 -0.17128506 -0.13045822 0.24728738 0.18936345 0.35312158 -0.37061125 -0.07842664 0.14258356 -0.21456951 -0.6317677 -0.23487335 0.32294503 -0.2371026 -0.28001952 0.60357785 -0.015481447 -0.26384777 0.11894694 0.42703575 0.1842291 -0.02607628 -0.023765353 -0.13236219 -0.16115662 -0.066466294 -0.19896933 -0.5248749 0.23989438 0.56441367 -0.38269672 0.043086097 -0.23078316 -0.23348974 -0.18715969 0.012436026 0.30892864 -0.2123608 -0.06967459 0.13471356 -0.46209565 0.022754282 -0.55962354 0.35481212 0.21348184
ver 0.16180675 -0.8195724 -0.15926059 0.41521254 -0.027753754 -0.19739315 -0.16810186 -0.48188394 -0.2086146 -0.1494678 -0.043345563 -0.013169128 -0.0826278 0.05088922 0.0447844 -0.107228674 0.21054229 0.11898932 -0.24422956 -0.25421193 0.043451756 -0.310209 -0.5851656 -0.554567 -0.10838077 -0.10576477 0.45064804 -0.21959455 0.059998035 0.09983952 -0.25960684 0.12275772 0.46704096 -0.09163101 0.3725308 -0.08980901 -0.095885344 0.093210675 -0.11403605 0.21088696 -0.3713797 0.046116374 -0.21189065 0.016858255 -0.033036757 -0.62191504 0.025799673 0.57035846 0.0068645147 0.17752118 0.08661723 -0.102877654 0.41326085 -0.06222252 -0.05902208 -0.09401302 -0.15472218 -0.13011819 0.23956482 0.20121072 0.3428344 -0.3652021 -0.08210571 0.14211212 -0.2069967 -0.63265574 -0.22953327 0.3229475 -0.23711976 -0.28180483 0.60954773 -0.020978585 -0.25816017 0.121452235 0.42983955 0.18632899 -0.017441329 -0.022231948 -0.1439226 -0.15957764 -0.069482625 -0.19937776 -0.51993996 0.24619205 0.54486626 -0.37555054 0.043094177 -0.22372308 -0.24311636 -0.17539297 -0.00021163042 0.29388052 -0.20933068 -0.060992394 0.14330877 -0.46207234 0.021946162 -0.56624055 0.3404038 0.21144353
vez 0.1799188 -0.91330296 -0.17685132 0.45615387 -0.029934324 -0.2222068 -0.171873 -0.54355437 -0.24015856 -0.17414556 -0.050818246 -0.022699501 -0.10429912 0.060860597 0.04114423 -0.12083523 0.22225894 0.14063595 -0.2715216 -0.28897148 0.046561733 -0.34548363 -0.6652644 -0.6266558 -0.11902946 -0.10222386 0.500151 -0.24563935 0.06652433 0.12319943 -0.28611284 0.13982025 0.5229251 -0.104392484 0.41420418 -0.117813215 -0.10049038 0.10659962 -0.1353212 0.23598678 -0.4142732 0.04793716 -0.23414166 0.017276578 -0.040574953 -0.69451416 0.033911422 0.6394198 -0.0091700535 0.20632806 0.08282478 -0.11495402 0.46850774 -0.062088113 -0.05981528 -0.10255514 -0.17943265 -0.13663101 0.26019612 0.213622 0.3851988 -0.40634286 -0.09388375 0.14809147 -0.23364794 -0.70139456 -0.2631469 0.35868624 -0.26471463 -0.32311353 0.66777986 -0.027011624 -0.28969052 0.13329011 0.47793394 0.22073118 -0.012528244 -0.028910944 -0.14916095 -0.17407466 -0.07252985 -0.23343842 -0.56776804 0.27690002 0.61704516 -0.4141338 0.044424422 -0.24097547 -0.26989576 -0.20814952 0.0019786707 0.32908228 -0.2361481 -0.062793046 0.15761185 -0.51128453 0.027705887 -0.6243041 0.3862932 0.23831576
está 0.1812745 -0.9190962 -0.17381121 0.46121255 -0.02925389 -0.22714987 -0.18767175 -0.54881084 -0.2239759 -0.17653973 -0.05120779 -0.019170785 -0.0943944 0.060850453 0.05395303 -0.12161935 0.2432567 0.12872687 -0.2677171 -0.28976712 0.046010707 -0.35217673 -0.65328485 -0.623493 -0.13635848 -0.11921863 0.5182555 -0.24561135 0.074631795 0.11712269 -0.28797 0.14284545 0.5380692 -0.09286862 0.4077348 -0.110304475 -0.097611025 0.104183026 -0.12898457 0.23477817 -0.41327772 0.058784198 -0.23959513 0.021273868 -0.04754113 -0.6908978 0.024464784 0.6329375 0.013672762 0.19929641 0.09740053 -0.12650637 0.46698964 -0.06886202 -0.06729533 -0.11850764 -0.17554945 -0.15423624 0.2588804 0.22250928 0.39094564 -0.40655938 -0.07769615 0.15035135 -0.22899318 -0.7039416 -0.2599575 0.34867206 -0.2797184 -0.32128692 0.6850322 -0.03342217 -0.28528747 0.12918912 0.48626354 0.20326488 -0.018509671 -0.017828014 -0.16609247 -0.18539168 -0.06540637 -0.22896993 -0.5768452 0.26558393 0.61097306 -0.40212044 0.04528735 -0.23693319 -0.2573257 -0.20310952 -0.00719417 0.32496706 -0.23050022 -0.0721577 0.1660336 -0.5216265 0.037041977 -0.64795643 0.37703818 0.2385165
ainda 0.16624382 -0.8511872 -0.16050108 0.42476323 -0.030766152 -0.21106225 -0.17293288 -0.49436393 -0.21326183 -0.16061644 -0.042959653 -0.010535345 -0.089526646 0.055444773 0.03992776 -0.111999996 0.22020626 0.119097024 -0.25474176 -0.2681892 0.047267873 -0.32583174 -0.615135 -0.5816722 -0.11299578 -0.098041594 0.47275066 -0.22714423 0.06321589 0.113886714 -0.26376128 0.12840408 0.49432114 -0.088865444 0.37837628 -0.09597714 -0.10005952 0.09970577 -0.119900234 0.21221688 -0.38429645 0.046078343 -0.21736743 0.011924171 -0.035914253 -0.6342905 0.024030568 0.58590114 0.0031654488 0.18165359 0.08667346 -0.11319847 0.43361756 -0.060932603 -0.06447486 -0.10678976 -0.16192731 -0.13737641 0.25381985 0.20994772 0.36427847 -0.38502395 -0.085377775 0.14406434 -0.2100655 -0.6582571 -0.23862965 0.33389464 -0.24384004 -0.30234826 0.6269584 -0.021388434 -0.25915048 0.1290965 0.44518945 0.20415427 -0.015616791 -0.014900681 -0.15479784 -0.1657517 -0.06672025 -0.2079817 -0.537881 0.2532158 0.56644326 -0.38306728 0.041760977 -0.22596487 -0.24205415 -0.18697387 -0.00054218003 0.31474322 -0.2111515 -0.06161544 0.14202906 -0.48090076 0.031206677 -0.59786904 0.3566762 0.2159377
onde 0.19146135 -0.9894116 -0.19560598 0.49491546 -0.026968708 -0.2440452 -0.19534388 -0.5810669 -0.24959166 -0.18949522 -0.053331234 -0.012967483 -0.111302964 0.0595678 0.047183007 -0.13084032 0.24965769 0.15100187 -0.2968237 -0.30776614 0.057385843 -0.3811131 -0.7056287 -0.67512894 -0.13824672 -0.12121939 0.5520381 -0.2608813 0.07289269 0.1300791 -0.3058766 0.14963034 0.568616 -0.10684544 0.443925 -0.11085286 -0.11336953 0.11937422 -0.13266276 0.2526239 -0.4511281 0.05451506 -0.24366124 0.02249232 -0.039174832 -0.7407141 0.03084585 0.6890455 0.003177048 0.20587337 0.097495794 -0.1272475 0.503494 -0.07258435 -0.07401311 -0.113551214 -0.18740283 -0.15833925 0.28497362 0.23890921 0.41274637 -0.4414031 -0.09528176 0.16155748 -0.2509671 -0.7509909 -0.27586916 0.3826844 -0.2879677 -0.33650264 0.7322505 -0.022926027 -0.30311486 0.14642844 0.5182639 0.23114754 -0.012369885 -0.021880623 -0.17232136 -0.19148266 -0.08178664 -0.2409429 -0.61665833 0.2905863 0.6577739 -0.44452426 0.045613103 -0.26533714 -0.2911268 -0.21248274 0.005618109 0.3520528 -0.24944158 -0.07741002 0.16082488 -0.55378807 0.03241936 -0.68107057 0.4164685 0.24756885
isso 0.1584482 -0.79455984 -0.1443578 0.39266098 -0.020658616 -0.19713734 -0.1644767 -0.47104472 -0.18968259 -0.1466723 -0.041955333 -0.020081932 -0.07768702 0.048337296 0.04295085 -0.09750139 0.21048115 0.11291228 -0.22840378 -0.2518759 0.04454479 -0.30053464 -0.5655442 -0.5424348 -0.11712822 -0.10373964 0.4484467 -0.21088883 0.071728915 0.10469841 -0.25530162 0.11760518 0.46563187 -0.0926829 0.35521242 -0.092199825 -0.08688235 0.0966232 -0.11345772 0.20594378 -0.35602796 0.049317487 -0.20971048 0.011715818 -0.03256764 -0.60545933 0.029159155 0.54886353 0.003089739 0.17502736 0.09065387 -0.10791542 0.4034052 -0.068512335 -0.06629768 -0.09564048 -0.14509463 -0.13528788 0.2251344 0.1922027 0.33364317 -0.36070997 -0.07926678 0.1341014 -0.20713562 -0.605828 -0.21299541 0.3061534 -0.23177825 -0.2674079 0.58750963 -0.030819323 -0.247476 0.120129496 0.41915533 0.17866293 -0.019707978 -0.01414417 -0.14735024 -0.14882304 -0.061225884 -0.19770299 -0.5050764 0.23211162 0.53415656 -0.3583651 0.047642834 -0.21431467 -0.2237772 -0.17478147 0.0018052057 0.2851787 -0.19628301 -0.05487791 0.13170294 -0.44275495 0.03672985 -0.5605686 0.3370571 0.20324086
dizer 0.17800929 -0.86147225 -0.15682921 0.42428792 -0.031587176 -0.21480732 -0.17484187 -0.5158611 -0.21087648 -0.16594532 -0.044715926 -0.010381271 -0.079802915 0.053744595 0.04897946 -0.11254704 0.23357788 0.13527033 -0.26137212 -0.26979676 0.05255644 -0.3428237 -0.6257603 -0.59809524 -0.115907796 -0.11012257 0.4834615 -0.22723864 0.074790895 0.10853633 -0.28024596 0.12862258 0.5103393 -0.10082893 0.39040688 -0.09898519 -0.09822948 0.107360795 -0.12450316 0.21681221 -0.3972718 0.04523729 -0.23635894 0.022845462 -0.038202576 -0.6568991 0.028347565 0.59398615 0.004567557 0.1964023 0.09851384 -0.1220182 0.43893862 -0.071199305 -0.06502732 -0.103673026 -0.16145608 -0.14848714 0.24463616 0.21343385 0.3624215 -0.38810468 -0.082635865 0.1431953 -0.2196347 -0.67313546 -0.23985732 0.33592263 -0.2557655 -0.29451722 0.6387224 -0.024291227 -0.25881 0.1305038 0.46138933 0.20383114 -0.023899592 -0.018746946 -0.162526 -0.16749413 -0.07309485 -0.22131748 -0.54509735 0.25975993 0.57851046 -0.39391744 0.042884573 -0.23439167 -0.2500331 -0.18686117 0.0023939186 0.30924264 -0.223414 -0.066131264 0.1518862 -0.4925852 0.02979641 -0.61257833 0.36704174 0.23201509
já 0.1878868 -0.9564077 -0.177203 0.4840608 -0.032462236 -0.2383172 -0.19616473 -0.5610999 -0.23762995 -0.17808494 -0.05065403 -0.018956322 -0.09923587 0.059976127 0.05402826 -0.122751206 0.24626938 0.14400333 -0.287786 -0.3011786 0.055275716 -0.36428776 -0.6884003 -0.6537178 -0.13499603 -0.114037134 0.5340466 -0.2608107 0.07988106 0.119823076 -0.29605854 0.14185846 0.54787016 -0.10395106 0.43663976 -0.11387082 -0.10155242 0.11800324 -0.12909177 0.2428152 -0.44017488 0.056772936 -0.24559179 0.016562616 -0.043548048 -0.7194296 0.036040902 0.6655673 0.0025423523 0.20353773 0.0989895 -0.12317788 0.48859724 -0.076239705 -0.07008515 -0.11207432 -0.1889413 -0.15986907 0.2771643 0.22838928 0.4054819 -0.43193814 -0.09215091 0.16248414 -0.24023853 -0.7332121 -0.2695138 0.3651184 -0.28355578 -0.33169767 0.71124166 -0.024064692 -0.2939874 0.13883793 0.5089774 0.22125454 -0.016887069 -0.017471263 -0.17571309 -0.18859164 -0.0791038 -0.24071543 -0.60743284 0.27938032 0.63791573 -0.42610413 0.054965135 -0.261988 -0.26993015 -0.21673673 -0.0025118568 0.3404939 -0.24116546 -0.07071379 0.17012636 -0.53660125 0.038939055 -0.67247355 0.3947743 0.24670602
mr 0.20932774 -0.94974726 -0.18398261 0.46484965 -0.037678305 -0.24068235 -0.17835706 -0.54225296 -0.22706628 -0.17207244 -0.053167015 -0.018125875 -0.12120652 0.05830171 0.040599167 -0.10909397 0.2517373 0.1411156 -0.26458457 -0.29384878 0.056946486 -0.34496924 -0.6612202 -0.65560085 -0.13165914 -0.1185714 0.5088954 -0.24539918 0.063262485 0.11207463 -0.2853179 0.14725107 0.53097844 -0.08538194 0.42332828 -0.119250394 -0.106893495 0.1304932 -0.110533535 0.23873788 -0.4353587 0.0725043 -0.23820455 0.009227617 -0.03637676 -0.71337277 0.042769834 0.6434952 0.014120904 0.2106988 0.08127675 -0.13096043 0.46030462 -0.078786366 -0.07806731 -0.13997383 -0.1807209 -0.15985148 0.28509486 0.21731874 0.3984204 -0.43063375 -0.10480947 0.15220265 -0.22506744 -0.7086877 -0.26468927 0.37939692 -0.26069435 -0.33091107 0.6745432 -0.01678794 -0.30165163 0.13786194 0.4794467 0.20975666 -0.009745561 -0.019986287 -0.16372505 -0.19970499 -0.059307296 -0.23755592 -0.5786276 0.28634864 0.63082576 -0.41263115 0.061969858 -0.23446086 -0.256816 -0.20942411 -0.00027781806 0.35206515 -0.2326072 -0.068833955 0.1730164 -0.5147646 0.049669135 -0.66041964 0.39703158 0.24164289
pelo 0.21710812 -1.0803549 -0.21122296 0.5498991 -0.03304287 -0.25792086 -0.21072067 -0.63131136 -0.27283075 -0.19705224 -0.05856167 -0.012388054 -0.11325735 0.0790539 0.051862832 -0.14725211 0.26819432 0.15813936 -0.32134473 -0.33290648 0.057996437 -0.42172998 -0.7810031 -0.73615223 -0.14445966 -0.1323132 0.599925 -0.2860498 0.08302821 0.1351634 -0.33784533 0.16010949 0.61458975 -0.1146349 0.49275753 -0.12216164 -0.11719554 0.13332707 -0.14245361 0.27845785 -0.5021935 0.06711612 -0.26597047 0.023177318 -0.04255673 -0.8129943 0.03403784 0.7454591 0.011222016 0.22832827 0.10194802 -0.13310806 0.54970783 -0.07347994 -0.07965003 -0.12680174 -0.21839076 -0.16586915 0.32116094 0.25422436 0.46213531 -0.48029554 -0.10614617 0.18098067 -0.27783862 -0.8201806 -0.29022697 0.41675073 -0.3172585 -0.3757443 0.78995043 -0.02438716 -0.33682796 0.16913259 0.5690433 0.25022152 -0.019101191 -0.026530234 -0.19009466 -0.20692044 -0.09240524 -0.26603714 -0.67491657 0.3163354 0.72481775 -0.4924451 0.05169417 -0.2966512 -0.31335795 -0.23562151 0.014064686 0.40163696 -0.26879638 -0.089387454 0.18175551 -0.6036115 0.038675763 -0.74615526 0.44777882 0.2779535
tinham 0.18609555 -0.91514194 -0.17845348 0.4512975 -0.025020035 -0.21556899 -0.18330859 -0.5346821 -0.23499139 -0.16212654 -0.055547442 -0.015191049 -0.10133357 0.05615712 0.039911818 -0.123485744 0.22350267 0.13357528 -0.27843177 -0.28047943 0.050234158 -0.34931174 -0.6594369 -0.611564 -0.12172477 -0.111444704 0.49857935 -0.24242815 0.070009805 0.121764444 -0.28971547 0.14169836 0.52210456 -0.09913078 0.4157384 -0.1095111 -0.108268455 0.11199224 -0.12846607 0.23725908 -0.42143726 0.05457091 -0.22597443 0.026187196 -0.028186351 -0.6778386 0.03446815 0.62523055 0.0022145482 0.1975656 0.08876326 -0.11040508 0.4579079 -0.06144864 -0.06319569 -0.116553545 -0.17841141 -0.13747263 0.26799428 0.22064427 0.38170877 -0.4156355 -0.09396109 0.15396422 -0.22759442 -0.7027007 -0.24744023 0.3542145 -0.27276087 -0.3179883 0.667049 -0.020832745 -0.2888164 0.14265683 0.47383913 0.20944025 -0.018613687 -0.017781695 -0.15861115 -0.18062441 -0.08003311 -0.22373848 -0.568593 0.26841214 0.61446303 -0.41945553 0.05244867 -0.24223943 -0.26916018 -0.19859773 0.0021586518 0.33299336 -0.22417246 -0.07019452 0.14725614 -0.5134679 0.036272198 -0.6319306 0.3752347 0.22508205
casa 0.15775289 -0.7266121 -0.13499977 0.37655395 -0.029796476 -0.17187901 -0.14776172 -0.4289684 -0.17970961 -0.15049225 -0.033996914 -0.011596515 -0.08239505 0.04428384 0.029081661 -0.099599935 0.18716082 0.11845902 -0.22413762 -0.21790932 0.02928284 -0.28406888 -0.52667904 -0.5061287 -0.09157475 -0.082837865 0.40598533 -0.20242354 0.048712566 0.09309385 -0.23203424 0.119549245 0.4096261 -0.07427929 0.34491414 -0.088645086 -0.084084265 0.08396941 -0.10708168 0.18461713 -0.34645805 0.040624473 -0.17975914 0.013703509 -0.02834569 -0.5443756 0.019680224 0.5129455 0.0002973096 0.1578382 0.07315759 -0.081309356 0.362453 -0.055972602 -0.061114814 -0.080179155 -0.13714229 -0.11154388 0.21264091 0.16524479 0.30564788 -0.3278927 -0.06704654 0.119694024 -0.19960956 -0.5580018 -0.20129429 0.2874379 -0.20848808 -0.25215217 0.5430532 -0.019987091 -0.2221478 0.09784339 0.37657928 0.17867772 -0.012902405 -0.03017103 -0.11742116 -0.13910525 -0.049533468 -0.17414215 -0.46540257 0.2254146 0.49878877 -0.34594542 0.04619938 -0.20699167 -0.20550662 -0.16525961 0.0142983 0.27053273 -0.18273717 -0.05936005 0.12180853 -0.41578248 0.022974504 -0.49896446 0.3141025 0.19430463
potter 0.17367175 -0.90199214 -0.17068605 0.45027927 -0.026825655 -0.2183516 -0.1808931 -0.52747613 -0.21820784 -0.16543941 -0.054715715 -0.02218369 -0.09244003 0.060642082 0.045378767 -0.112282164 0.23326902 0.12521781 -0.25972688 -0.27600878 0.043981597 -0.34576046 -0.64428824 -0.6041674 -0.12639566 -0.10572551 0.49473357 -0.23748364 0.071261406 0.114958294 -0.278517 0.14114866 0.51141816 -0.09764083 0.3984347 -0.110351905 -0.10441182 0.1139588 -0.11716324 0.21970181 -0.40134364 0.054452732 -0.2333746 0.014213445 -0.038631476 -0.674481 0.024400333 0.6165802 0.009888362 0.19383653 0.100994796 -0.11343223 0.44795814 -0.07468692 -0.073923394 -0.11399071 -0.17347816 -0.14511304 0.25672203 0.21736698 0.38518125 -0.40264025 -0.081043765 0.1506831 -0.23001298 -0.68719804 -0.24639024 0.3527806 -0.26855415 -0.30255553 0.66579443 -0.03363022 -0.27082908 0.14078924 0.47453463 0.21122393 -0.010105309 -0.014984781 -0.16635138 -0.17248304 -0.07085668 -0.23061454 -0.56469834 0.2663631 0.5930193 -0.39795864 0.052492306 -0.23386498 -0.25280535 -0.20545362 0.0014463963 0.32958314 -0.2330949 -0.06560181 0.15687893 -0.50619376 0.031326484 -0.6327911 0.36533734 0.23416187
só 0.18751739 -0.9579185 -0.18154979 0.48189405 -0.028367337 -0.23422928 -0.18887214 -0.5665788 -0.23782797 -0.17402707 -0.05147218 -0.016833689 -0.09603908 0.05784642 0.051831476 -0.13026972 0.2480305 0.13585775 -0.28406098 -0.29484344 0.05325083 -0.3652126 -0.6847645 -0.64843357 -0.12776975 -0.12216677 0.53626037 -0.26114604 0.07530514 0.11775759 -0.30470976 0.14314137 0.55383545 -0.10569155 0.43389153 -0.11261866 -0.10515664 0.110398896 -0.12767428 0.24919471 -0.43807626 0.05563373 -0.2485752 0.022291364 -0.04478096 -0.7141662 0.027338864 0.6630353 0.008953662 0.21023482 0.10151189 -0.12959526 0.48537144 -0.07183145 -0.076200195 -0.11891024 -0.17923017 -0.15702225 0.2790988 0.2350803 0.40771136 -0.4251371 -0.09654135 0.15286282 -0.2403099 -0.73769885 -0.26179126 0.36778122 -0.28200015 -0.32691792 0.7089773 -0.02814639 -0.29220676 0.1426171 0.5006224 0.22384566 -0.018219087 -0.025427232 -0.17182973 -0.19259867 -0.076043606 -0.23999947 -0.6086042 0.28233695 0.6411105 -0.43696642 0.05199688 -0.2520138 -0.27215704 -0.21351653 0.0059085144 0.3430133 -0.24226636 -0.071070515 0.16037707 -0.5357503 0.03490791 -0.66769326 0.402131 0.24895662
riddle 0.18950273 -0.96090025 -0.18215753 0.48244226 -0.029747376 -0.2370321 -0.1973396 -0.5523993 -0.23628922 -0.18398893 -0.05572501 -0.02012637 -0.10133298 0.066453926 0.043551046 -0.12855312 0.24171413 0.13618945 -0.28226435 -0.2920474 0.04656949 -0.37132058 -0.68789536 -0.655123 -0.1260772 -0.11882233 0.5251153 -0.2593579 0.07597768 0.12326311 -0.2983612 0.15100117 0.54874134 -0.10108289 0.43028748 -0.1119954 -0.109568015 0.111388706 -0.12513493 0.2382554 -0.4373051 0.061243188 -0.23954229 0.018893134 -0.037818223 -0.7195008 0.03541216 0.6641167 0.0010832462 0.20713851 0.10555487 -0.11900277 0.47683713 -0.073694475 -0.073121086 -0.11637022 -0.18817835 -0.1499758 0.2795598 0.23315668 0.40938538 -0.42956278 -0.088828854 0.16097993 -0.24354762 -0.7254333 -0.26733696 0.37121403 -0.2761663 -0.33190453 0.7009544 -0.027971646 -0.2925799 0.1385975 0.506101 0.21587068 -0.024754608 -0.020752005 -0.16692445 -0.19095907 -0.07233835 -0.2389554 -0.6046478 0.2813218 0.6332833 -0.4286963 0.051169496 -0.2568564 -0.27115288 -0.20689131 0.003958006 0.34529415 -0.23760563 -0.079022974 0.1610894 -0.5386223 0.031248529 -0.66532624 0.39323997 0.25167844
aqui 0.1644987 -0.8457564 -0.15653816 0.41780755 -0.024518024 -0.20810188 -0.17749469 -0.50032836 -0.20689623 -0.15792535 -0.05098235 -0.020597484 -0.0868409 0.056670688 0.049358685 -0.10919178 0.21987666 0.12845904 -0.2522862 -0.2606914 0.04360351 -0.3263821 -0.60838664 -0.5774849 -0.11216169 -0.11173077 0.47220793 -0.22712775 0.07217483 0.1110402 -0.2668836 0.13415715 0.4937716 -0.09829002 0.38223338 -0.10339471 -0.09711711 0.09551066 -0.113004185 0.21415839 -0.38362986 0.05215246 -0.2235026 0.013364465 -0.0385704 -0.6401515 0.024376871 0.5894621 0.01083519 0.18202516 0.09074818 -0.10921843 0.43166834 -0.07388649 -0.06475294 -0.1006054 -0.16140294 -0.14362177 0.23985994 0.21058033 0.35730705 -0.3778836 -0.085330166 0.13685206 -0.21567401 -0.6491284 -0.23045939 0.32886338 -0.2520391 -0.29592478 0.6297473 -0.02303238 -0.25653213 0.120195135 0.44746828 0.19512066 -0.013321838 -0.016647872 -0.15834825 -0.16212732 -0.062721655 -0.21070613 -0.53054684 0.2523024 0.5606479 -0.3850275 0.047553554 -0.22767858 -0.23764004 -0.18075567 -0.0029957986 0.29945728 -0.21818914 -0.06693263 0.15138891 -0.47336093 0.03602792 -0.59684896 0.35353705 0.2226641
parecia 0.15882832 -0.80710506 -0.16115002 0.3992768 -0.029801765 -0.19271155 -0.15522398 -0.4807981 -0.20759824 -0.14423004 -0.04335471 -0.010980137 -0.07988096 0.049796734 0.037359137 -0.10913792 0.20580566 0.12302993 -0.24394591 -0.24686575 0.046422765 -0.3154948 -0.59217906 -0.5549772 -0.10655143 -0.096964374 0.44757894 -0.22156285 0.059268467 0.10731763 -0.25571457 0.115642264 0.4716785 -0.08546604 0.3684327 -0.098363735 -0.09101231 0.097683564 -0.1120149 0.20811412 -0.37385952 0.04181043 -0.20914543 0.024596047 -0.0285203 -0.6131429 0.030598503 0.5517 0.0011816242 0.17914169 0.08091014 -0.103843085 0.41024536 -0.06428184 -0.060786158 -0.094592765 -0.1630307 -0.12837614 0.23218781 0.19270915 0.34922016 -0.36427385 -0.07972884 0.13556086 -0.19988522 -0.6270553 -0.22537707 0.3174657 -0.23304832 -0.27967408 0.59511894 -0.023201205 -0.256899 0.12579359 0.42913404 0.19158718 -0.019066196 -0.018005386 -0.14633572 -0.16222009 -0.0712946 -0.20938891 -0.5133072 0.2371858 0.53730583 -0.37018415 0.039511397 -0.2222659 -0.23420843 -0.18567495 0.010118206 0.30174723 -0.20514445 -0.06705566 0.14023 -0.45007172 0.030169362 -0.559703 0.33600768 0.20287466
