2022 100
a -0.05016769 -0.45459074 -0.037137806 -0.35748228 0.24069579 0.21662521 -0.076104395 -0.08466308 0.71470726 -0.3198832 0.42173344 -0.06942705 0.027114 0.015302135 0.36987305 0.7766666 9.550914e-05 -0.38940302 -0.605511 -0.14842258 -0.06511182 -0.71397245 0.102520846 -0.5479045 -0.26699132 -0.17310615 0.19134745 0.10810455 -0.49612698 -0.5352935 0.124023214 -0.14930049 0.16257052 0.14218202 0.5592033 0.49716923 0.16502148 0.12205121 -0.5679013 -0.52406454 0.5898025 0.81839454 -0.2868288 -0.05488417 -0.20343678 0.9299322 -0.40493494 -0.3387567 -0.26198202 -0.03403968 0.037828363 -0.67361987 -0.3661505 0.44149312 -0.22175595 0.0036491163 -0.22792384 -0.20863202 0.31328934 -0.036038082 0.0633374 -0.26429573 0.04547315 0.030070437 -0.062842555 -0.047127597 -0.6243811 0.2986177 0.036247868 0.1346285 0.34506306 0.20330805 0.2633126 -0.04520767 -0.32525054 -0.1132891 0.31932956 0.35426104 0.3040152 -0.09071933 0.3930271 0.44152862 -0.1781101 -0.1708199 0.119471654 -0.16929899 -0.20021126 0.25128433 -0.041781943 0.001391423 0.20086257 -0.033234224 0.2309529 0.2757011 -0.21458873 -0.265739 0.14893329 0.07341789 0.064718194 0.21638344
de -0.055685617 -0.48989707 -0.043167304 -0.38696668 0.25375065 0.22432224 -0.08767155 -0.08652597 0.7426551 -0.33519498 0.45149294 -0.08757723 0.04780028 0.021677626 0.3975382 0.8178735 -0.004184346 -0.3957127 -0.6182791 -0.1504042 -0.055696897 -0.7474339 0.107631214 -0.5804877 -0.26253915 -0.16296747 0.20061666 0.093134634 -0.5131502 -0.54361784 0.12408814 -0.1469155 0.17874241 0.13154411 0.5973871 0.5203938 0.19246192 0.11636821 -0.59275275 -0.5619372 0.6181682 0.8451723 -0.30452746 -0.048520997 -0.21824224 0.9652577 -0.4187542 -0.3431203 -0.2726938 -0.036750518 0.025398083 -0.69729394 -0.3840868 0.4493047 -0.23234028 0.010875762 -0.2434691 -0.23093766 0.33215824 -0.04538699 0.053216945 -0.2886408 0.04613537 0.047379553 -0.0825888 -0.04974437 -0.6446104 0.30712914 0.031203158 0.14430855 0.34702793 0.19123746 0.2812602 -0.070352025 -0.3470223 -0.1152322 0.33655033 0.36820665 0.320733 -0.095012404 0.4171014 0.45389053 -0.18689688 -0.18395704 0.14046013 -0.19260608 -0.20649362 0.25875422 -0.04725153 -0.008682235 0.21550457 -0.035944052 0.24597895 0.29937333 -0.21939373 -0.27927 0.13812579 0.07008474 0.068931006 0.23988447
o -0.0771203 -0.44665393 -0.040666007 -0.37651145 0.22682928 0.21697399 -0.07260994 -0.09551306 0.7169866 -0.31664604 0.43785924 -0.06985469 0.007472937 0.0040788474 0.37469417 0.7886993 0.00949583 -0.38520306 -0.61373144 -0.16655268 -0.08038013 -0.71665126 0.0894104 -0.5395029 -0.26573765 -0.15125884 0.20382258 0.13919395 -0.46381804 -0.54704744 0.11718367 -0.15872268 0.12754548 0.121119834 0.57666147 0.46799093 0.16370681 0.13451302 -0.57687896 -0.5079888 0.6098353 0.8138063 -0.28358075 -0.065690055 -0.23336418 0.92207265 -0.4002082 -0.35359734 -0.27658853 -0.03247789 0.040724847 -0.6528175 -0.3673726 0.4236872 -0.22816917 0.006201226 -0.23260587 -0.21789363 0.2984175 -0.046230115 0.05620368 -0.27798557 0.041520447 0.03207519 -0.07822823 -0.05726364 -0.60598505 0.2966034 0.048348535 0.14516632 0.34629944 0.19826646 0.27528659 -0.056948375 -0.29983503 -0.112373956 0.30840725 0.34215227 0.30088282 -0.1059001 0.38658202 0.45642027 -0.15386002 -0.15904449 0.13580139 -0.1868634 -0.20712169 0.2518572 -0.05270412 0.024137208 0.16739513 -0.04580889 0.24560499 0.2671565 -0.22879128 -0.26942575 0.11628682 0.04947376 0.055500716 0.20792918
que -0.05528321 -0.43019527 -0.03528528 -0.35623044 0.23074608 0.19584651 -0.083480686 -0.07957182 0.69156134 -0.3213904 0.40810674 -0.07154671 0.009039453 -0.006869204 0.36106327 0.76366454 0.00666021 -0.38877073 -0.57422346 -0.1641281 -0.06395188 -0.68057775 0.078544006 -0.5213501 -0.25973836 -0.16543427 0.19623359 0.12467222 -0.4389385 -0.51250654 0.10211005 -0.14970675 0.13751787 0.13005726 0.5420727 0.4454024 0.16676892 0.12022553 -0.5362915 -0.46918944 0.56859285 0.78542966 -0.2637534 -0.04648597 -0.21666913 0.8677404 -0.37665436 -0.34250757 -0.25867137 -0.03510546 0.047423203 -0.6308685 -0.34507456 0.40734744 -0.21999198 0.030483589 -0.2135785 -0.19456333 0.2964829 -0.05881319 0.043854088 -0.27303165 0.040008955 0.050883424 -0.062252827 -0.054725345 -0.588846 0.27216828 0.048247974 0.13589843 0.31937107 0.20598634 0.25845295 -0.0484332 -0.30617902 -0.13210791 0.30421022 0.32950968 0.3016297 -0.098713554 0.400081 0.42484638 -0.1563414 -0.17275548 0.12964192 -0.17441075 -0.18764205 0.24513164 -0.05651043 0.009751912 0.18054837 -0.04495064 0.22969793 0.26573575 -0.2145889 -0.2566119 0.13977012 0.05814269 0.035003748 0.19913633
e -0.052076004 -0.45999756 -0.04051021 -0.37378395 0.24365541 0.20916551 -0.07871156 -0.08649925 0.724648 -0.32481503 0.43471226 -0.08294204 0.03416679 0.018455498 0.3707952 0.7878007 0.0070727835 -0.38422644 -0.6090814 -0.1539638 -0.060247928 -0.72609687 0.11337874 -0.5593194 -0.2519524 -0.15772332 0.18535635 0.101934746 -0.48822382 -0.5344993 0.11551855 -0.14150736 0.14893515 0.12631021 0.5730473 0.50036895 0.18610126 0.12019563 -0.5685397 -0.53676337 0.58916575 0.82120544 -0.2894746 -0.061758175 -0.21769723 0.92451555 -0.4082294 -0.34143245 -0.27307191 -0.033358052 0.02955647 -0.66854787 -0.3779545 0.4317632 -0.22633594 0.009465957 -0.22953443 -0.22471136 0.3065859 -0.040565506 0.047594402 -0.2805183 0.039146617 0.04213269 -0.083345085 -0.0517525 -0.62024605 0.2970895 0.033291433 0.15757771 0.3504791 0.1882292 0.27467287 -0.065582134 -0.31782997 -0.11080246 0.3228579 0.35198835 0.31188175 -0.09547038 0.39689866 0.4471637 -0.17528923 -0.16645753 0.140649 -0.16758278 -0.19918296 0.24391632 -0.03469235 0.004316867 0.19489852 -0.027326921 0.2301552 0.27058327 -0.22033834 -0.27307996 0.11977331 0.061848734 0.072518915 0.2253367
harry -0.062166966 -0.42906746 -0.040264346 -0.3521483 0.22015601 0.2090764 -0.07228183 -0.0778067 0.693292 -0.30772853 0.41041926 -0.06673931 0.017139198 -0.00046105013 0.3586124 0.7561927 -0.0015233243 -0.37992048 -0.5917764 -0.14564818 -0.06760481 -0.6941388 0.09495294 -0.5315852 -0.2575472 -0.14907293 0.19488254 0.12260337 -0.46450737 -0.52566683 0.10569846 -0.14952354 0.13339807 0.12811626 0.5559844 0.46857318 0.17015369 0.11841988 -0.5583654 -0.49914992 0.58901274 0.79838085 -0.27327 -0.06861059 -0.21523619 0.8890955 -0.39618686 -0.33943468 -0.27211446 -0.032854293 0.042416915 -0.6403641 -0.36061266 0.41062176 -0.21049333 0.006202642 -0.21927103 -0.20268558 0.28701133 -0.05142033 0.06366373 -0.26630864 0.034983467 0.035038814 -0.07630071 -0.058503862 -0.56821185 0.27766654 0.04050548 0.1341019 0.33462527 0.18612318 0.2663582 -0.062231403 -0.30007562 -0.11453516 0.29601166 0.3422498 0.28694126 -0.098018125 0.380054 0.43684575 -0.15106308 -0.16023006 0.13377069 -0.16318007 -0.1917842 0.23279992 -0.053404357 0.010708001 0.16945994 -0.03018821 0.23185608 0.25754246 -0.20962243 -0.25917724 0.12716548 0.056635 0.054892108 0.20809987
se -0.062839404 -0.45561635 -0.050481036 -0.36944753 0.23058735 0.20921458 -0.08711822 -0.0835893 0.7154018 -0.32438812 0.42078418 -0.07685944 0.033791766 0.011073406 0.37519708 0.7745521 -0.0027679305 -0.38747323 -0.59907794 -0.1529314 -0.06861735 -0.71447384 0.0957849 -0.5573609 -0.2484551 -0.16178003 0.20189546 0.11754861 -0.48880056 -0.52861285 0.111488275 -0.14636235 0.15640292 0.13053878 0.5681095 0.48913905 0.17136425 0.12021547 -0.5700442 -0.51432735 0.59476686 0.81333005 -0.28709018 -0.057667382 -0.21817209 0.9213548 -0.41196182 -0.33792382 -0.2792645 -0.028894074 0.034940306 -0.6663839 -0.3714544 0.42890066 -0.21696402 0.0035592604 -0.22397876 -0.20393394 0.30945975 -0.052882284 0.061713234 -0.27233985 0.030420702 0.03795447 -0.069905356 -0.055745903 -0.5982996 0.28167084 0.04512014 0.14561762 0.33130875 0.18930385 0.2769722 -0.06416417 -0.3170277 -0.11603485 0.31906834 0.3448409 0.30554143 -0.10303278 0.38842005 0.43832433 -0.17176911 -0.16808727 0.13164397 -0.1769276 -0.20071204 0.24949111 -0.04326226 0.0037867427 0.19623002 -0.032067887 0.22888596 0.27407515 -0.21198803 -0.25787058 0.13216425 0.06969916 0.06559629 0.21997935
não -0.070569865 -0.4644945 -0.04606423 -0.37363875 0.24738304 0.21685898 -0.09905938 -0.09308219 0.7276208 -0.3312858 0.4416003 -0.059628576 0.016071707 -0.008054896 0.39123404 0.80787295 0.0023977498 -0.4158226 -0.6190532 -0.17577401 -0.085982926 -0.7289239 0.09094758 -0.5552267 -0.27437276 -0.1752351 0.20985737 0.13172698 -0.46243206 -0.55234694 0.114300184 -0.15631153 0.15482996 0.13123922 0.5727885 0.4766807 0.16782588 0.122728825 -0.58083314 -0.5005744 0.6163786 0.8437561 -0.28070936 -0.05646749 -0.23254755 0.94034284 -0.41308138 -0.3591445 -0.2742389 -0.050599087 0.047533665 -0.68546695 -0.37172958 0.44213235 -0.22313514 0.031021426 -0.24261972 -0.2055978 0.30843437 -0.053307686 0.052509356 -0.28800192 0.045068014 0.04340741 -0.06784111 -0.050456792 -0.6245829 0.29673228 0.049406867 0.1331233 0.33763084 0.2203868 0.27258947 -0.049475387 -0.32398182 -0.14100108 0.32048458 0.35149288 0.32010683 -0.10149296 0.4196667 0.44496456 -0.16064325 -0.17748554 0.12798093 -0.2017182 -0.20470579 0.2572495 -0.061379943 0.018358104 0.188556 -0.038834043 0.24696964 0.27455786 -0.23498115 -0.26709908 0.15283296 0.064387485 0.043546908 0.20915967
um -0.05127636 -0.495902 -0.050517455 -0.39797005 0.2672474 0.23340769 -0.09384329 -0.1024496 0.7778379 -0.3449624 0.46214944 -0.090395354 0.03542247 0.021448703 0.40423733 0.83849263 -0.0018909046 -0.42131105 -0.6423728 -0.16025637 -0.07513535 -0.7762116 0.11043057 -0.5947754 -0.2705626 -0.16816325 0.21619791 0.116833374 -0.52316016 -0.5771182 0.13448948 -0.1622585 0.15787823 0.13196965 0.6145443 0.5312718 0.17878991 0.13073382 -0.6195742 -0.5750418 0.63321096 0.88639903 -0.31719244 -0.05537666 -0.23315592 0.99291694 -0.44416738 -0.3583894 -0.2979661 -0.03171983 0.03545689 -0.7140046 -0.38939238 0.45713905 -0.23890543 0.0048137894 -0.24900953 -0.22306314 0.3384424 -0.052821845 0.06878415 -0.3067481 0.03610957 0.042717867 -0.0733128 -0.059056778 -0.66004187 0.3183962 0.033959005 0.14275484 0.35760587 0.21298827 0.2970957 -0.058333166 -0.3528953 -0.12299204 0.3407448 0.38639128 0.330462 -0.11035175 0.41533324 0.47164014 -0.18993229 -0.17719427 0.13961227 -0.19663909 -0.21698707 0.27063024 -0.051884636 0.0046027643 0.21742384 -0.035876762 0.24338754 0.2990555 -0.22112735 -0.29372615 0.14542279 0.063864805 0.07571395 0.24315402
para -0.06804131 -0.47738218 -0.044390313 -0.3876933 0.2501175 0.20917743 -0.07120704 -0.09302273 0.7458762 -0.32662922 0.4478358 -0.08339971 0.038740102 0.0039997753 0.38098925 0.80838144 -0.009248443 -0.3940142 -0.6265496 -0.16737294 -0.06626371 -0.7427863 0.112728916 -0.5698873 -0.2694053 -0.16991465 0.20431915 0.11692345 -0.50523925 -0.5649294 0.12025578 -0.14746885 0.16124825 0.13490401 0.5969107 0.5189155 0.19126482 0.12081935 -0.6015304 -0.5436544 0.61417896 0.8463652 -0.2897482 -0.06681038 -0.22810239 0.9604172 -0.42056775 -0.3565473 -0.28929117 -0.040057883 0.041926682 -0.69331807 -0.39065573 0.44693577 -0.22964115 0.01212422 -0.24321531 -0.22181498 0.30973676 -0.04842545 0.05477231 -0.29216844 0.03823598 0.041225463 -0.08102637 -0.063808545 -0.62297106 0.2982399 0.036931455 0.15753251 0.35593233 0.18949397 0.2884807 -0.06505114 -0.31931937 -0.1235353 0.3380202 0.3725925 0.31705508 -0.09675138 0.39947772 0.46465325 -0.18068805 -0.18373097 0.1402753 -0.17364553 -0.20236756 0.25393802 -0.056429654 0.002299339 0.19865173 -0.03275543 0.24918227 0.2870971 -0.21886198 -0.27351594 0.13018188 0.06484622 0.06630494 0.22336072
com -0.057356555 -0.46232975 -0.049538586 -0.37793818 0.2477279 0.20679414 -0.076178215 -0.08568304 0.7116415 -0.32711852 0.43827218 -0.08826401 0.038133785 0.007379047 0.37787205 0.7834452 -0.0062055965 -0.39420053 -0.6111247 -0.16440202 -0.058494173 -0.72941035 0.09731812 -0.54851687 -0.25728327 -0.16830535 0.19816591 0.114154644 -0.48533097 -0.54630244 0.12630148 -0.14303574 0.16192968 0.13292955 0.5808277 0.4997559 0.17149715 0.10908047 -0.57341063 -0.51724 0.5885194 0.82593983 -0.28806072 -0.04828745 -0.2204378 0.9210069 -0.40726283 -0.3398287 -0.26736954 -0.040877406 0.0430645 -0.66636515 -0.37166625 0.41771704 -0.21271573 0.007919717 -0.2339611 -0.21886924 0.31110448 -0.04291427 0.05585349 -0.28681746 0.04480286 0.043079868 -0.07672714 -0.056874864 -0.62165904 0.29585597 0.0384938 0.15225723 0.3487038 0.19121878 0.27607006 -0.06412885 -0.31962052 -0.11250129 0.3286139 0.3632466 0.3076925 -0.09761432 0.39588 0.44726056 -0.1733956 -0.16897461 0.1398131 -0.17740478 -0.20320435 0.24727945 -0.048551247 0.0025099837 0.19067807 -0.03438313 0.23383586 0.27462453 -0.21590786 -0.25657642 0.13646254 0.07208242 0.05670092 0.21463294
do -0.057805263 -0.50438166 -0.054974698 -0.40354776 0.26660454 0.22805074 -0.09078647 -0.100709006 0.7803778 -0.35236746 0.46785012 -0.082426235 0.041999422 0.019624067 0.4111495 0.84624994 -0.00047482975 -0.4124371 -0.6561816 -0.16783601 -0.06355161 -0.78038734 0.1143334 -0.60630184 -0.2776031 -0.17007981 0.21192366 0.102017 -0.53203046 -0.576171 0.13922963 -0.15688825 0.16004269 0.14361827 0.6156462 0.52858037 0.19241887 0.12636615 -0.61535126 -0.5790718 0.650015 0.87960196 -0.31636038 -0.05659517 -0.23970258 0.9995188 -0.4402588 -0.36448413 -0.2917132 -0.031500835 0.024232116 -0.7255294 -0.39827892 0.47017497 -0.24609257 0.01124498 -0.24815916 -0.23772998 0.3430528 -0.046853703 0.05566358 -0.31014657 0.043448597 0.040761955 -0.07903094 -0.053885568 -0.6607751 0.32328707 0.028307987 0.15172045 0.37329587 0.20580345 0.29564664 -0.06737976 -0.3492172 -0.13004701 0.35212734 0.38321677 0.33351958 -0.11368538 0.42060158 0.46926886 -0.18758456 -0.17684573 0.1483017 -0.19279869 -0.21737786 0.26363453 -0.05186123 -0.0035311128 0.22479999 -0.03294164 0.25884607 0.3008724 -0.22258106 -0.29061654 0.14324151 0.06812918 0.0721008 0.25919414
os -0.05197067 -0.47688058 -0.040516976 -0.39667952 0.24884364 0.21354726 -0.088201694 -0.08737692 0.7303459 -0.3426444 0.45584422 -0.100299664 0.040164366 0.034632552 0.40009585 0.81309247 0.00277628 -0.4018903 -0.6122344 -0.16414896 -0.0660775 -0.74638736 0.10407552 -0.5861992 -0.2649702 -0.16105062 0.22073597 0.110303454 -0.52504164 -0.5589554 0.1309049 -0.14877658 0.17461212 0.1325379 0.6085584 0.5207143 0.19263536 0.11729168 -0.60056114 -0.5532303 0.6097243 0.8661462 -0.3170012 -0.034417458 -0.22929525 0.974698 -0.4306796 -0.34464344 -0.2810928 -0.034815386 0.025286648 -0.689096 -0.39102054 0.43589962 -0.23260099 0.014641846 -0.24733804 -0.22549038 0.3345401 -0.035641775 0.04686025 -0.29467708 0.037822418 0.032777254 -0.087030396 -0.056344345 -0.63336396 0.28956005 0.048815757 0.14640887 0.34983298 0.18492936 0.28095183 -0.05614025 -0.3284079 -0.113330066 0.33746234 0.37819389 0.3040143 -0.10381908 0.41195458 0.4635515 -0.19007231 -0.18487857 0.1260378 -0.18814643 -0.20946243 0.26683855 -0.057335563 0.015618066 0.22502302 -0.032919444 0.23413484 0.2898774 -0.21759683 -0.2797733 0.13966948 0.07152285 0.06214222 0.24431686
uma -0.04942235 -0.48746914 -0.0472278 -0.38611713 0.25808653 0.22890495 -0.08691567 -0.09749815 0.7586622 -0.3488833 0.4571709 -0.082910605 0.04093212 0.02419158 0.408083 0.83501303 9.610914e-05 -0.42335153 -0.6377713 -0.15847446 -0.0745663 -0.7608341 0.09872161 -0.5879678 -0.276402 -0.17852242 0.22101493 0.116437554 -0.5155572 -0.5602163 0.13341439 -0.16649017 0.15919547 0.13928825 0.60258913 0.51540196 0.18488538 0.12149815 -0.61246324 -0.5525383 0.63136715 0.86726105 -0.31486547 -0.050846063 -0.23504382 0.9847995 -0.43267632 -0.3600028 -0.28905934 -0.027322136 0.026520595 -0.7066303 -0.39073923 0.4582482 -0.24204497 0.012528691 -0.2494419 -0.21590872 0.32583714 -0.050212026 0.06651186 -0.29369733 0.04155306 0.036539167 -0.072952025 -0.055155516 -0.65090275 0.31015733 0.04051092 0.1484099 0.36067772 0.21048208 0.28718305 -0.05111295 -0.35053065 -0.13308716 0.3360209 0.37182754 0.33392665 -0.10304448 0.42252025 0.45620674 -0.18712437 -0.17284666 0.14190072 -0.19762497 -0.2169794 0.2612013 -0.05372617 0.004598386 0.21803397 -0.030097183 0.24700028 0.29384837 -0.2277802 -0.2879992 0.14853042 0.07079214 0.07508583 0.23669559
disse -0.07083485 -0.43824095 -0.044240076 -0.3690219 0.22622503 0.20305832 -0.07696679 -0.08902148 0.69069356 -0.31071994 0.42729595 -0.05664976 0.01338326 -0.013041792 0.36573595 0.7695304 0.00908523 -0.39260563 -0.5900677 -0.15296203 -0.06940336 -0.6856893 0.09832129 -0.51614565 -0.25269657 -0.15889768 0.1964115 0.13338076 -0.43242314 -0.53770626 0.117342375 -0.14699253 0.13674845 0.120310634 0.5494445 0.45587105 0.15598455 0.12432815 -0.54959184 -0.47542065 0.5855408 0.79131806 -0.26276383 -0.06701791 -0.22300582 0.88884324 -0.39287996 -0.3368275 -0.26345497 -0.045362055 0.050093655 -0.64698994 -0.35531613 0.41301212 -0.22381368 0.02783226 -0.22379495 -0.20044251 0.29511365 -0.054634318 0.046513498 -0.2654884 0.03046706 0.042393804 -0.062471908 -0.06242115 -0.59947455 0.28234258 0.050991025 0.14201926 0.32509238 0.19401927 0.2568414 -0.047541305 -0.30188468 -0.12430686 0.30188408 0.3325712 0.28620705 -0.09405794 0.38248968 0.43277085 -0.15911406 -0.17608339 0.12501477 -0.17045352 -0.18973216 0.22822705 -0.042546775 0.01805473 0.17106055 -0.03526684 0.224152 0.2536687 -0.22909577 -0.2556328 0.12744555 0.049436208 0.059661634 0.19368736
da -0.059317123 -0.5346043 -0.048830487 -0.41336158 0.2819873 0.24337599 -0.094902545 -0.098258905 0.81095177 -0.35976857 0.48249406 -0.081049845 0.048837572 0.032408167 0.4259666 0.87848705 -0.008448723 -0.44984916 -0.6896 -0.15728301 -0.05418521 -0.8228338 0.12457703 -0.6462608 -0.2966819 -0.18530968 0.22857319 0.10193208 -0.57452446 -0.6061279 0.14302804 -0.17024894 0.18428111 0.1622249 0.65509754 0.5652679 0.2080098 0.13980073 -0.6436926 -0.61320263 0.6792775 0.92491096 -0.3334888 -0.06843864 -0.23573242 1.0499649 -0.4721544 -0.37410313 -0.300102 -0.033313252 0.021197658 -0.7813231 -0.40933317 0.4951708 -0.24923323 0.0013153194 -0.2575564 -0.24114317 0.36226603 -0.040911764 0.06596621 -0.30513084 0.04121978 0.04069372 -0.086538814 -0.058743235 -0.7135812 0.34407988 0.037684962 0.15743993 0.39294943 0.22235925 0.3050035 -0.0669185 -0.37390605 -0.13870528 0.3789683 0.40388086 0.3558654 -0.107969694 0.4465944 0.4876862 -0.20156921 -0.19226706 0.1481897 -0.19322944 -0.23045114 0.27710113 -0.041483723 -0.0058958577 0.23597735 -0.029458158 0.26661164 0.31557798 -0.23877838 -0.31084862 0.1660569 0.088278286 0.09318755 0.2750859
ron -0.063598394 -0.37952855 -0.026189087 -0.31112793 0.2069768 0.19678456 -0.05641456 -0.07255062 0.62613726 -0.2829099 0.36893222 -0.059726287 0.01855712 -0.0035655613 0.31670532 0.6707172 -0.004015817 -0.33514297 -0.5301679 -0.12918617 -0.06532368 -0.6253845 0.08471487 -0.48345372 -0.23218666 -0.13735335 0.172083 0.11355741 -0.4011109 -0.46978343 0.08327475 -0.118413985 0.112313755 0.11826663 0.486054 0.42153126 0.15199156 0.09912247 -0.49791703 -0.4295571 0.5283609 0.7083045 -0.24231143 -0.053847678 -0.18598829 0.7946129 -0.3482928 -0.3049852 -0.23691139 -0.040081434 0.049285665 -0.558512 -0.3145743 0.35604927 -0.17674197 0.005017877 -0.19738789 -0.17285962 0.25300637 -0.0497384 0.05506754 -0.2347019 0.02524482 0.038440138 -0.059283145 -0.05874157 -0.49109876 0.24507464 0.03282598 0.119612366 0.29797977 0.15900426 0.2280274 -0.05321233 -0.2555688 -0.10721041 0.2723964 0.29250258 0.2531617 -0.08668917 0.33404765 0.3982337 -0.12854056 -0.14091605 0.11983288 -0.14377642 -0.18267874 0.21051042 -0.03423105 0.003238874 0.14190266 -0.044590652 0.21293028 0.2273056 -0.20434515 -0.22583735 0.098160304 0.043773595 0.043833 0.18136491
em -0.06779236 -0.5009306 -0.05270293 -0.4048734 0.26130158 0.23688018 -0.09898477 -0.09108956 0.79075825 -0.3574372 0.46328202 -0.090480775 0.048162352 0.030554507 0.41960862 0.8502546 -0.011140787 -0.43191022 -0.65273225 -0.17009725 -0.06634427 -0.7780378 0.12089087 -0.61581683 -0.2792615 -0.18045032 0.22626583 0.10912245 -0.55221695 -0.578122 0.12924266 -0.15718868 0.18508267 0.14452352 0.6186275 0.53064066 0.19910283 0.13388972 -0.6310031 -0.58493334 0.6528608 0.9019857 -0.32440713 -0.06216499 -0.23595344 1.023448 -0.45336044 -0.37152985 -0.2934806 -0.026005825 0.032729413 -0.7401996 -0.40667516 0.479908 -0.24675213 0.006966909 -0.24381603 -0.2321487 0.34269136 -0.03617953 0.05875555 -0.30191433 0.028925486 0.033158146 -0.09181868 -0.045586925 -0.66230524 0.3158737 0.034569286 0.1547592 0.3642107 0.2021355 0.30350882 -0.066068165 -0.3441527 -0.12424563 0.35613847 0.3823317 0.33911073 -0.10735526 0.426468 0.48058125 -0.19878036 -0.17901635 0.14491786 -0.18845388 -0.22475426 0.27379885 -0.04386024 -0.0096220095 0.2227489 -0.02968964 0.26464245 0.31138724 -0.2359143 -0.28270558 0.15905438 0.08535331 0.0817119 0.2574701
as -0.052519582 -0.52005416 -0.04909418 -0.40372628 0.2790819 0.24151742 -0.10256968 -0.09622592 0.8082246 -0.36898908 0.47907576 -0.09608205 0.049821425 0.026544817 0.43567947 0.8770938 0.0009754393 -0.43897444 -0.6668779 -0.17884986 -0.060988486 -0.7951713 0.12328688 -0.630236 -0.2844633 -0.17328556 0.24066366 0.110482015 -0.5626935 -0.59080684 0.12963681 -0.16614023 0.17709512 0.14065218 0.64901435 0.5590436 0.19156812 0.12696254 -0.6349202 -0.5902658 0.6663403 0.93165386 -0.31986365 -0.051554307 -0.23179962 1.0470306 -0.4636043 -0.38859162 -0.29882514 -0.041583844 0.027563624 -0.76093364 -0.40616676 0.47765902 -0.24351789 0.009388154 -0.25524655 -0.23797524 0.34876874 -0.041363515 0.05664984 -0.31313333 0.037213877 0.03380509 -0.08915242 -0.048373923 -0.69508004 0.32925567 0.042010263 0.1599811 0.38846138 0.20428008 0.30459556 -0.06305203 -0.36277813 -0.12269834 0.35644558 0.40058392 0.34683856 -0.11605437 0.44339913 0.49722037 -0.19559371 -0.19894658 0.14282171 -0.20756614 -0.22976494 0.2827126 -0.042433456 0.0059826854 0.22977065 -0.028491871 0.25767794 0.3156774 -0.23925851 -0.30396876 0.15797071 0.074814714 0.0735272 0.25973713
no -0.055446178 -0.52877825 -0.05062173 -0.41783664 0.2756632 0.23586337 -0.092730895 -0.09891504 0.8193937 -0.36122507 0.48264834 -0.0917426 0.036018834 0.020524349 0.42379844 0.88030165 -0.00081327703 -0.44671243 -0.68288845 -0.17263174 -0.062234323 -0.8162316 0.120562136 -0.64336073 -0.29401246 -0.18521677 0.22518545 0.10526299 -0.5655549 -0.6108449 0.14114562 -0.17614192 0.17267957 0.14616776 0.6476445 0.55975527 0.194055 0.1329831 -0.6549364 -0.6042382 0.6847378 0.9404391 -0.3286443 -0.058760196 -0.24986061 1.0483985 -0.4689188 -0.3749766 -0.31691808 -0.0410446 0.038546447 -0.75813043 -0.42252025 0.49813098 -0.24959752 0.006693155 -0.25344917 -0.25142238 0.35642102 -0.04061159 0.062415134 -0.3183925 0.05031556 0.03553685 -0.08381203 -0.05073187 -0.6979419 0.3316609 0.035568334 0.15267992 0.39004868 0.20866618 0.30343717 -0.07726317 -0.36165047 -0.12318398 0.36573803 0.40404254 0.34982184 -0.121505015 0.44022757 0.51049083 -0.19093339 -0.18305068 0.14479011 -0.2025003 -0.22268794 0.2747507 -0.04338555 -0.0019682755 0.22747253 -0.040294748 0.271184 0.30864424 -0.24246074 -0.30191404 0.15812846 0.07800917 0.07959049 0.26924193
é -0.067773916 -0.43055147 -0.039747976 -0.35800597 0.22757931 0.20630102 -0.09540329 -0.078545436 0.7034205 -0.31181446 0.4235732 -0.059294436 0.01776427 -0.0077255247 0.37017912 0.77350754 -0.0060998476 -0.391628 -0.58690447 -0.1655147 -0.070800714 -0.6892741 0.091561064 -0.52875626 -0.25470194 -0.156689 0.20846716 0.122749 -0.43708616 -0.53594184 0.11617285 -0.14926417 0.15401882 0.12119164 0.5510067 0.4622892 0.15287775 0.117619276 -0.5582005 -0.4735632 0.5750437 0.79945093 -0.2736328 -0.057753798 -0.21193707 0.8916571 -0.3886633 -0.35078278 -0.26358527 -0.046724252 0.047280617 -0.655205 -0.35676643 0.4120716 -0.21144955 0.027695453 -0.23429234 -0.18896265 0.29525846 -0.05225188 0.046404246 -0.26943484 0.04818253 0.049164284 -0.057803076 -0.053516723 -0.59540606 0.27130058 0.054125413 0.13220602 0.32879043 0.20895998 0.26612774 -0.05619897 -0.30559725 -0.12504752 0.29397085 0.33627212 0.2952923 -0.10193387 0.38630643 0.42675233 -0.14815481 -0.16957295 0.13145244 -0.18725958 -0.18700239 0.24035206 -0.061857935 0.021044848 0.16915841 -0.034114055 0.23107636 0.26961717 -0.22522172 -0.24989167 0.14668727 0.05796602 0.046373628 0.20241025
mas -0.06204983 -0.46742752 -0.04739559 -0.37625006 0.24756514 0.22372457 -0.09766269 -0.09845817 0.7405665 -0.33908415 0.44115213 -0.067858405 0.030158494 0.0014785011 0.39885885 0.82215494 0.0035950306 -0.40960127 -0.625671 -0.16807559 -0.075677946 -0.73609126 0.095099926 -0.5697322 -0.27544874 -0.16564491 0.20708328 0.11781574 -0.4931776 -0.5642199 0.11942601 -0.15091343 0.16203174 0.1316172 0.5845887 0.4928373 0.16972655 0.11745407 -0.59086657 -0.5301978 0.61735857 0.8545244 -0.28816593 -0.054726638 -0.22418423 0.9566547 -0.41554433 -0.35741 -0.2766836 -0.04530463 0.04585846 -0.6968649 -0.37431452 0.44235113 -0.22890137 0.01967218 -0.23880105 -0.21828936 0.3160492 -0.049756076 0.051976718 -0.2837854 0.0459472 0.051126227 -0.06736048 -0.05925708 -0.6443501 0.29668325 0.046473913 0.13883263 0.357225 0.21784902 0.27851358 -0.051472474 -0.3394721 -0.12526289 0.3287645 0.36265346 0.31831467 -0.09944645 0.4183457 0.4557931 -0.17854121 -0.18079983 0.13111064 -0.19145648 -0.2065159 0.24835317 -0.05350288 0.01053444 0.20187134 -0.032671794 0.24644884 0.278681 -0.22966859 -0.26733556 0.15002516 0.06993934 0.05291599 0.22475061
na -0.054448195 -0.52244407 -0.04690929 -0.4102743 0.27433863 0.24771391 -0.08953758 -0.10202121 0.81641 -0.37485346 0.48345476 -0.077309996 0.037795346 0.019132111 0.43361178 0.891185 0.0060076737 -0.4522199 -0.68145484 -0.17442839 -0.06460753 -0.8229538 0.119470455 -0.6406082 -0.29722667 -0.18811268 0.22647846 0.11143316 -0.5653992 -0.61094904 0.13999702 -0.16795513 0.1917909 0.1549912 0.6494358 0.565356 0.2009886 0.13373214 -0.65002024 -0.59627825 0.6816433 0.93249315 -0.3256788 -0.06258211 -0.24855448 1.0551211 -0.4633508 -0.3894258 -0.30603793 -0.03202665 0.03249946 -0.76451236 -0.4104167 0.50168633 -0.24904448 0.008194842 -0.25638792 -0.23752859 0.3511934 -0.042214066 0.064012505 -0.3063815 0.04517659 0.0379431 -0.076977775 -0.05553843 -0.71560144 0.33479732 0.038681336 0.16494538 0.3877651 0.22188205 0.30915895 -0.060170494 -0.3746116 -0.13371551 0.37497836 0.41077462 0.35057265 -0.10788205 0.45015562 0.50266445 -0.20744887 -0.20032378 0.1507296 -0.19883783 -0.23699008 0.2741772 -0.052126065 -0.004159684 0.23384954 -0.038787857 0.262369 0.3170676 -0.25001004 -0.29992104 0.16496524 0.083401985 0.08369325 0.25434965
ele -0.06624759 -0.4325586 -0.038671356 -0.35003787 0.22681049 0.20720963 -0.08566427 -0.08711156 0.69969165 -0.3056259 0.4129301 -0.06171592 0.01373486 0.0062114303 0.36458316 0.75977004 -0.006858634 -0.38830048 -0.5896724 -0.15373097 -0.06722268 -0.69283855 0.08861549 -0.53137314 -0.25586385 -0.1611191 0.19227771 0.12347889 -0.45977992 -0.52765006 0.104937345 -0.15096132 0.13932997 0.12341334 0.5444971 0.45754102 0.1599937 0.120285116 -0.5517376 -0.4909408 0.58454627 0.79012185 -0.27494442 -0.05974463 -0.21286641 0.89158845 -0.3954082 -0.34042737 -0.26123875 -0.03251869 0.03878442 -0.638966 -0.35327733 0.41649556 -0.21231365 0.011075824 -0.2182871 -0.19820474 0.28790677 -0.052814964 0.04931723 -0.2626 0.03839412 0.040927287 -0.06497598 -0.052022673 -0.5862774 0.28415048 0.048137262 0.12720737 0.32357866 0.190097 0.2583802 -0.05368695 -0.30751714 -0.11922304 0.29537767 0.33099937 0.29703376 -0.093837 0.38028854 0.42834795 -0.1556241 -0.16121653 0.121782504 -0.1709007 -0.19043747 0.24174727 -0.047254518 0.010816345 0.17200658 -0.039757404 0.23313327 0.26404136 -0.21413927 -0.24810757 0.1367296 0.05852858 0.04649144 0.2001454
por -0.06521666 -0.4982694 -0.051475603 -0.40010273 0.2689276 0.22226177 -0.08668344 -0.09683024 0.7677405 -0.35469854 0.4543466 -0.079272576 0.040785473 0.02033249 0.39887786 0.8403598 0.0049100337 -0.42748034 -0.6512799 -0.17304553 -0.068306535 -0.7812278 0.10673179 -0.60190177 -0.28370047 -0.18460704 0.22221409 0.127818 -0.5278343 -0.5900974 0.13763583 -0.16187057 0.175815 0.13200434 0.6232649 0.5240098 0.18660943 0.13429503 -0.6187397 -0.5629805 0.64524215 0.89291275 -0.3164543 -0.05933159 -0.24203226 1.0015769 -0.43547168 -0.37747374 -0.29765004 -0.04501997 0.032206412 -0.7276748 -0.3876427 0.4699585 -0.24479686 0.015011661 -0.24566533 -0.22646573 0.3307995 -0.050961807 0.05695988 -0.30003494 0.04300269 0.036656834 -0.07143047 -0.05718847 -0.6684791 0.3130542 0.048797663 0.15429379 0.36879286 0.20851234 0.28877333 -0.068926625 -0.34343672 -0.13049106 0.33721995 0.3863614 0.3381568 -0.11022837 0.43402967 0.47187212 -0.19100207 -0.18297665 0.13160238 -0.19422522 -0.20950478 0.2669522 -0.04930202 -0.0011285791 0.20760782 -0.03770667 0.26092327 0.30330393 -0.2249134 -0.282167 0.1560116 0.071821004 0.057831064 0.24050616
dos -0.06649771 -0.52354425 -0.05634953 -0.4029974 0.28573483 0.22579357 -0.10145382 -0.093435496 0.79609084 -0.37042707 0.47870257 -0.092825465 0.036366712 0.037377883 0.43126607 0.86920124 0.0063785575 -0.42999932 -0.67706 -0.16187029 -0.067842156 -0.810874 0.11325721 -0.6368834 -0.28953367 -0.19730029 0.23658097 0.11631563 -0.5685108 -0.5902282 0.13453625 -0.1648606 0.2046316 0.16110128 0.6476773 0.56143016 0.20187987 0.12661487 -0.62460214 -0.59237343 0.65234625 0.9259575 -0.33652493 -0.04006249 -0.23270161 1.0328585 -0.4573733 -0.3752043 -0.2860439 -0.038692262 0.018538047 -0.7695794 -0.40902853 0.4730451 -0.24717271 0.02355298 -0.26141188 -0.23086736 0.34482285 -0.037528973 0.058363657 -0.30824938 0.03932119 0.036899768 -0.07751651 -0.038954925 -0.70610183 0.3340433 0.046419207 0.16309246 0.38418412 0.22116347 0.294097 -0.057808626 -0.35512742 -0.13961722 0.37611216 0.4093565 0.3394825 -0.102918245 0.44939643 0.48023197 -0.20221259 -0.19633579 0.14845575 -0.19059856 -0.23081441 0.28612635 -0.0635483 0.01268674 0.24006046 -0.037667852 0.2661752 0.31600124 -0.22866993 -0.29588333 0.14973381 0.08281302 0.07664318 0.2693161
ao -0.060129255 -0.4909479 -0.046835136 -0.4036785 0.24956973 0.22224157 -0.07800429 -0.09555188 0.7711366 -0.34089127 0.4607898 -0.08315443 0.03157772 0.012498171 0.39214885 0.8378946 0.0006943027 -0.4093506 -0.6515762 -0.16589162 -0.073114425 -0.76270324 0.11395269 -0.5848596 -0.27557036 -0.16426815 0.20655987 0.12645595 -0.5163968 -0.57017964 0.122192554 -0.16255006 0.15357354 0.12933952 0.6083438 0.51236683 0.18864402 0.13230653 -0.60723907 -0.56633514 0.63858026 0.8730649 -0.30346712 -0.057811752 -0.23835677 0.98268604 -0.43507907 -0.36059025 -0.30001715 -0.032579537 0.028362555 -0.70819694 -0.39785704 0.4655766 -0.24070062 0.015028723 -0.24829723 -0.22757052 0.32615283 -0.0439858 0.06481149 -0.2914009 0.044558246 0.031386957 -0.082467034 -0.059831128 -0.65252566 0.31433198 0.04388286 0.14221604 0.36703172 0.20698933 0.28645265 -0.06811993 -0.3304496 -0.12056131 0.33045873 0.38164958 0.3283554 -0.10568586 0.42262924 0.47911203 -0.17981143 -0.17067368 0.13390356 -0.18742955 -0.21515723 0.26157898 -0.048171736 0.011674691 0.2073746 -0.037835553 0.25977358 0.28543156 -0.22555052 -0.2797275 0.14028223 0.06453868 0.06840441 0.24499892
como -0.0576852 -0.4315652 -0.04372097 -0.34567353 0.23301627 0.19922002 -0.08891471 -0.07662924 0.6788053 -0.307823 0.40269697 -0.078231916 0.02852907 0.009627076 0.36164686 0.74748415 0.0023205497 -0.37163377 -0.5747534 -0.15607324 -0.06287835 -0.6784418 0.09129699 -0.52280205 -0.24400753 -0.15436842 0.18485437 0.109789506 -0.45633888 -0.50233847 0.10886608 -0.14718558 0.14990257 0.1268849 0.54594225 0.45939034 0.15775082 0.11565231 -0.54073346 -0.4899515 0.55901295 0.7779899 -0.26751858 -0.053030513 -0.20450222 0.87113106 -0.37656346 -0.33417508 -0.2548086 -0.03649954 0.03477316 -0.63106686 -0.34471357 0.398554 -0.20777093 0.009420337 -0.22442432 -0.19879836 0.28863624 -0.041563425 0.04676345 -0.26432467 0.044994723 0.038733114 -0.07282847 -0.05319429 -0.58084756 0.27489105 0.042508427 0.1304565 0.32458535 0.18401875 0.26005372 -0.06032433 -0.30053473 -0.12103148 0.3009362 0.34158775 0.3007866 -0.09104834 0.38268185 0.4198727 -0.16652375 -0.17047827 0.11617469 -0.17782354 -0.18714726 0.24288768 -0.04578036 0.010434737 0.1773934 -0.03340491 0.22455873 0.25979877 -0.20362924 -0.24185677 0.12590274 0.06660036 0.043867312 0.21054544
à -0.06303755 -0.51653457 -0.06020358 -0.41234896 0.26686004 0.23701823 -0.087256186 -0.092620485 0.7929923 -0.3576167 0.4704695 -0.08307522 0.04055064 0.027010903 0.41530377 0.8762115 -0.0005704619 -0.44351447 -0.6742463 -0.16519937 -0.056831628 -0.80911654 0.11639829 -0.6312512 -0.29218438 -0.18939169 0.21541017 0.11608695 -0.56196696 -0.5913064 0.1397544 -0.16657558 0.1796848 0.1479778 0.63705784 0.5592431 0.20479046 0.1341698 -0.6299304 -0.5877522 0.6688556 0.92206967 -0.32744277 -0.06835109 -0.23637672 1.0414665 -0.46183583 -0.36802173 -0.30024698 -0.027711386 0.023724804 -0.7561938 -0.41167235 0.4824296 -0.251186 0.005829569 -0.25337556 -0.23594843 0.33861732 -0.03967618 0.06046874 -0.31153187 0.035126608 0.03253781 -0.085274585 -0.057747465 -0.69838065 0.33058354 0.034992896 0.16019166 0.37635994 0.20869291 0.29623517 -0.06607873 -0.35375553 -0.13321309 0.3569948 0.39242584 0.3559591 -0.11555751 0.43610612 0.4882022 -0.20114966 -0.18307966 0.13887735 -0.19576149 -0.23076303 0.26964045 -0.038938005 -0.00039078834 0.22914633 -0.040276118 0.2559766 0.3105724 -0.23201852 -0.2988294 0.16023232 0.08723999 0.085935 0.26455003
eu -0.07122439 -0.4504813 -0.04247277 -0.36807933 0.2343157 0.21770538 -0.093157694 -0.08015008 0.7166419 -0.31951842 0.42489365 -0.056360256 0.023287497 0.0026846516 0.38189793 0.79128206 -0.0068297377 -0.40473452 -0.59142834 -0.1624341 -0.07511123 -0.70088136 0.08535475 -0.54833484 -0.26583052 -0.1726592 0.21530838 0.11965054 -0.4581308 -0.53921765 0.11118293 -0.14713337 0.15389657 0.12280502 0.56244713 0.46108246 0.1607597 0.11923127 -0.56443727 -0.4887463 0.6004759 0.8122462 -0.28177747 -0.060722418 -0.22271122 0.918707 -0.40041155 -0.35684314 -0.2669614 -0.044627983 0.041936956 -0.670379 -0.36227283 0.43277907 -0.22076899 0.026710836 -0.23179764 -0.19323751 0.29734662 -0.053628374 0.059626494 -0.26912183 0.042141635 0.037274573 -0.055925768 -0.047346994 -0.61308694 0.28969374 0.055586185 0.12764162 0.32626426 0.21620084 0.27008694 -0.04935893 -0.31440836 -0.1346362 0.30628923 0.33913422 0.31291342 -0.10367562 0.40522704 0.43575734 -0.15418479 -0.1761466 0.13118069 -0.18463607 -0.20468952 0.24832688 -0.061074845 0.012534857 0.18505533 -0.038086575 0.24517126 0.26746514 -0.22376752 -0.2485026 0.1392364 0.061601203 0.041094992 0.20869236
mais -0.047056146 -0.44227645 -0.0473284 -0.3540845 0.22653024 0.20754594 -0.090129584 -0.07893968 0.67533016 -0.31278357 0.41097862 -0.075257376 0.035847798 0.009519136 0.37033328 0.7452912 -0.00084571773 -0.37957308 -0.58199126 -0.15685098 -0.07018002 -0.68285936 0.08574242 -0.5289187 -0.25237268 -0.15765046 0.19986692 0.1017438 -0.4535165 -0.50895333 0.11418909 -0.1493871 0.1438649 0.12282344 0.54911363 0.4668419 0.1676178 0.11309286 -0.54591715 -0.5002518 0.5720417 0.7889383 -0.27604 -0.044519827 -0.21101531 0.8881309 -0.3873589 -0.3285776 -0.254434 -0.032960936 0.037158284 -0.6420179 -0.353936 0.40566832 -0.20635363 0.01979002 -0.22349474 -0.19096442 0.29235083 -0.038461156 0.053655308 -0.262059 0.034061793 0.04192355 -0.06624257 -0.04292164 -0.59020585 0.2790538 0.032958463 0.12771346 0.3271109 0.19371709 0.26585755 -0.05621234 -0.31334257 -0.12436613 0.30738768 0.3361996 0.30296907 -0.10083348 0.38213697 0.42658585 -0.15900068 -0.16502352 0.13220245 -0.17565227 -0.19049369 0.23497099 -0.049067326 0.0003071722 0.19371365 -0.034140334 0.22196065 0.26198345 -0.2053094 -0.25413367 0.13980156 0.061355315 0.048858993 0.21395203
estava -0.057887446 -0.44324684 -0.04973898 -0.3479371 0.2299961 0.19476101 -0.08296086 -0.08636771 0.68959683 -0.30191532 0.4055891 -0.074457176 0.034559265 0.014768255 0.36037767 0.7510449 -0.0077757044 -0.3848582 -0.57341385 -0.14277494 -0.06996074 -0.69198984 0.09443429 -0.5340484 -0.25153014 -0.16166481 0.19448692 0.10475021 -0.46787614 -0.5157889 0.112745754 -0.14849533 0.14898112 0.11889183 0.54040265 0.47224188 0.15832408 0.10999444 -0.5497343 -0.49127635 0.5794343 0.7850734 -0.280671 -0.04842467 -0.20685948 0.88940567 -0.39872077 -0.330762 -0.26396453 -0.03565488 0.033939235 -0.643999 -0.3463161 0.4215368 -0.21521261 0.021248518 -0.21884876 -0.1974104 0.3003449 -0.046191804 0.058407407 -0.27238455 0.032615647 0.03972561 -0.06345103 -0.049221557 -0.5859783 0.27704772 0.036285255 0.13603656 0.32239372 0.1847163 0.2599037 -0.06191315 -0.3122695 -0.11986675 0.30497786 0.3395922 0.3006804 -0.091514856 0.3797287 0.42680284 -0.1645249 -0.1689849 0.13112079 -0.17169224 -0.18726142 0.23496889 -0.045879904 -0.0020476005 0.18479018 -0.036057737 0.22598256 0.2608143 -0.20979597 -0.25512394 0.1386758 0.062451724 0.06847448 0.2161636
lhe -0.060124844 -0.45920837 -0.044635605 -0.36151627 0.2416713 0.21608035 -0.084817186 -0.086039014 0.7076996 -0.32280618 0.42806056 -0.06826857 0.029674329 0.014959328 0.38217828 0.7795442 -0.004799336 -0.38902912 -0.5983201 -0.15850323 -0.06918305 -0.72018784 0.09855307 -0.55580175 -0.26306084 -0.15758827 0.20958608 0.11155929 -0.48587087 -0.5396271 0.114482395 -0.14954019 0.15104802 0.12770964 0.5738913 0.48794112 0.17045692 0.11723982 -0.57490915 -0.51741475 0.59407485 0.8227848 -0.2861106 -0.05345525 -0.21304022 0.92497456 -0.40929773 -0.34590024 -0.26531237 -0.03461747 0.029423453 -0.6612944 -0.3678927 0.42179468 -0.21843205 0.011855032 -0.23478602 -0.21231991 0.30471972 -0.04919901 0.054922756 -0.27579105 0.043012235 0.042731937 -0.068838544 -0.05264896 -0.61169636 0.2831095 0.04462964 0.13507818 0.34379774 0.19145253 0.26505455 -0.0595729 -0.3160504 -0.12261073 0.32218495 0.3579921 0.31362322 -0.09294825 0.39738774 0.4448252 -0.1649387 -0.17243946 0.13501897 -0.179132 -0.19944178 0.23927265 -0.05551038 -0.00066637236 0.19913507 -0.030440219 0.23039813 0.273108 -0.2176324 -0.2596584 0.13126011 0.069861464 0.05343959 0.21616006
hermione -0.049581133 -0.39795893 -0.032173403 -0.3278998 0.21238813 0.19768487 -0.07179962 -0.081505746 0.6323056 -0.2799782 0.37251788 -0.05872246 0.018889708 0.01095776 0.3311893 0.69218194 0.00277525 -0.34901765 -0.5453223 -0.1420663 -0.05930653 -0.64209723 0.087631665 -0.49288347 -0.23505983 -0.1347034 0.17306663 0.10748097 -0.42191896 -0.4834383 0.09619754 -0.1396823 0.12677571 0.109365955 0.5036158 0.42987728 0.1503964 0.10765872 -0.5122137 -0.4645705 0.5361985 0.7297069 -0.25038123 -0.05987973 -0.20094426 0.8233825 -0.36736465 -0.31102058 -0.24766377 -0.035735667 0.033796422 -0.58378243 -0.3263632 0.37730843 -0.19024558 0.014167347 -0.20152536 -0.18194875 0.27134025 -0.046932105 0.058497146 -0.24348693 0.036161333 0.028894778 -0.0637083 -0.045557674 -0.53998417 0.2580529 0.036488153 0.12706904 0.30817005 0.17379688 0.23799919 -0.056059483 -0.2706029 -0.10730146 0.2782234 0.30562845 0.27059668 -0.093494214 0.34041396 0.39720652 -0.1448126 -0.14747521 0.12103185 -0.15843296 -0.18598142 0.21871752 -0.037571136 0.013091176 0.15603065 -0.035321567 0.21275066 0.24215284 -0.20009837 -0.22607179 0.112028085 0.05229988 0.051902678 0.19163793
era -0.053739075 -0.43289423 -0.046463132 -0.34263235 0.2238979 0.20101374 -0.08630721 -0.08370294 0.6743152 -0.3105981 0.40445784 -0.06548963 0.028642 0.010879485 0.36310193 0.74148726 -0.0034014648 -0.37455627 -0.5635828 -0.15663084 -0.06915207 -0.666859 0.09304877 -0.5211165 -0.24150728 -0.15509377 0.1918331 0.1076 -0.45313346 -0.50655025 0.11930592 -0.14128636 0.14487232 0.12557252 0.5351099 0.45108083 0.15865214 0.107938595 -0.53117865 -0.48330024 0.56023616 0.7693863 -0.26119232 -0.05240472 -0.2071392 0.8652135 -0.3824825 -0.3280786 -0.25847507 -0.032071073 0.041677587 -0.63231766 -0.34397173 0.39782375 -0.20150632 0.018150464 -0.21317698 -0.1982636 0.2930362 -0.048536833 0.056899425 -0.2638521 0.04311806 0.039892398 -0.06158832 -0.043428063 -0.57481986 0.27530447 0.04373285 0.13318911 0.31557077 0.18148717 0.26215115 -0.055294342 -0.3026964 -0.1138238 0.30045536 0.32584706 0.29415438 -0.09437145 0.37042627 0.4100281 -0.15379879 -0.16510029 0.13075179 -0.17550306 -0.18045682 0.2264449 -0.045606226 0.0071291905 0.18204999 -0.03161648 0.21464841 0.25739187 -0.20266975 -0.24218702 0.13525143 0.059455194 0.057066526 0.20945105
quando -0.0564494 -0.4556483 -0.046438333 -0.37360147 0.23935841 0.21307898 -0.08545156 -0.09111303 0.7119316 -0.3172914 0.4312801 -0.07781303 0.027563397 0.010009048 0.37924445 0.78074646 -0.003003791 -0.39865586 -0.60612303 -0.15244529 -0.07177593 -0.72050583 0.102940276 -0.5581891 -0.2551425 -0.16269664 0.19733123 0.10799235 -0.48603576 -0.53242105 0.11886919 -0.15128313 0.15995301 0.13337152 0.5730876 0.49350268 0.17325036 0.113309786 -0.56874406 -0.52275854 0.6048511 0.8275026 -0.28639624 -0.057505716 -0.22100921 0.9206679 -0.40637624 -0.34819618 -0.2694914 -0.030710464 0.034948315 -0.674088 -0.36488208 0.4329124 -0.2226307 0.008566668 -0.22832747 -0.20899752 0.3141377 -0.04131279 0.052152567 -0.27836704 0.03527894 0.043028187 -0.06894344 -0.05193674 -0.613051 0.29846182 0.03658506 0.13904227 0.34340844 0.1905168 0.26753694 -0.061067645 -0.32228237 -0.12056955 0.32667845 0.35547876 0.3079446 -0.10063849 0.39328405 0.44758308 -0.17183644 -0.17746687 0.1324489 -0.18048923 -0.19519466 0.2522178 -0.040714692 0.00058644137 0.20143063 -0.03170859 0.24071914 0.27888528 -0.22140534 -0.2665089 0.13794544 0.06429667 0.05915735 0.22698675
me -0.061037883 -0.47280258 -0.05546991 -0.38468707 0.25241825 0.21947232 -0.10129301 -0.09593157 0.73917073 -0.33865 0.44444308 -0.068197526 0.031493336 0.008657044 0.40019152 0.8280695 -0.0071984865 -0.42436576 -0.6154917 -0.17039515 -0.08140269 -0.73509365 0.09858362 -0.57012695 -0.27266607 -0.17889264 0.22102427 0.12375519 -0.4944785 -0.5637419 0.12720418 -0.1611834 0.16437784 0.13446462 0.5937374 0.50027514 0.17370382 0.1183425 -0.5883552 -0.5178607 0.6193024 0.84957075 -0.29766908 -0.05577382 -0.22432174 0.96685076 -0.4236151 -0.3695909 -0.28261328 -0.043918677 0.04304674 -0.701407 -0.37405956 0.44651452 -0.2271076 0.022716062 -0.24736805 -0.21683323 0.32061967 -0.052537154 0.061671887 -0.2946472 0.040039208 0.048426505 -0.061373003 -0.058534686 -0.6462695 0.3004448 0.054984603 0.13874997 0.3468292 0.21619537 0.28553534 -0.051615614 -0.33566925 -0.13576582 0.3289433 0.36189055 0.32406965 -0.110281095 0.41171256 0.4526396 -0.17692542 -0.18388115 0.13184048 -0.19544737 -0.21342391 0.25649112 -0.061350986 0.014504611 0.19789022 -0.039450567 0.24431874 0.2781294 -0.21972717 -0.26804453 0.14917256 0.072576955 0.049025826 0.22534132
tinha -0.060159396 -0.47278365 -0.04421137 -0.38225257 0.25020778 0.21982172 -0.0910582 -0.09846099 0.7366752 -0.33089572 0.4432648 -0.07763194 0.03747014 0.017881034 0.39510643 0.8164426 0.0028822853 -0.40408596 -0.62909424 -0.16428068 -0.06504557 -0.746974 0.097520076 -0.5731535 -0.27219185 -0.16629174 0.21637021 0.1164101 -0.4980742 -0.5629146 0.1260088 -0.1614089 0.16987059 0.1363484 0.5979797 0.50804126 0.18353564 0.121767335 -0.5893961 -0.5416676 0.6241789 0.85789263 -0.29298756 -0.056881636 -0.22129644 0.9595799 -0.42318493 -0.35845533 -0.28415123 -0.029618239 0.037022874 -0.69524986 -0.38090816 0.44303754 -0.22383848 0.023145912 -0.24623725 -0.21375653 0.32617044 -0.046543434 0.051364888 -0.2898488 0.035431497 0.0446386 -0.07545005 -0.05718954 -0.64272183 0.3001179 0.044312347 0.14075947 0.34947002 0.20576954 0.28790835 -0.057177246 -0.3332536 -0.13089114 0.3282445 0.3687549 0.32291672 -0.1060247 0.41273364 0.46302474 -0.17827617 -0.18391076 0.14261657 -0.19385123 -0.2095625 0.25124198 -0.05628382 0.0027991072 0.20075904 -0.03716123 0.24170992 0.278904 -0.22093132 -0.2771165 0.14768456 0.065550186 0.057930864 0.23303747
foi -0.06340601 -0.42453602 -0.041470334 -0.34748822 0.22929436 0.20553614 -0.08353775 -0.08128474 0.6747307 -0.29940832 0.39826784 -0.070363395 0.030790154 0.0016776916 0.3573487 0.73867494 -0.004772935 -0.3691863 -0.5733036 -0.15075414 -0.069867164 -0.67123044 0.09489157 -0.5239573 -0.24074055 -0.15008989 0.1912074 0.11656413 -0.45058993 -0.51419854 0.10438061 -0.13941965 0.14829533 0.11846519 0.5348735 0.4567686 0.16144826 0.113286994 -0.53785336 -0.47819108 0.5648441 0.7665551 -0.2639753 -0.05937767 -0.20675954 0.86377835 -0.38472426 -0.32996872 -0.25718337 -0.033053413 0.042768274 -0.62960494 -0.3412777 0.40365136 -0.20517702 0.014070152 -0.21968415 -0.18870011 0.28185117 -0.047360823 0.05293419 -0.25912336 0.033934012 0.04370178 -0.06778993 -0.050285004 -0.5729409 0.26834282 0.04039327 0.12930046 0.31430823 0.1847774 0.25496173 -0.059426162 -0.29201823 -0.11788815 0.29500818 0.3308341 0.29522812 -0.087434664 0.37255242 0.41237906 -0.16213112 -0.16800216 0.13014923 -0.16850664 -0.18098766 0.22860996 -0.052735038 0.0098886695 0.17045693 -0.035747685 0.22421451 0.24996538 -0.20902216 -0.24600591 0.133795 0.064070135 0.06304347 0.20120046
lockhart -0.051893774 -0.44010305 -0.03574063 -0.34938177 0.23764344 0.21150438 -0.08190997 -0.08598105 0.69587135 -0.31070295 0.41316915 -0.07932567 0.036954332 0.0059101195 0.36467177 0.7610778 -0.007451628 -0.38596755 -0.5905925 -0.15039052 -0.06408458 -0.6947844 0.10277631 -0.5380896 -0.24553214 -0.15652812 0.19993 0.109570354 -0.46881253 -0.52069503 0.1191772 -0.13697353 0.14258786 0.12088955 0.5492379 0.46294284 0.17367353 0.11998141 -0.55244404 -0.4950418 0.56999636 0.7908653 -0.26846915 -0.05612183 -0.20539717 0.8947129 -0.3845803 -0.3323286 -0.26616457 -0.037084762 0.032716982 -0.6427036 -0.35702357 0.41038978 -0.21267292 0.005934819 -0.22759137 -0.19477624 0.29044476 -0.043600667 0.05282619 -0.26831374 0.04451606 0.036057323 -0.06465828 -0.05251937 -0.5937742 0.2762333 0.03500304 0.13124166 0.31919467 0.18699616 0.2589192 -0.06349211 -0.30197898 -0.1157884 0.30445018 0.344704 0.29080176 -0.09691308 0.3767892 0.41966075 -0.15718728 -0.15857266 0.12581405 -0.17439632 -0.19686328 0.23254822 -0.05045656 0.008756287 0.1822904 -0.026644154 0.22232322 0.26881206 -0.21547866 -0.2543029 0.13206609 0.060883284 0.05375868 0.22125705
malfoy -0.059411135 -0.44870758 -0.039045263 -0.3588541 0.2437962 0.21871787 -0.07806318 -0.07686417 0.70390254 -0.3244716 0.43788156 -0.079045705 0.0342633 0.018746886 0.36285847 0.77274436 0.0065217195 -0.3954738 -0.6046081 -0.16016352 -0.063345715 -0.70254445 0.09611728 -0.5381731 -0.258642 -0.17135257 0.20049301 0.13293086 -0.46921968 -0.5403974 0.11431711 -0.14983852 0.14769734 0.12824337 0.56802696 0.47600988 0.17046632 0.10915136 -0.5678229 -0.49554542 0.5955821 0.82625276 -0.2782731 -0.056304898 -0.22025563 0.91403323 -0.3999164 -0.34991604 -0.2725675 -0.029404335 0.037640747 -0.66473967 -0.3666222 0.43028167 -0.2213241 0.006805457 -0.21788085 -0.22181922 0.30509138 -0.02907831 0.061066054 -0.28403178 0.04865089 0.030168371 -0.083828025 -0.045798317 -0.5899497 0.29955503 0.03705413 0.12939124 0.33359033 0.18779877 0.25643086 -0.058467455 -0.30904123 -0.12302245 0.31231332 0.36314082 0.29963997 -0.09506262 0.39846158 0.43544504 -0.16785845 -0.1757403 0.13567215 -0.16789067 -0.18854356 0.2322556 -0.056339893 0.0037205336 0.19413681 -0.031124823 0.22715132 0.26548576 -0.20954016 -0.2602768 0.13342343 0.053795923 0.060738984 0.22013266
bem -0.053590737 -0.43158883 -0.036125954 -0.3511393 0.22495939 0.20293409 -0.090965874 -0.08615832 0.69180024 -0.31280714 0.4171375 -0.062173247 0.015774727 0.009958326 0.36018622 0.7616379 -0.004521209 -0.39337796 -0.5782674 -0.16048418 -0.07345608 -0.6737787 0.08924734 -0.52405626 -0.25918725 -0.16582781 0.19899292 0.12223018 -0.4503203 -0.5185997 0.11511324 -0.14269556 0.15106049 0.12959664 0.53816795 0.4541786 0.16303891 0.11392293 -0.5510742 -0.48364684 0.5698735 0.78820986 -0.2777368 -0.049653485 -0.21205394 0.8781593 -0.38292232 -0.3301216 -0.25043008 -0.04221571 0.036877062 -0.64360243 -0.33960065 0.40446404 -0.2171088 0.025952704 -0.21159638 -0.19283117 0.29053643 -0.047675543 0.048927248 -0.2575816 0.03230027 0.045801874 -0.068005025 -0.053510234 -0.59839606 0.27832 0.05331898 0.13171412 0.3267961 0.2016315 0.2575299 -0.04891887 -0.30519217 -0.12685046 0.29761553 0.33016294 0.29204378 -0.09513446 0.37968373 0.42321128 -0.15692914 -0.16029489 0.117200635 -0.17179582 -0.19606948 0.236027 -0.041808367 0.00936402 0.16872233 -0.02942782 0.22710954 0.26182005 -0.20462966 -0.24416977 0.1395963 0.06693184 0.05541777 0.20296647
ter -0.05537359 -0.48786512 -0.047089525 -0.39880255 0.26293242 0.22420782 -0.09934177 -0.104952544 0.77194107 -0.3514087 0.4594615 -0.08496926 0.023842147 0.020153508 0.406347 0.84444344 0.000913349 -0.42683765 -0.64059037 -0.1703176 -0.06919331 -0.76692814 0.10510969 -0.593851 -0.27909106 -0.18213636 0.23023723 0.12445032 -0.51144284 -0.5707194 0.12853304 -0.16194546 0.17144716 0.13556415 0.6117956 0.5181271 0.1895919 0.120345585 -0.61060184 -0.5596356 0.64430964 0.88758296 -0.31479016 -0.054329228 -0.23606567 0.99145824 -0.44299766 -0.36166328 -0.29305968 -0.03679268 0.03532688 -0.7228747 -0.39389226 0.45595738 -0.23337166 0.020540971 -0.2498511 -0.2297079 0.32460603 -0.055453967 0.050449304 -0.30755562 0.041661404 0.051091116 -0.06824264 -0.058744226 -0.66259193 0.31394672 0.045427315 0.14298676 0.36163247 0.21979082 0.29501438 -0.049854767 -0.34406596 -0.13192299 0.3477649 0.38658863 0.333557 -0.11234943 0.4343731 0.47502226 -0.18148705 -0.18315746 0.14274469 -0.20293085 -0.22163318 0.26835918 -0.06182864 0.004162274 0.21316428 -0.03287898 0.24712034 0.2905422 -0.22927548 -0.27757356 0.15927893 0.076334566 0.056736786 0.24926844
te -0.06346063 -0.44040334 -0.04345846 -0.36407405 0.23513381 0.21455279 -0.08477469 -0.087526016 0.70343345 -0.3234821 0.42576632 -0.066514865 0.025830686 0.0068466836 0.38032305 0.7822846 -0.0072565526 -0.3936297 -0.5913508 -0.165105 -0.06736616 -0.7038942 0.0952623 -0.53736234 -0.26480407 -0.16802895 0.20300965 0.12674433 -0.45620906 -0.5371786 0.11635389 -0.1545904 0.1497799 0.12368697 0.55892676 0.47059858 0.16914997 0.11832923 -0.55727166 -0.49880326 0.5897355 0.8030762 -0.27412662 -0.060084797 -0.21348047 0.9155765 -0.3980342 -0.3440915 -0.2623624 -0.040827192 0.044753157 -0.6618381 -0.35808605 0.42917332 -0.21223238 0.025792528 -0.231332 -0.2034505 0.30073223 -0.050638728 0.058917567 -0.26971257 0.034524936 0.04104127 -0.061202608 -0.04867337 -0.6116175 0.28628853 0.049376592 0.12581411 0.33102325 0.19855215 0.2708272 -0.05636436 -0.31922472 -0.12038921 0.30267707 0.3495933 0.3041503 -0.09451376 0.38931257 0.429306 -0.166737 -0.16833787 0.120502934 -0.18558778 -0.19788924 0.23923111 -0.05541191 0.00851553 0.1909513 -0.03994671 0.2348316 0.273134 -0.2145427 -0.25110444 0.14039677 0.062039662 0.05423862 0.21050456
muito -0.06187769 -0.4557719 -0.036958348 -0.3654931 0.23807983 0.21054375 -0.08487121 -0.0921895 0.7162241 -0.32279798 0.43751392 -0.076660514 0.019146502 0.009542792 0.37971494 0.7862096 -0.005353339 -0.40024495 -0.60857767 -0.16219155 -0.07230663 -0.71618545 0.10053646 -0.5543117 -0.26251903 -0.17140551 0.21334803 0.115954116 -0.4775204 -0.54275763 0.11377963 -0.14847457 0.15197724 0.12976687 0.5700049 0.4872924 0.16382398 0.11962467 -0.57188493 -0.51841664 0.59370846 0.82120526 -0.29382202 -0.05389241 -0.21600522 0.9318041 -0.41069287 -0.34214857 -0.27283156 -0.035647295 0.04522745 -0.6801641 -0.35674053 0.4255547 -0.22218294 0.019094795 -0.22754279 -0.20968197 0.30326304 -0.047656797 0.05853291 -0.27754185 0.04327656 0.036957115 -0.06538047 -0.046428848 -0.6159804 0.29933178 0.040145062 0.13215736 0.3371642 0.20670134 0.27095154 -0.050127026 -0.32440108 -0.1262919 0.31639057 0.35154337 0.3151756 -0.10267748 0.40112376 0.44626933 -0.1673939 -0.16615458 0.12464508 -0.18964715 -0.20380737 0.23956707 -0.050075855 0.0026129938 0.19122517 -0.030315097 0.2423648 0.2789418 -0.22514357 -0.2665087 0.14130774 0.06413632 0.06273055 0.2212951
das -0.050685376 -0.5343111 -0.059332535 -0.42688087 0.2811781 0.25222 -0.09682175 -0.09796816 0.83093876 -0.38426992 0.49432 -0.09012913 0.040084545 0.02167517 0.44383943 0.91652685 -0.00053641427 -0.4575323 -0.70028126 -0.18343581 -0.06718336 -0.83211017 0.11938902 -0.6543716 -0.30047533 -0.19056463 0.24492413 0.11903301 -0.57255626 -0.6246942 0.14266852 -0.17058037 0.19124009 0.14975546 0.67341006 0.58153236 0.20693818 0.14029735 -0.6666175 -0.6136662 0.69135845 0.9683545 -0.3457595 -0.056659233 -0.25012127 1.0830353 -0.4829242 -0.3947704 -0.31578684 -0.044126566 0.030657835 -0.7874325 -0.42143226 0.49550858 -0.25999355 0.019949453 -0.2724613 -0.25412807 0.35989726 -0.04216963 0.06633687 -0.3318539 0.039816264 0.04704566 -0.09057454 -0.04895227 -0.72489434 0.34136343 0.041175913 0.16546343 0.4032185 0.220741 0.31163505 -0.06749708 -0.384244 -0.14000848 0.38298064 0.4192708 0.36672416 -0.12275643 0.46136966 0.5121311 -0.2079082 -0.20176645 0.1486775 -0.20710647 -0.23598227 0.2889509 -0.050368503 0.0027966462 0.23274998 -0.04076739 0.26709482 0.32635897 -0.24186397 -0.31696227 0.15780182 0.08001537 0.06897132 0.27752337
weasley -0.05325083 -0.4283096 -0.035914756 -0.36574626 0.2602276 0.21928667 -0.09311736 -0.07119858 0.7105981 -0.33062524 0.44857007 -0.08955601 0.042567104 0.035491064 0.36434984 0.75854003 0.02075462 -0.40179706 -0.58315796 -0.1469023 -0.066355206 -0.6844485 0.10919004 -0.52278495 -0.26519176 -0.17841974 0.19353299 0.14271076 -0.48042467 -0.5538046 0.11314738 -0.1538942 0.16458885 0.115859576 0.5731044 0.47446564 0.15647501 0.10778873 -0.5673315 -0.49594155 0.56903523 0.82321566 -0.2733596 -0.042322293 -0.20918588 0.9128221 -0.40217397 -0.34462294 -0.25390103 -0.01787417 0.032751765 -0.6779534 -0.35653198 0.42671812 -0.21432981 0.012576221 -0.21521704 -0.24207194 0.2973334 -0.01883337 0.04470105 -0.2735525 0.0415801 0.0356616 -0.08957681 -0.037804652 -0.60448277 0.30589294 0.052981872 0.13723628 0.33483568 0.18082997 0.24871689 -0.05215273 -0.30963978 -0.13236456 0.33026412 0.37640488 0.2919519 -0.093440145 0.39593926 0.43086985 -0.16221882 -0.16607209 0.14443868 -0.16990857 -0.18147224 0.21415749 -0.034807686 0.0070331036 0.19876708 -0.019640572 0.20981704 0.2648715 -0.19501528 -0.25208396 0.14292358 0.05253213 0.06624631 0.2409058
olhos -0.045088742 -0.40334973 -0.048034925 -0.3267482 0.22176193 0.1700547 -0.08525704 -0.091025755 0.62526745 -0.3033612 0.37239286 -0.09429391 0.042813163 0.01690404 0.3434026 0.69635147 0.011435918 -0.3531505 -0.53667873 -0.14831384 -0.044514537 -0.648869 0.08143748 -0.5043055 -0.23104285 -0.13888638 0.17623486 0.09406503 -0.4418601 -0.49235985 0.10691567 -0.14421426 0.1485721 0.12659405 0.51909167 0.44222632 0.17403507 0.08930334 -0.51839805 -0.49056545 0.52235746 0.73373145 -0.25476372 -0.029372176 -0.19237606 0.8338823 -0.374375 -0.29203558 -0.23065661 -0.034048826 0.011725041 -0.6051391 -0.333788 0.36937028 -0.20091198 -0.0016954056 -0.19963148 -0.21296982 0.26892346 -0.04688097 0.0469961 -0.24919057 0.04066215 0.044205517 -0.074046195 -0.04452699 -0.57134867 0.246892 0.0426465 0.13922243 0.29677835 0.17618066 0.24429959 -0.06490184 -0.29330003 -0.10353495 0.30987558 0.33541355 0.27144712 -0.09690907 0.3478804 0.41083762 -0.1529072 -0.14603014 0.12090785 -0.16495813 -0.17240024 0.2121987 -0.052339833 0.016585281 0.1805705 -0.015083493 0.20825593 0.25410223 -0.18486638 -0.23267862 0.119209185 0.06587292 0.045281827 0.20155625
nos -0.06287326 -0.49577558 -0.04894449 -0.40398863 0.26095435 0.22601628 -0.098017156 -0.09860737 0.7665131 -0.3467153 0.46319985 -0.085541636 0.028807145 0.021515839 0.407466 0.84942347 -0.0060737655 -0.42508492 -0.64533323 -0.16609138 -0.07657909 -0.7759407 0.10692098 -0.5985373 -0.2828405 -0.1769629 0.2204102 0.12556046 -0.5281898 -0.589094 0.12933159 -0.16009907 0.16760883 0.14403725 0.61652654 0.5257775 0.19212562 0.12388575 -0.6110789 -0.562804 0.6450576 0.890459 -0.3152123 -0.05170834 -0.2399265 1.0003979 -0.43994558 -0.37417075 -0.2894862 -0.037617672 0.033556037 -0.72456694 -0.39560908 0.46052843 -0.23463553 0.02182599 -0.24808526 -0.22959985 0.34022447 -0.04699471 0.058610003 -0.29897007 0.045617335 0.04540642 -0.07369145 -0.05475749 -0.6640375 0.3147165 0.04144406 0.15410952 0.36645675 0.21094385 0.28915396 -0.057099268 -0.3507889 -0.13358039 0.35283127 0.38831115 0.33565223 -0.111034825 0.43292713 0.48158896 -0.1855529 -0.1813454 0.1344589 -0.19714902 -0.22538002 0.2706693 -0.060088754 0.008113051 0.21753655 -0.036276877 0.24864063 0.29877195 -0.23207098 -0.28516975 0.14958285 0.06862239 0.060354136 0.248895
perguntou -0.06739067 -0.4017078 -0.032564096 -0.3315552 0.20716308 0.18712306 -0.06720927 -0.07360788 0.6364581 -0.2819051 0.37578058 -0.062360607 0.020888833 0.0003720982 0.32340932 0.6903671 0.0058810515 -0.34350324 -0.52841395 -0.14012915 -0.06033823 -0.6241149 0.09153907 -0.48389286 -0.22306682 -0.14743863 0.17698501 0.12290971 -0.39997262 -0.48204628 0.09850164 -0.13144872 0.12314838 0.10906344 0.508576 0.4162133 0.14707105 0.1060244 -0.50075644 -0.432935 0.52626127 0.7250317 -0.24139702 -0.05496508 -0.19792308 0.8110206 -0.34788054 -0.3047805 -0.23350729 -0.041390102 0.03483246 -0.5850113 -0.3289012 0.36991543 -0.18906763 0.021371743 -0.20676592 -0.1826329 0.26720145 -0.04898687 0.0529315 -0.24762653 0.028891379 0.040875584 -0.05905077 -0.048309114 -0.5324449 0.2520093 0.046617795 0.13123997 0.3032934 0.17983311 0.2410071 -0.052040476 -0.27062014 -0.10524398 0.2746955 0.30490884 0.2702077 -0.08094274 0.3526875 0.38943052 -0.14967392 -0.15486945 0.11999519 -0.15295796 -0.17984845 0.2091187 -0.050535105 0.009120077 0.15118046 -0.041871943 0.20526025 0.2375008 -0.19689482 -0.23296843 0.113967605 0.051325995 0.046369895 0.18335204
enquanto -0.060066354 -0.44709373 -0.04651242 -0.36792964 0.2417227 0.20349588 -0.07568218 -0.07954565 0.69410324 -0.31644997 0.42458892 -0.074156865 0.032765113 0.005998608 0.36031488 0.7684311 0.0005055592 -0.3788722 -0.5976228 -0.15107207 -0.059201468 -0.7065287 0.10667216 -0.5454478 -0.25579557 -0.15888086 0.1960445 0.11625333 -0.46538034 -0.52325964 0.11336724 -0.14429705 0.1539219 0.13349877 0.5600021 0.4836264 0.17460391 0.11709268 -0.5549134 -0.50445205 0.5834571 0.80575037 -0.27726024 -0.058734734 -0.2153428 0.9011676 -0.39259055 -0.33443907 -0.26140612 -0.03380931 0.035448104 -0.6562282 -0.3643426 0.4145188 -0.20873038 0.012818686 -0.22321399 -0.2115429 0.29466116 -0.048752468 0.048000563 -0.26712212 0.03229375 0.043413337 -0.07156215 -0.04801933 -0.60261357 0.28988045 0.03437185 0.14686376 0.3399713 0.1873532 0.27133352 -0.062097747 -0.31431916 -0.112491764 0.31301475 0.34949937 0.30503425 -0.100559674 0.38475078 0.43547317 -0.17173682 -0.17025444 0.12399886 -0.17455058 -0.2010407 0.2335591 -0.0479698 0.0048416043 0.1915024 -0.0364162 0.22541007 0.26294896 -0.20986329 -0.25446662 0.12683563 0.057979718 0.06584919 0.21826056
sem -0.054443754 -0.51389253 -0.04755204 -0.41265732 0.28169078 0.24017857 -0.0877768 -0.098661534 0.8028083 -0.3622099 0.48378557 -0.074106745 0.021010531 0.003933604 0.4208386 0.87481135 0.0005541461 -0.45207867 -0.67218304 -0.18246432 -0.07218413 -0.7908857 0.09836871 -0.61231446 -0.295048 -0.1850891 0.23135667 0.13046128 -0.5485932 -0.6083496 0.13510948 -0.16298155 0.16945301 0.15508269 0.63355297 0.55263096 0.19811146 0.13250132 -0.63738775 -0.5763413 0.6642151 0.9237068 -0.3134491 -0.05804378 -0.23645413 1.0327505 -0.4636368 -0.38582364 -0.31236985 -0.028493626 0.042769406 -0.7553307 -0.40373582 0.48536316 -0.24160735 0.017207453 -0.2512967 -0.24202427 0.3445533 -0.060005613 0.06003012 -0.31562957 0.04952548 0.040079776 -0.07836503 -0.05045132 -0.694092 0.3316687 0.04783787 0.15412113 0.38877517 0.22186713 0.29204178 -0.060505394 -0.3570885 -0.13080288 0.36718893 0.39177632 0.34030262 -0.11763767 0.44300807 0.49432367 -0.18129511 -0.20042484 0.14151919 -0.19227672 -0.24184787 0.27448478 -0.050372977 0.007866626 0.2090616 -0.046843324 0.25483018 0.30184606 -0.24886125 -0.30369568 0.1513321 0.06687261 0.06331476 0.23760507
até -0.058889423 -0.4696024 -0.040370274 -0.36377022 0.24582809 0.21366903 -0.088997066 -0.09227395 0.7184238 -0.32986024 0.42247012 -0.07796493 0.029367251 0.015835017 0.37189364 0.7863187 -0.008839821 -0.39295158 -0.6077525 -0.14818636 -0.07086448 -0.71294916 0.108695395 -0.5548425 -0.2554573 -0.16382277 0.19835363 0.11457489 -0.49159908 -0.5286807 0.11150947 -0.15521468 0.16833521 0.12713294 0.5654373 0.48522905 0.17461367 0.11359372 -0.56628317 -0.5175863 0.6076005 0.8193495 -0.2890127 -0.06183925 -0.22075124 0.92360455 -0.40779924 -0.34126303 -0.27847084 -0.028515618 0.031048473 -0.67179203 -0.36103547 0.43926316 -0.21672373 0.022140319 -0.22763276 -0.20530851 0.30896914 -0.039233163 0.05277239 -0.2798104 0.027579574 0.03728186 -0.078381464 -0.05075577 -0.61846095 0.29218498 0.04084141 0.14508855 0.33385253 0.1900519 0.27079645 -0.052337673 -0.32648656 -0.1265078 0.3244441 0.36046678 0.31024915 -0.10860085 0.39943594 0.44244483 -0.17419326 -0.16732398 0.123890735 -0.17392565 -0.19493721 0.24712303 -0.05450035 0.004549552 0.19766027 -0.036090955 0.23968667 0.26952028 -0.22103746 -0.25697044 0.14403301 0.072272226 0.05877638 0.2292882
ela -0.05524407 -0.41911525 -0.039637156 -0.34516963 0.219059 0.20294093 -0.08442417 -0.086610585 0.6689357 -0.30396232 0.4022271 -0.058815602 0.019873643 0.0026415195 0.34808314 0.7307769 -0.0065005673 -0.3716125 -0.5641604 -0.15103555 -0.06545868 -0.6582702 0.08806685 -0.51555055 -0.24415945 -0.15503556 0.19050747 0.11456179 -0.43920004 -0.5012179 0.11004868 -0.13594472 0.14208193 0.12547001 0.5307402 0.4443607 0.1509787 0.11424515 -0.5347722 -0.4767253 0.55308527 0.7685472 -0.26930937 -0.05079466 -0.19917189 0.86290175 -0.37329015 -0.33001298 -0.25386304 -0.039112072 0.037565514 -0.62717783 -0.33651665 0.40106252 -0.20654438 0.010802076 -0.20879692 -0.1903918 0.28761032 -0.049579173 0.04969691 -0.25767252 0.034927055 0.04238469 -0.060159832 -0.044192865 -0.571175 0.26819858 0.038306605 0.12981978 0.3161225 0.1869032 0.25431788 -0.051212624 -0.29711357 -0.10999992 0.29518768 0.3288102 0.29103893 -0.09841461 0.37038797 0.41629717 -0.14832133 -0.15882608 0.11630533 -0.16588475 -0.1850865 0.2279753 -0.04466058 0.012375892 0.1712233 -0.035891775 0.2238159 0.24586058 -0.20089628 -0.23634821 0.13112552 0.062377352 0.050278284 0.20381342
ser -0.052903734 -0.4486784 -0.05197968 -0.35803452 0.24047258 0.21523137 -0.0885564 -0.096863 0.70934004 -0.32495272 0.4207018 -0.0659788 0.022787208 0.016625216 0.37869635 0.77510285 -0.002754118 -0.3946618 -0.5933347 -0.15360059 -0.064074695 -0.7041161 0.09215225 -0.5411255 -0.25149217 -0.1681517 0.20452538 0.10969827 -0.46576017 -0.5297783 0.12065083 -0.14728016 0.15948443 0.1286332 0.55479527 0.4683867 0.17190416 0.119933106 -0.55714285 -0.51177925 0.5937557 0.8062534 -0.27999884 -0.050126057 -0.2088652 0.91061306 -0.40808222 -0.3411336 -0.26567507 -0.033722065 0.039645273 -0.66948617 -0.35494468 0.42659572 -0.2221334 0.022953385 -0.23019421 -0.21214971 0.30000004 -0.05057518 0.054069538 -0.28088218 0.031899463 0.04596036 -0.07074362 -0.045045566 -0.6135399 0.28362098 0.049197715 0.12940158 0.3358063 0.20526887 0.26468912 -0.046018127 -0.31778413 -0.12590137 0.31878325 0.34945053 0.30758402 -0.09183087 0.3923911 0.4361242 -0.16028538 -0.16937537 0.122444846 -0.18329838 -0.20445813 0.23560922 -0.053943347 -0.0011847412 0.18613373 -0.03189709 0.23578854 0.2732944 -0.21606609 -0.25842828 0.14308144 0.06941628 0.06006143 0.22710818
seu -0.05297238 -0.4226045 -0.039806344 -0.34155965 0.22645408 0.20039378 -0.0789692 -0.078712694 0.66536963 -0.29984125 0.39060175 -0.06874428 0.0222749 0.0150903305 0.35103247 0.72144806 0.0032236998 -0.36664364 -0.56577003 -0.13751864 -0.062110975 -0.67114264 0.08926368 -0.5242269 -0.23725134 -0.1371036 0.18811207 0.10631788 -0.44170168 -0.50463307 0.116518654 -0.13999936 0.13073665 0.12145808 0.5315765 0.44308734 0.16525805 0.106841795 -0.52416736 -0.4813303 0.56248254 0.7654811 -0.25985253 -0.054986253 -0.20207128 0.8446048 -0.37427783 -0.31768546 -0.25589654 -0.032536812 0.03922235 -0.61621094 -0.339853 0.39564183 -0.21033122 0.010118043 -0.20570934 -0.1883922 0.28462005 -0.049533818 0.0587097 -0.25975043 0.0283384 0.0382495 -0.07207343 -0.055343237 -0.55581903 0.26555482 0.029027116 0.12829648 0.31327423 0.1813292 0.25207165 -0.0607312 -0.29866743 -0.116084196 0.29352018 0.32248977 0.27860954 -0.089605376 0.36896738 0.411975 -0.14752202 -0.15845996 0.124523684 -0.169419 -0.19014566 0.22482637 -0.041475844 0.0050402004 0.18176389 -0.040049337 0.21883431 0.2509108 -0.20672755 -0.24258971 0.12215288 0.062683 0.057824366 0.21576552
cabeça -0.031295873 -0.38833922 -0.042132806 -0.30431423 0.20952892 0.1774946 -0.06817194 -0.07577039 0.5979295 -0.26867828 0.35717002 -0.05678447 0.020963376 0.017360972 0.30285802 0.6364759 -0.008535063 -0.3267459 -0.50477177 -0.13006453 -0.04124896 -0.5830505 0.078583054 -0.46447143 -0.20421648 -0.13757429 0.17211314 0.0827348 -0.40257174 -0.4366782 0.10861314 -0.13364448 0.13472356 0.10672899 0.46376085 0.40424827 0.14045323 0.096809216 -0.4781652 -0.43115476 0.49576923 0.68379563 -0.2363468 -0.04422211 -0.16830364 0.7601835 -0.34954506 -0.2758027 -0.23243316 -0.03054976 0.03352813 -0.56598556 -0.3052433 0.34852076 -0.18138134 0.01812831 -0.18194033 -0.18247162 0.26421797 -0.044963524 0.053094413 -0.23655161 0.030680073 0.028017065 -0.05122513 -0.048296265 -0.51344347 0.2477586 0.03169485 0.11863752 0.28791106 0.16134143 0.2222699 -0.053854335 -0.2516936 -0.094159886 0.26753187 0.29545584 0.2482917 -0.08654062 0.31750593 0.3701628 -0.14174466 -0.13948062 0.10670114 -0.13981035 -0.17942512 0.19689165 -0.042501163 0.005495482 0.1545325 -0.03387387 0.1868639 0.21500643 -0.17846984 -0.21558052 0.110845685 0.06390502 0.06494198 0.17821768
fazer -0.046280365 -0.37683234 -0.031180726 -0.29919162 0.19179125 0.17560826 -0.07092739 -0.071667835 0.59525484 -0.27377358 0.3554587 -0.05517186 0.011435488 0.0056082085 0.31617406 0.6435534 -0.0054769884 -0.33586493 -0.49623504 -0.13435735 -0.0541572 -0.5905627 0.0782611 -0.4513333 -0.21043861 -0.13960794 0.17407084 0.10594736 -0.3799955 -0.4444449 0.097782105 -0.13322592 0.12895176 0.11094275 0.47100952 0.39529845 0.14327711 0.10294224 -0.47211176 -0.41634244 0.49420595 0.67838454 -0.23777133 -0.048483603 -0.18055072 0.75433356 -0.33464018 -0.2871235 -0.22429927 -0.03295626 0.04009277 -0.5574635 -0.3028681 0.3501266 -0.18481195 0.02467252 -0.18388611 -0.17430931 0.2467002 -0.038970783 0.04014802 -0.23455885 0.029775651 0.039002903 -0.054754987 -0.048942372 -0.505451 0.23266895 0.03948893 0.11476527 0.2751969 0.17088032 0.22617202 -0.038850702 -0.26028344 -0.107420206 0.26261434 0.28295767 0.2500505 -0.08803015 0.3214072 0.3603904 -0.13814403 -0.14219779 0.10595799 -0.14916752 -0.16525583 0.19779892 -0.045002844 0.010533922 0.15666856 -0.031326246 0.19309516 0.22062632 -0.17571814 -0.21133366 0.11488404 0.053900965 0.045059726 0.17396517
sobre -0.049989056 -0.45771357 -0.050372843 -0.3687923 0.24454711 0.20368952 -0.08546269 -0.08461162 0.7134123 -0.32818165 0.43051735 -0.07622847 0.03607269 0.010497876 0.37988734 0.78069305 -0.0046444014 -0.3959169 -0.6048913 -0.15999654 -0.059656534 -0.71554357 0.09352981 -0.5518795 -0.2586911 -0.16366908 0.19855179 0.09911687 -0.48945332 -0.5306266 0.12753738 -0.14441676 0.15729009 0.13622713 0.5756073 0.4960495 0.17756541 0.11416 -0.5632201 -0.51405406 0.58981246 0.8244677 -0.29200143 -0.053596992 -0.21494842 0.9149084 -0.40387258 -0.33738676 -0.26927066 -0.034983363 0.038261235 -0.6751614 -0.359217 0.42198366 -0.21606623 0.014845975 -0.23239216 -0.2126399 0.31113485 -0.048503883 0.054476645 -0.28329766 0.03638865 0.040809672 -0.072307006 -0.050191782 -0.6119059 0.28690127 0.039987084 0.14583589 0.33773068 0.19720377 0.2692237 -0.06408147 -0.32532588 -0.11813093 0.31936297 0.35612553 0.3127297 -0.09337871 0.38777778 0.44290978 -0.17437741 -0.1770164 0.13552573 -0.17607112 -0.19551247 0.23902813 -0.05008351 0.004999425 0.19537269 -0.035835765 0.23128119 0.27265894 -0.21162196 -0.25685906 0.14063334 0.06920328 0.059663292 0.22025387
coisa -0.049876567 -0.4084814 -0.047940902 -0.32632828 0.21380368 0.18374759 -0.07879308 -0.0764417 0.64189285 -0.28837922 0.3781236 -0.06209057 0.026655147 0.012341264 0.3497736 0.70103276 -0.00922235 -0.36677665 -0.5373525 -0.13776149 -0.070550576 -0.6370732 0.08703377 -0.4989892 -0.24203445 -0.15550849 0.19001274 0.0961429 -0.42881483 -0.49121657 0.102079384 -0.1267914 0.147228 0.11006656 0.51422954 0.44086942 0.1454054 0.10666193 -0.5200598 -0.454448 0.53493476 0.7373277 -0.26518276 -0.05667246 -0.20244685 0.8356394 -0.35944828 -0.32324785 -0.24895665 -0.031694815 0.03484653 -0.6089891 -0.32351997 0.3806655 -0.18658717 0.01216791 -0.21674527 -0.18929721 0.26987106 -0.04064231 0.044965357 -0.25657135 0.03876196 0.042672057 -0.057410393 -0.049790133 -0.5613999 0.2530973 0.033717293 0.1192727 0.30185404 0.18201369 0.25053307 -0.043347307 -0.2938295 -0.10939064 0.27994773 0.31468436 0.28540823 -0.09784378 0.3583825 0.3925421 -0.1496615 -0.15038207 0.11216744 -0.15788879 -0.1770553 0.22257873 -0.04084508 0.009556487 0.16918308 -0.029049488 0.21455681 0.24805515 -0.19750756 -0.23390977 0.11916451 0.054923043 0.04375581 0.19897307
hagrid -0.048906196 -0.3924313 -0.04256862 -0.3182093 0.20492016 0.18951364 -0.07845351 -0.07086023 0.61716783 -0.27624145 0.36916298 -0.060889747 0.022578467 0.007906987 0.32609537 0.68358827 -0.00027950096 -0.34150675 -0.51964045 -0.13343473 -0.060563084 -0.6187039 0.08137437 -0.4767007 -0.23235862 -0.14666669 0.18153512 0.09819483 -0.4138219 -0.4728047 0.10098587 -0.12531196 0.12701866 0.1113844 0.48839575 0.41855824 0.14482579 0.10284437 -0.49512398 -0.44610944 0.5193162 0.71410275 -0.252347 -0.049309514 -0.18498051 0.7964308 -0.3541421 -0.30521473 -0.23566492 -0.037020218 0.029448602 -0.57973295 -0.31973958 0.36687478 -0.19460529 0.008376886 -0.19358732 -0.17723566 0.2623547 -0.044788804 0.05278848 -0.23883736 0.029704211 0.03111069 -0.06465801 -0.044886556 -0.5320359 0.24879728 0.039622884 0.122527376 0.29366857 0.17739387 0.23698696 -0.046432734 -0.2817841 -0.11381707 0.27329457 0.30589563 0.26899552 -0.08635547 0.34223637 0.37990454 -0.13874722 -0.14990231 0.117747016 -0.1614254 -0.17055264 0.20935184 -0.04115714 0.0034634292 0.16409707 -0.028361226 0.21062085 0.23201537 -0.18766624 -0.2297741 0.114606194 0.054352984 0.046049714 0.19667262
todos -0.043628614 -0.4354651 -0.040957723 -0.33778954 0.23379654 0.19040725 -0.0860669 -0.090102315 0.66585124 -0.30727747 0.4008343 -0.08459847 0.028318578 0.012822849 0.36236402 0.73488396 -0.004039535 -0.37108642 -0.5689287 -0.15167008 -0.05304485 -0.683886 0.09368604 -0.52971464 -0.237317 -0.15083909 0.1895072 0.09636983 -0.45874774 -0.5043199 0.108410895 -0.14772128 0.15991673 0.12690501 0.54017735 0.4646814 0.17344412 0.0995256 -0.5408318 -0.49822882 0.5587376 0.76876736 -0.27971506 -0.04881198 -0.20534533 0.8740609 -0.3864601 -0.31447613 -0.24619131 -0.026327731 0.028705763 -0.6420852 -0.34820396 0.39615142 -0.21277347 0.010973015 -0.21836865 -0.20603697 0.2916784 -0.04585654 0.053032316 -0.2634444 0.03483578 0.03612167 -0.07077661 -0.04191781 -0.5949389 0.2743282 0.03705261 0.13404518 0.3198816 0.18634275 0.25711235 -0.06435189 -0.299629 -0.11306709 0.3104201 0.33808014 0.28715035 -0.09336212 0.37409556 0.41725987 -0.15919118 -0.16368063 0.11861024 -0.1658266 -0.18685466 0.22931923 -0.050960355 0.0030692338 0.19098093 -0.021710513 0.22677374 0.2622294 -0.19558841 -0.24402405 0.13316159 0.070142806 0.061173692 0.21748821
voz -0.045430962 -0.40816435 -0.040641956 -0.32979727 0.2207995 0.19347782 -0.07123308 -0.07883592 0.64702713 -0.29696843 0.3881658 -0.065572806 0.02029781 0.008422861 0.3417756 0.71687835 0.0006240199 -0.36411113 -0.5423234 -0.14371915 -0.059231322 -0.6500203 0.09894251 -0.49493062 -0.24114901 -0.15016013 0.18825075 0.10796481 -0.42832518 -0.48856837 0.10143491 -0.13232753 0.13300739 0.108055085 0.5165108 0.4342871 0.15505695 0.11103843 -0.51824754 -0.46520516 0.53754956 0.74444556 -0.25987217 -0.045257267 -0.19003479 0.8382674 -0.3751687 -0.3194435 -0.2502228 -0.035805047 0.034107488 -0.61069685 -0.33296984 0.37915897 -0.20015371 0.015709007 -0.20346639 -0.18866336 0.2752092 -0.034501523 0.05744014 -0.2475672 0.029909914 0.04171557 -0.058696892 -0.046689026 -0.55421203 0.26883858 0.041379698 0.12723531 0.3161452 0.17763656 0.24708518 -0.05775503 -0.28869134 -0.107876725 0.2851496 0.31383878 0.2707166 -0.08558435 0.34991094 0.3949684 -0.15297753 -0.15486151 0.11865329 -0.15760653 -0.1878783 0.22442877 -0.04653247 0.0064039133 0.16388921 -0.02995424 0.21315166 0.24368018 -0.1952241 -0.22854987 0.114123315 0.06355197 0.06459858 0.20528248
dumbledore -0.061804492 -0.4584216 -0.040176626 -0.35909787 0.24829513 0.21593025 -0.085066184 -0.09397192 0.7173582 -0.32770434 0.4333608 -0.07130475 0.030710831 0.011144029 0.3739379 0.7806477 -0.0088817505 -0.39066935 -0.6046856 -0.15434262 -0.0614541 -0.7194533 0.10407952 -0.5471407 -0.26752886 -0.16400282 0.20671129 0.11582264 -0.47910118 -0.5389153 0.115325645 -0.15296839 0.1563027 0.12873232 0.5682835 0.4874055 0.17030558 0.11530947 -0.57139534 -0.50782746 0.59389275 0.81899494 -0.28294465 -0.050830152 -0.22029364 0.9243664 -0.40250212 -0.34552425 -0.27494302 -0.03860502 0.029776245 -0.67027545 -0.3646209 0.42868307 -0.21513812 0.014140663 -0.22800301 -0.20583749 0.30131847 -0.041837316 0.052665565 -0.27722293 0.042956255 0.037866335 -0.06957173 -0.049509127 -0.6121775 0.29573894 0.043566786 0.13955207 0.33531383 0.20118135 0.26853 -0.05108357 -0.31392655 -0.11701523 0.31373653 0.35890186 0.31196326 -0.10086717 0.39567524 0.44100854 -0.17243439 -0.16693468 0.12700549 -0.17458224 -0.19752324 0.24515185 -0.04507722 0.00588741 0.19609964 -0.034739695 0.23824368 0.26741257 -0.21997972 -0.2560691 0.13433117 0.06504722 0.05637986 0.2205559
dobby -0.05589556 -0.43723083 -0.046782665 -0.35649696 0.22786881 0.2089787 -0.08121979 -0.08929682 0.6863911 -0.31639564 0.40542805 -0.06461406 0.031062841 0.0051684435 0.3617344 0.75403666 -0.004964647 -0.3803399 -0.58229464 -0.15095852 -0.06617051 -0.686548 0.08630857 -0.5274448 -0.2435886 -0.1546094 0.19189388 0.10428148 -0.45822564 -0.51907474 0.11992905 -0.14684756 0.14809681 0.12971629 0.5501868 0.4589956 0.16227473 0.113660306 -0.544705 -0.49428797 0.57551736 0.7947122 -0.27196923 -0.051717926 -0.20419657 0.8827597 -0.3953375 -0.33082992 -0.26071316 -0.031756777 0.034938883 -0.64967287 -0.35499737 0.40918747 -0.21010481 0.0127464505 -0.21103254 -0.20492458 0.3007439 -0.048132326 0.05267633 -0.27105305 0.041521996 0.038122118 -0.066212654 -0.04598753 -0.59313655 0.27264118 0.03708146 0.12813401 0.31952605 0.19217643 0.25862736 -0.04637874 -0.30964306 -0.11502456 0.3042475 0.33563936 0.28956947 -0.09819962 0.37970737 0.42761064 -0.1601873 -0.16889492 0.12193691 -0.17782907 -0.20115174 0.23705234 -0.04551257 0.001562275 0.1780405 -0.026785439 0.21805438 0.26474413 -0.21286973 -0.24827003 0.13162214 0.06276088 0.06005409 0.21707551
lá -0.05293659 -0.44972908 -0.03901068 -0.3546745 0.24116103 0.20847999 -0.08744017 -0.085366756 0.71427536 -0.31550515 0.428485 -0.072656274 0.03171368 0.016007897 0.37573975 0.78272605 0.0041491627 -0.39608335 -0.5943727 -0.16027574 -0.064006805 -0.7088706 0.100108534 -0.5503556 -0.25951073 -0.16513109 0.20548922 0.11695503 -0.4798407 -0.5393015 0.12524869 -0.1478081 0.15599526 0.12257348 0.5711548 0.47706863 0.17451309 0.12087403 -0.5681587 -0.5122733 0.59565735 0.8089909 -0.28418404 -0.06037672 -0.21818885 0.92361176 -0.41143367 -0.34055132 -0.26998785 -0.028798135 0.033915654 -0.673048 -0.36354488 0.42901394 -0.22673959 0.010265673 -0.22270453 -0.20317386 0.30795076 -0.048873857 0.054371063 -0.28287148 0.033975396 0.045052025 -0.06606814 -0.054535955 -0.6115305 0.2968413 0.045958832 0.13520326 0.33697614 0.19386537 0.268597 -0.062418323 -0.32415473 -0.1276901 0.31489334 0.34672284 0.3047686 -0.0979197 0.39025015 0.4324105 -0.16376422 -0.17660601 0.12173499 -0.17951693 -0.20213002 0.23617142 -0.045833014 5.7554666e-05 0.19667152 -0.035544965 0.24176769 0.26965386 -0.21343479 -0.27003798 0.13901928 0.06891517 0.064832315 0.22139992
tu -0.06423198 -0.42141905 -0.0369659 -0.33516154 0.21992056 0.1923673 -0.0872382 -0.080463134 0.65756595 -0.30039153 0.39864692 -0.06473291 0.021545004 0.0014326117 0.35773483 0.72756034 0.0011246261 -0.37549415 -0.5522186 -0.15284756 -0.063975364 -0.6631141 0.0948608 -0.5108257 -0.24304222 -0.15781645 0.18838106 0.11901943 -0.4309171 -0.5064428 0.11273913 -0.14814143 0.1474082 0.116859056 0.5268676 0.44596863 0.1591628 0.10377323 -0.524288 -0.46195275 0.5529186 0.7626351 -0.2643796 -0.056404557 -0.20785592 0.8602759 -0.37629652 -0.31974965 -0.24477907 -0.03842647 0.033136483 -0.62356156 -0.33211833 0.39227226 -0.20186967 0.014794838 -0.20967914 -0.1955473 0.277162 -0.0439801 0.048931852 -0.26067674 0.038178377 0.044930734 -0.059386123 -0.052575108 -0.56903493 0.27354327 0.04967821 0.1258629 0.3138412 0.18439001 0.24748594 -0.05074044 -0.2989831 -0.11353595 0.28711268 0.32210642 0.28891805 -0.0924126 0.3610687 0.40343216 -0.1589143 -0.16023023 0.11159739 -0.16647255 -0.18526109 0.22323917 -0.044368554 0.015516165 0.16808476 -0.035477143 0.21551822 0.25053838 -0.20772497 -0.2390955 0.12920892 0.056602806 0.049479853 0.1986695
sua -0.04818901 -0.4499405 -0.03846921 -0.3525206 0.23923378 0.19838484 -0.083469406 -0.088550724 0.6863891 -0.31454015 0.4087917 -0.07420767 0.031463817 0.017072158 0.36019585 0.7498706 -0.0055898326 -0.37068474 -0.5770654 -0.14059971 -0.056792714 -0.69753987 0.1053958 -0.5325218 -0.24068655 -0.16781329 0.19215423 0.089942254 -0.48046526 -0.51234365 0.110225774 -0.14360122 0.15773831 0.12795334 0.54865587 0.47128236 0.1744387 0.117543794 -0.55093646 -0.50457823 0.57553124 0.7873801 -0.28295064 -0.05307509 -0.20161834 0.88224036 -0.39924002 -0.32527098 -0.25513497 -0.03193452 0.031928338 -0.6496673 -0.3513689 0.42194518 -0.2066718 0.020958928 -0.21886042 -0.19995457 0.30509505 -0.03369799 0.05810448 -0.26958615 0.03011786 0.037220214 -0.0728734 -0.041474953 -0.5975776 0.27823794 0.028470226 0.13158733 0.32189128 0.18273732 0.25621623 -0.05105457 -0.30289358 -0.10571587 0.31039307 0.3449626 0.29659644 -0.09000536 0.37248313 0.41363245 -0.16144188 -0.17035227 0.12010243 -0.16825478 -0.18857186 0.23042496 -0.042924445 0.003974157 0.19505918 -0.027846152 0.2204953 0.26810956 -0.20359181 -0.2513049 0.14183149 0.076350614 0.07376726 0.21272124
porta -0.03655098 -0.38397184 -0.034802612 -0.2996846 0.20398526 0.17202213 -0.06880824 -0.07284959 0.5894347 -0.26194513 0.34345353 -0.05660244 0.038372375 0.019109566 0.29967996 0.633884 -0.013627482 -0.3206412 -0.49913222 -0.118514165 -0.051161908 -0.5985715 0.088112384 -0.4668391 -0.20857076 -0.13121498 0.15742023 0.08612814 -0.40681487 -0.42816705 0.09139425 -0.12849091 0.14039683 0.1127521 0.46140411 0.4132434 0.1434398 0.0945437 -0.47061265 -0.4401813 0.49224457 0.67876804 -0.24568811 -0.049875952 -0.1705049 0.76542467 -0.33800548 -0.27836603 -0.23124841 -0.024464484 0.025097804 -0.5607022 -0.29810837 0.35740688 -0.1801186 0.01859275 -0.18014738 -0.1670279 0.25993335 -0.02984667 0.046248496 -0.23463516 0.024470268 0.030315677 -0.061129663 -0.042904124 -0.5122287 0.24644354 0.02626126 0.113119364 0.28677753 0.1569812 0.22431272 -0.04715566 -0.25853422 -0.0914822 0.26366183 0.29406214 0.26286513 -0.08006831 0.31614032 0.35868344 -0.14698152 -0.14352784 0.10645628 -0.14692697 -0.15831348 0.20427333 -0.038158137 -0.0009387774 0.16190386 -0.02573419 0.19368047 0.2188809 -0.17364107 -0.21056981 0.11770372 0.06549069 0.066836834 0.19560121
ver -0.04912585 -0.39557025 -0.03432347 -0.32376152 0.21353614 0.18792962 -0.07236471 -0.07286632 0.6244995 -0.28603622 0.36995688 -0.068892054 0.025544161 0.010778336 0.32501113 0.6808152 -0.0070894063 -0.3504367 -0.5202046 -0.14174376 -0.052854285 -0.62619805 0.08774077 -0.47461605 -0.22248784 -0.14542489 0.17726344 0.10522724 -0.4167317 -0.46319804 0.104431935 -0.1336547 0.12885052 0.11149244 0.49127945 0.42216846 0.15444867 0.1018947 -0.49131715 -0.45072058 0.52163815 0.7159473 -0.25069982 -0.044925634 -0.19216895 0.8008496 -0.3510311 -0.29734176 -0.23437673 -0.031135133 0.031362914 -0.5793844 -0.32394937 0.3708081 -0.19597265 0.015296608 -0.19707027 -0.18581441 0.26739115 -0.038638584 0.053039405 -0.24755168 0.03256091 0.039827455 -0.06575105 -0.04149917 -0.527922 0.2581012 0.04163383 0.121928126 0.29729974 0.1694515 0.23548266 -0.04755371 -0.27891874 -0.112293325 0.27548906 0.30534884 0.27376607 -0.08183122 0.3452346 0.38449308 -0.1391952 -0.14578421 0.110452205 -0.15403867 -0.17465597 0.20807588 -0.045938693 0.0019179787 0.17003408 -0.032766312 0.20683624 0.23797336 -0.1902666 -0.2229545 0.11560086 0.061415933 0.055332035 0.19403726
vez -0.045268398 -0.42241123 -0.040427692 -0.3371 0.220129 0.18521555 -0.08763093 -0.08297128 0.6574949 -0.30160785 0.38945994 -0.06716039 0.035183325 0.017496092 0.3480295 0.71497035 -0.00074896455 -0.35734126 -0.5497656 -0.1353393 -0.06322929 -0.6671708 0.10055868 -0.5029852 -0.2467427 -0.15875298 0.18161519 0.09038851 -0.4502528 -0.496568 0.11523437 -0.12976465 0.14786929 0.12647052 0.5274298 0.4508477 0.16212696 0.101943 -0.5186164 -0.4758631 0.5396832 0.75026655 -0.2727961 -0.044135593 -0.19916508 0.8570052 -0.3769492 -0.3236314 -0.24116795 -0.024611993 0.032901064 -0.6185155 -0.32731432 0.40155894 -0.19584996 0.009090608 -0.20653728 -0.19036198 0.28430688 -0.03902443 0.041523114 -0.2509218 0.040104005 0.036179494 -0.05797471 -0.04742772 -0.56853914 0.27594277 0.028653072 0.13501376 0.31779507 0.18287665 0.24830012 -0.054849315 -0.30227098 -0.11623719 0.2960254 0.3262254 0.28293777 -0.085782275 0.35877064 0.40182182 -0.16689047 -0.163856 0.12120527 -0.1693342 -0.1818967 0.21863486 -0.04162963 -0.00070988777 0.17862447 -0.035998307 0.21803324 0.25222492 -0.1929565 -0.24688256 0.12688684 0.06211698 0.06485298 0.20934907
está -0.05707328 -0.42761952 -0.03560815 -0.34268963 0.22592795 0.1971929 -0.07658198 -0.089464806 0.6832474 -0.3017336 0.40996397 -0.06969839 0.019324994 0.007840928 0.36412507 0.7556168 -9.932243e-05 -0.3803534 -0.56948423 -0.15016295 -0.07219519 -0.67627144 0.09315484 -0.51787174 -0.24713106 -0.16231127 0.1960433 0.11544766 -0.44731918 -0.52180815 0.105972186 -0.13982545 0.14748965 0.13107218 0.549206 0.45433524 0.16333024 0.10706928 -0.5395567 -0.48672697 0.56841445 0.78391606 -0.273988 -0.058830485 -0.20387764 0.8817887 -0.3885277 -0.33469087 -0.26259542 -0.0374783 0.046512444 -0.64225906 -0.33980334 0.4119643 -0.21553436 0.021906463 -0.21427657 -0.20358151 0.28767905 -0.05036583 0.058813613 -0.25845078 0.032187678 0.045999717 -0.059217457 -0.04638978 -0.59372663 0.2703047 0.049240783 0.13227947 0.32262662 0.1908614 0.25164273 -0.048546128 -0.31110474 -0.12196616 0.30759704 0.33311838 0.29401407 -0.09803029 0.37327397 0.4143678 -0.15178694 -0.15990345 0.11564511 -0.18117811 -0.20162894 0.22676325 -0.04610012 0.008110163 0.17272341 -0.039139267 0.22113772 0.2602495 -0.2162846 -0.24794051 0.13003641 0.06046946 0.06111476 0.21457377
ainda -0.05090444 -0.41528794 -0.039204884 -0.33035648 0.22238855 0.1926462 -0.08167666 -0.079818435 0.6536226 -0.29768214 0.39110178 -0.068964384 0.026138702 0.0072987047 0.34415123 0.7151055 -0.0025192017 -0.3617118 -0.5423439 -0.14869706 -0.06131544 -0.6525636 0.08704805 -0.5012768 -0.24299847 -0.14510573 0.18374811 0.1013903 -0.43471783 -0.49099338 0.106038414 -0.13126062 0.13646875 0.123430304 0.51784605 0.43604326 0.14963202 0.11044631 -0.5185595 -0.46615237 0.5451265 0.7463342 -0.26198754 -0.047280807 -0.19520281 0.83507967 -0.37236372 -0.30702314 -0.24253297 -0.0369058 0.038520005 -0.60988533 -0.33370486 0.38805184 -0.20631409 0.011293592 -0.20667359 -0.18625261 0.2846905 -0.03618062 0.045599107 -0.24641629 0.04012209 0.03923713 -0.062026396 -0.04712991 -0.55290085 0.2689105 0.04364905 0.13001676 0.31154573 0.18055512 0.23832642 -0.053979926 -0.28722784 -0.10917019 0.29302442 0.3219766 0.2753548 -0.08894238 0.35821632 0.3986735 -0.15517265 -0.15022565 0.12220398 -0.15931311 -0.185935 0.2201274 -0.03976485 0.010729827 0.17837134 -0.035382118 0.20876703 0.24354894 -0.19842027 -0.23554921 0.11991321 0.06081294 0.05506645 0.2072349
onde -0.056321923 -0.46986938 -0.046012834 -0.37201044 0.24947567 0.21243066 -0.08428451 -0.08791808 0.7371263 -0.3327641 0.43772724 -0.07927924 0.029140709 0.015295435 0.38436502 0.8037219 0.0016264061 -0.40553296 -0.6218507 -0.15554243 -0.06727608 -0.7311816 0.09588889 -0.56456923 -0.26791644 -0.16668177 0.21159293 0.10901938 -0.50209016 -0.5449743 0.12235802 -0.15227352 0.16532159 0.14032122 0.58366317 0.49300215 0.17813845 0.11636708 -0.57729554 -0.53351706 0.60917646 0.8444272 -0.29777008 -0.056446888 -0.22271098 0.9507121 -0.4150864 -0.34586665 -0.2767622 -0.030350924 0.03316038 -0.69443357 -0.37292063 0.44271114 -0.2281056 0.015075752 -0.23029707 -0.21720548 0.315563 -0.040643994 0.05112892 -0.28316313 0.035733663 0.03790481 -0.070819095 -0.046028957 -0.63058954 0.30341104 0.04659368 0.13811626 0.3521805 0.2064555 0.27878386 -0.05457945 -0.32623976 -0.12962179 0.32845148 0.3623102 0.322384 -0.10487273 0.4108339 0.44398153 -0.16880333 -0.17080002 0.1265615 -0.17882806 -0.21063733 0.2542113 -0.050122034 0.0044064657 0.20299178 -0.03482599 0.23962188 0.27986953 -0.21667376 -0.2729224 0.14295547 0.064153075 0.06503396 0.23725139
isso -0.046599377 -0.37179866 -0.03108249 -0.30515525 0.19437622 0.1804417 -0.06671329 -0.06826959 0.59147877 -0.265553 0.3552731 -0.0634459 0.0198582 0.010896777 0.3046265 0.6462199 0.0045659663 -0.32351157 -0.50019664 -0.1259021 -0.0628245 -0.5828055 0.07493439 -0.44648758 -0.2152738 -0.1359159 0.16183667 0.10834056 -0.38782457 -0.44720376 0.0914505 -0.13106431 0.12127193 0.10850731 0.46517405 0.39246756 0.13768178 0.10007993 -0.47015774 -0.4154024 0.4845318 0.6677671 -0.23913158 -0.04678948 -0.1775929 0.758192 -0.33235464 -0.28537267 -0.22337767 -0.03166023 0.03547456 -0.5442289 -0.29249093 0.35580498 -0.1861953 0.02290619 -0.18656637 -0.16430996 0.24968217 -0.04589414 0.04064136 -0.23203595 0.027896313 0.0301865 -0.056649864 -0.04730237 -0.506645 0.24171387 0.034513623 0.11006041 0.2750961 0.16639178 0.21496533 -0.040189352 -0.25692284 -0.10380305 0.25796157 0.29210785 0.25079086 -0.08044605 0.32424808 0.3550384 -0.13909015 -0.14450128 0.101183236 -0.15081856 -0.16455306 0.20504291 -0.037501078 0.011307144 0.14680953 -0.03151289 0.18721224 0.21939373 -0.1740139 -0.21116482 0.11673639 0.04703074 0.042957157 0.17982219
dizer -0.060254622 -0.41061544 -0.04477067 -0.33338344 0.21138105 0.19287086 -0.08473857 -0.08101745 0.64430255 -0.29562762 0.38461927 -0.058673967 0.01843497 0.007550784 0.34544334 0.7095625 0.0023828084 -0.3636506 -0.54034 -0.15106505 -0.065018676 -0.6360907 0.08769394 -0.49158275 -0.22960505 -0.14493765 0.19412602 0.110717304 -0.42278776 -0.48580384 0.10665263 -0.14263791 0.13877615 0.109765686 0.5055731 0.42086622 0.14743316 0.10951852 -0.50600165 -0.44775316 0.54038244 0.73007953 -0.26133496 -0.04550771 -0.20014244 0.8308183 -0.36642748 -0.31943113 -0.24428944 -0.03082336 0.043082573 -0.5984932 -0.33033755 0.38673997 -0.19598073 0.014889525 -0.21288814 -0.18086173 0.26994267 -0.049131215 0.048072953 -0.24998838 0.029332498 0.037361223 -0.056095917 -0.050376266 -0.55229264 0.2602529 0.043756228 0.12496091 0.30709678 0.18793388 0.24451604 -0.05061399 -0.29204738 -0.11208439 0.27468002 0.30601758 0.27972892 -0.09359673 0.35788155 0.38426504 -0.14260085 -0.1502391 0.1185341 -0.16045879 -0.175476 0.21898755 -0.05550576 0.009925508 0.17124832 -0.03095193 0.21559429 0.24659784 -0.19153634 -0.23406824 0.1255143 0.05713567 0.042258497 0.19190559
já -0.052893106 -0.45077515 -0.044845037 -0.3632747 0.2332677 0.21138574 -0.08540943 -0.08976205 0.7090374 -0.31744257 0.41800562 -0.06760458 0.02010425 0.013293307 0.37086815 0.77423626 0.0020660863 -0.3950918 -0.58957434 -0.15232538 -0.06346031 -0.7023228 0.09030942 -0.543983 -0.2555515 -0.1620104 0.20528163 0.118415006 -0.46867526 -0.5333352 0.114879034 -0.1458228 0.15127265 0.12977414 0.5599049 0.46988308 0.16381042 0.117385 -0.55522645 -0.50497454 0.5888437 0.80479175 -0.28384495 -0.049519546 -0.2169054 0.9125847 -0.39677307 -0.33567268 -0.27016312 -0.037817396 0.038617227 -0.6563267 -0.35844606 0.4235973 -0.21852677 0.021142753 -0.2248059 -0.2077324 0.2995943 -0.041444443 0.057652943 -0.26598626 0.032136533 0.045207392 -0.0682676 -0.05213977 -0.60632646 0.2924527 0.042417 0.13310704 0.3308269 0.19630422 0.26000077 -0.0487899 -0.3146723 -0.11920049 0.31384432 0.3451385 0.30224326 -0.09862009 0.39524353 0.4362306 -0.16865301 -0.1713181 0.12701347 -0.17545831 -0.19785005 0.2393148 -0.04464818 0.009433297 0.1887057 -0.039125826 0.2286964 0.26831612 -0.21114382 -0.25173798 0.13436118 0.0681416 0.060709156 0.21624112
mr -0.061073616 -0.43369275 -0.03823923 -0.35969698 0.23551884 0.19465075 -0.06850102 -0.09496058 0.69403327 -0.30467254 0.43193462 -0.08548839 0.046183415 0.011953168 0.35255727 0.7483195 -0.0035623894 -0.37013742 -0.59516466 -0.156841 -0.06904493 -0.70602196 0.11201507 -0.5273697 -0.2653137 -0.16818136 0.19346951 0.1204694 -0.46219647 -0.5358293 0.12379744 -0.13303936 0.15972917 0.1255436 0.56138736 0.4778481 0.16271447 0.102742374 -0.54830647 -0.5048008 0.56829077 0.79295707 -0.26066053 -0.04854835 -0.19762553 0.87680435 -0.40554234 -0.3134657 -0.2787658 -0.031863794 0.026849706 -0.6408122 -0.37288633 0.412878 -0.22407965 0.027513051 -0.21040784 -0.22249976 0.31409356 -0.025028322 0.04957786 -0.2806261 0.03085471 0.042190723 -0.090402186 -0.049421065 -0.6007297 0.27121973 0.044369787 0.14997533 0.33612493 0.17820822 0.26014748 -0.051729944 -0.30832046 -0.11722679 0.31900057 0.35505593 0.28630278 -0.08040352 0.3939284 0.42516568 -0.17655028 -0.16795273 0.117238335 -0.16364722 -0.2047524 0.21258035 -0.057873283 0.008329049 0.17928475 -0.026826762 0.20951235 0.2709825 -0.20002308 -0.25545126 0.13071685 0.057152428 0.065978505 0.23536563
pelo -0.054660965 -0.51277936 -0.04944192 -0.40340874 0.27347493 0.23012073 -0.093714826 -0.105217926 0.79994774 -0.3607378 0.48258027 -0.08800695 0.039162375 0.021285232 0.4154735 0.8618945 -0.0060098846 -0.43732467 -0.6696691 -0.17695732 -0.073382765 -0.7958401 0.11307694 -0.61637473 -0.28312063 -0.18703306 0.22816317 0.11851078 -0.5444754 -0.58983976 0.13878098 -0.16573441 0.1792276 0.15094253 0.62999153 0.5429787 0.1873287 0.12389582 -0.6281427 -0.5840137 0.66732866 0.9078432 -0.3174688 -0.060809385 -0.23969354 1.0274088 -0.4505409 -0.37416187 -0.30075744 -0.041714724 0.038240626 -0.75264126 -0.4058229 0.47624704 -0.25108993 0.018925285 -0.25127634 -0.23637176 0.34442383 -0.041695237 0.06546701 -0.30578104 0.03642947 0.037488785 -0.0776558 -0.048089318 -0.68076307 0.3200155 0.03394622 0.15087022 0.37580147 0.21031632 0.2993065 -0.062017545 -0.35525098 -0.13413401 0.35262123 0.40167993 0.340596 -0.11103824 0.43298957 0.49525952 -0.18666989 -0.18902357 0.14600056 -0.20098166 -0.21914358 0.27614647 -0.054016385 0.005493673 0.22668678 -0.037299473 0.258882 0.30060288 -0.23083703 -0.29396605 0.14937863 0.06975677 0.06760779 0.253246
tinham -0.048509754 -0.43255988 -0.050067775 -0.34584013 0.22626221 0.19136734 -0.084007874 -0.08687216 0.66080487 -0.3033869 0.40312916 -0.07684759 0.02709206 0.017548867 0.3518264 0.72846705 0.0023268224 -0.36874148 -0.55210197 -0.14244032 -0.058694433 -0.6683155 0.08953978 -0.5167715 -0.24263172 -0.14631101 0.1956081 0.10087634 -0.45174018 -0.49196568 0.10687305 -0.1399666 0.15214048 0.117738806 0.5362822 0.45885557 0.16280203 0.10631147 -0.5325708 -0.48374248 0.55375725 0.76714754 -0.26379716 -0.052834198 -0.20396288 0.85912067 -0.38063508 -0.31444252 -0.25384203 -0.033845544 0.033261053 -0.62313396 -0.3402159 0.39374647 -0.20510803 0.018114384 -0.21561246 -0.19974285 0.2836914 -0.04175545 0.047187164 -0.25922132 0.03566846 0.040728927 -0.070758276 -0.047046028 -0.5770715 0.26722232 0.038772848 0.12683785 0.31743047 0.17563668 0.25817934 -0.047069762 -0.3026529 -0.11698816 0.29509327 0.32851738 0.29046208 -0.09859514 0.3687142 0.4149605 -0.15540604 -0.1633003 0.12158399 -0.16190895 -0.19204755 0.23305973 -0.048096504 0.008642807 0.18911207 -0.026010081 0.21329583 0.25780362 -0.19526397 -0.24236698 0.12372403 0.061689798 0.059735544 0.21705383
casa -0.034581162 -0.37026557 -0.040707603 -0.28948957 0.19565308 0.16697764 -0.0697928 -0.06857957 0.56174064 -0.24680981 0.34214073 -0.066291 0.03116023 0.018798217 0.29194057 0.61714774 -0.0052569006 -0.3100221 -0.47383308 -0.114291035 -0.051206917 -0.5593839 0.08778611 -0.4337829 -0.20278832 -0.13470839 0.15477435 0.07884724 -0.38068846 -0.41902122 0.1011396 -0.12286078 0.122846425 0.104028575 0.44987506 0.39036682 0.14896114 0.09813146 -0.44065106 -0.4194427 0.47121176 0.6365261 -0.23642385 -0.039289456 -0.16969869 0.72978085 -0.31710407 -0.26587424 -0.20670588 -0.03242625 0.021187559 -0.5396983 -0.28810316 0.34099266 -0.17350735 0.0102680465 -0.18195571 -0.17567861 0.25011796 -0.037677363 0.049506508 -0.21871501 0.018487016 0.036817532 -0.056561343 -0.03408826 -0.4873346 0.23172852 0.036116626 0.118659906 0.26033792 0.155678 0.21221639 -0.04895257 -0.25193724 -0.101867676 0.2632968 0.27326453 0.24812514 -0.08719982 0.32148525 0.33895487 -0.1312557 -0.1424935 0.10268827 -0.14703538 -0.15158111 0.18584248 -0.04507348 0.0071963696 0.16018182 -0.022790829 0.19035612 0.2203529 -0.1702947 -0.21635693 0.10916687 0.05659359 0.05266929 0.19223443
potter -0.054212622 -0.39041263 -0.039047364 -0.3197601 0.20708682 0.18950851 -0.07526881 -0.081403606 0.6202291 -0.2831555 0.3773533 -0.056980275 0.020639969 0.0027868915 0.32158932 0.6860711 -0.0009214109 -0.34791607 -0.523799 -0.1407417 -0.058271896 -0.61484396 0.085274205 -0.46864507 -0.22434969 -0.13933648 0.17324151 0.11070938 -0.40038297 -0.46382067 0.1055919 -0.12914537 0.13253646 0.115162104 0.48833936 0.42080203 0.14520349 0.10009479 -0.49030527 -0.43561634 0.5119945 0.71581453 -0.24428022 -0.047481794 -0.19441126 0.7988717 -0.34788108 -0.29745215 -0.24202584 -0.036900695 0.037698574 -0.57356673 -0.32066187 0.37157995 -0.1875714 0.020354712 -0.1985703 -0.18446279 0.2687481 -0.038114976 0.045508303 -0.238767 0.028374542 0.043216255 -0.062772006 -0.052033044 -0.52693576 0.2471882 0.043136682 0.11740459 0.29884934 0.17737353 0.23916537 -0.04875712 -0.27107114 -0.10237981 0.27497602 0.29839763 0.26120496 -0.077908196 0.3522232 0.38440302 -0.14104353 -0.14335291 0.10867631 -0.15935034 -0.17332754 0.21007396 -0.038476147 0.012470251 0.15805486 -0.030834585 0.20905165 0.22996949 -0.19476904 -0.22353975 0.11546717 0.054277454 0.050806273 0.19349453
só -0.05514281 -0.45414686 -0.045911074 -0.35577917 0.23945604 0.2086875 -0.090975925 -0.08521979 0.69963026 -0.32078016 0.4226301 -0.0742069 0.028103894 0.010839951 0.374214 0.76849514 0.002159189 -0.3948517 -0.5920924 -0.16085187 -0.06237585 -0.70160127 0.09101973 -0.54544216 -0.2560096 -0.15912561 0.2040109 0.10857174 -0.46989155 -0.522834 0.12184805 -0.14556663 0.15525168 0.13051666 0.56000996 0.47202176 0.16554743 0.117575236 -0.561204 -0.5087063 0.58971065 0.80984545 -0.2777135 -0.05668507 -0.21598932 0.9020419 -0.40101746 -0.33721253 -0.26663038 -0.040690288 0.029396642 -0.66539526 -0.35665467 0.4210937 -0.22081418 0.016388176 -0.2296247 -0.21129286 0.29824808 -0.0452946 0.05289658 -0.27146655 0.04091285 0.04210056 -0.064392306 -0.043254033 -0.6120969 0.28547916 0.040198166 0.13397229 0.33244026 0.19642691 0.26632696 -0.05682685 -0.31753212 -0.11748116 0.31086656 0.35161185 0.30625865 -0.10179514 0.38593173 0.42572755 -0.161313 -0.1677832 0.12392941 -0.1763883 -0.20292458 0.24339962 -0.0470516 0.010328728 0.18905117 -0.034250364 0.23026311 0.26689294 -0.21656916 -0.25588223 0.13208625 0.070270225 0.05383351 0.21976648
riddle -0.05524993 -0.4471018 -0.04171833 -0.3591164 0.23999697 0.21433468 -0.08286335 -0.09076541 0.70547533 -0.31219825 0.42665502 -0.066639125 0.030033275 0.00491624 0.3712388 0.77473104 -0.00051707414 -0.387508 -0.59195167 -0.1512088 -0.064758696 -0.7058687 0.09713768 -0.5454613 -0.25773278 -0.15753792 0.19721054 0.10991497 -0.4753643 -0.5253956 0.11414455 -0.14991511 0.14372882 0.1264662 0.5624403 0.4727629 0.16321088 0.11906469 -0.563871 -0.50987583 0.591977 0.8080473 -0.28079802 -0.05427032 -0.20842639 0.9007367 -0.40017152 -0.33926028 -0.2668778 -0.04047567 0.035055637 -0.65796614 -0.36127868 0.41656172 -0.21597214 0.016769066 -0.22550777 -0.21023826 0.29684505 -0.038181804 0.05819744 -0.26840398 0.03718433 0.040540557 -0.071167305 -0.04716366 -0.6004866 0.28953674 0.036652222 0.1383672 0.33260244 0.18961239 0.27009097 -0.058738723 -0.30928162 -0.12097405 0.31638306 0.34571266 0.30142766 -0.10116969 0.38655484 0.4324387 -0.16190326 -0.16863497 0.12648422 -0.17796172 -0.20441633 0.23481901 -0.045236178 0.010014036 0.18672901 -0.033825606 0.23046112 0.26146525 -0.21183825 -0.25179398 0.13031422 0.06067016 0.061320923 0.2220742
aqui -0.055523485 -0.4086273 -0.034243967 -0.32202584 0.21323562 0.18831518 -0.08383015 -0.07624 0.6494487 -0.29442337 0.3859722 -0.06905744 0.016969316 0.0029321092 0.33773625 0.70547086 -0.005334623 -0.36315447 -0.5456892 -0.14256215 -0.0660709 -0.63512385 0.08645342 -0.49063075 -0.2394459 -0.15533322 0.181517 0.11097858 -0.41822752 -0.48637113 0.10152356 -0.1401662 0.13531023 0.11781067 0.5167788 0.42808643 0.1566563 0.107620806 -0.5109666 -0.4539015 0.54121596 0.738317 -0.25956452 -0.051942788 -0.19253615 0.82820106 -0.3672902 -0.318557 -0.2393052 -0.038254328 0.04151722 -0.5999827 -0.32443506 0.3800012 -0.19260685 0.016746027 -0.20900445 -0.18352252 0.27459309 -0.035757236 0.048733704 -0.24309056 0.02871399 0.037713144 -0.057708647 -0.045815192 -0.55554307 0.2580601 0.04559162 0.12656419 0.30684134 0.17980269 0.24190405 -0.045884144 -0.29094493 -0.11362727 0.2835761 0.31704912 0.27526242 -0.08765176 0.3585342 0.39018667 -0.1454864 -0.14931385 0.11271163 -0.16498242 -0.18774977 0.21310124 -0.041662004 0.011183384 0.15962373 -0.0374338 0.21526055 0.24200262 -0.19441727 -0.23786263 0.12134458 0.059582207 0.044937544 0.19860385
parecia -0.04589094 -0.3750527 -0.0368539 -0.30203757 0.19956045 0.17186457 -0.07796788 -0.0760784 0.58790225 -0.2673654 0.35373276 -0.062451944 0.026500862 0.010783024 0.31735316 0.6423115 -0.005635936 -0.33220646 -0.49534133 -0.1295941 -0.050860442 -0.5930773 0.081213064 -0.4629587 -0.21817236 -0.13385545 0.16765833 0.0887417 -0.3992881 -0.44159696 0.09683742 -0.12796687 0.12840326 0.109404646 0.4644828 0.39879084 0.14423163 0.09959121 -0.47260317 -0.42516676 0.48489058 0.6757961 -0.23524484 -0.045483068 -0.17619194 0.76254064 -0.3351165 -0.28671744 -0.22734693 -0.023802042 0.02833826 -0.54500157 -0.3067135 0.35260347 -0.1813854 0.008573783 -0.18742275 -0.17233871 0.24963738 -0.035152018 0.039404023 -0.234272 0.033009876 0.039253984 -0.06124874 -0.039128598 -0.502288 0.24016602 0.03579623 0.10936031 0.27832425 0.15809208 0.22543572 -0.052584026 -0.26955974 -0.10449095 0.25542766 0.29296783 0.2529971 -0.085181795 0.3226029 0.36169156 -0.13921489 -0.14351758 0.11282693 -0.15498632 -0.15830415 0.19864224 -0.036418445 0.004923314 0.16432686 -0.030354071 0.19307579 0.22189333 -0.17266113 -0.21327046 0.11243465 0.051594496 0.049787443 0.18503137
